tree
version=v4
num_class=1
num_tree_per_iteration=1
label_index=0
max_feature_idx=26
objective=binary sigmoid:1
feature_names=depth tag parent_tag num_siblings text_length word_count letter_ratio digit_ratio whitespace_ratio contains_date contains_time starts_with_digit ends_with_digit has_class has_id attr_has_word_date attr_has_word_time attr_has_word_location text_has_word_date text_word_time text_word_location prev_contains_date next_contains_date prev_contains_time next_contains_time same_parent_as_prev same_parent_as_next
feature_infos=[3:30] -1:10:11:0:9:7:13:1:8:6:2:4:5 -1:2:0:16:15:12:8:14:18:6:17:10:3:4 [0:54] [1:559] [1:81] [0:1] [0:1] [0:0.23529412] [0:1] [0:1] [0:1] [0:1] [0:1] none none [0:1] none none none none [0:1] [0:1] [0:1] [0:1] [0:1] [0:1]
tree_sizes=1237 1199 1611 1505 1281 1611 1725 1402 1297 1514 1839 1921 1810 2025 1616 1314 1207 1926 1634 1622 2021 1626 1728 1525 1924 1818 1534 1528 1725 1734 1844 1728 1631 1842 1830 1742 1838 2270 1829 1399 2054 1626 1632 1949 1739 1841 1960 1738 2151 1737 1519 1926 1929 1853 1624 2068 2244 1935 2360 1493 1859 1740 1610 1944 2080 1856 2158 1645 1844 2067 2053 2153 2256 2134 1966 2172 2055 2274 1852 1958 1967 2252 1826 2155 2035 1739 1854 1836 2187 2171 1845 2172 2171 2167 1749 2256 1847 2287 2278 1859 1965 2067 1936 1958 1746 1941 1761 2072 2295 1947 1747 2154 1851 1966 1857 2474 1651 2071 1973 1853 2483 2051 2377 1973 2263 2089 2064 2274 2501 2185 2071 1970 1735 2287 2078 2070 2090 2189 1946 2057 1861 1832 2153 2410 2496 2076 2276 2065 2078 2174 1948 2197 1873 2187 2067 2194 1637 2084 2497 2283 2383 2391 2065 2191 2092 1759 1754 2087 2079 1980 2186 2068 1982 2157 1774 1878 1765 2081 2079 1869 1766 2061 1875 1975 2272 2280 2408 1853 1875 1969 2082 1849 1758 2287 1645 1773 1545 2169 1761 1639 1971 1637 2082 2167 2070 2083 1983 2100 2190 1640 2273 1878 1769 1876 2193 2083 2167 2316 2177 2071 1346 1976 2171 2185 2288 1969 2199 1754 2307 1657 2089 1995 1644 1637 2283 1861 2058 1886 2212 2171 2101 1978 1872 2059 2505 1763 1885 2311 1744 1644 1878 2098 1765 1126 1434 1750 1967 2201 1967 1972 1750 1739 1658 2298 1963 2182 2077 1995 2085 2194 1643 2200 1861 2081 1979 1871 1671 2295 1880 1318 1654 1875 1973 1880 1665 2110 2205 1755 1553 1747 1980 1847 1853 1975 2106 1973 1460 2409 2534 1967 2425 1558 1880 1863 1976 1558 1961 2195 1647 1899 1776 1428 1775 2304 1659 1772 1753 2414 2297 1554 1665 2005 1974 1885 1981 1783 1974 2106 1868 1967 2197 1765 1872 1983 1558 1968 2002 1889 1890 1786 2318 1961 2116 1768 1870 1860 2003 1754 1892 1650 1970 2003 1977 2088 2197 2416 1769 1333 1546 1454 1749 1749 2214 2193 2007 1458 2305 1874 1978 1875 1772 2195 2089 1534 1777 1663 1882 1984 1344 2084 1996 2080 1776 2087 1562 1776 2077 1993 1978 1985 1773 1774 1542 1541 1766 1243 1977 1980 2189 1440

Tree=0
num_leaves=11
num_cat=2
split_feature=2 0 6 6 1 13 4 4 4 4
split_gain=135.577 37.0409 29.5859 25.7811 21.1872 18.2699 16.8775 3.48712 1.65989 0.388395
threshold=0 16.500000000000004 0.74828768000000012 0.67028988 1 1.0000000180025095e-35 12.500000000000002 43.500000000000007 30.500000000000004 25.500000000000004
decision_type=9 2 2 2 9 2 2 2 2 2
left_child=1 2 -1 -2 6 -5 -3 9 -6 -8
right_child=3 4 -4 5 8 -7 7 -9 -10 -11
leaf_value=1.0246306991882626 0.98556633887223222 0.89050061967771621 0.86204784521386535 0.83632975164831869 1.0588791534032742 0.94157262914673945 1.0067669363908245 0.96354757929514834 1.0200258825309378 1.0359983168937934
leaf_weight=4.1410904824733716 4.1308706849813452 4.4832197874784487 6.160652831196785 33.743997976183891 25.518956378102303 6.3155751228332511 2.61927630007267 2.5572609454393387 4.7001574337482444 2.8055545538663864
leaf_count=52 45 31 37 193 347 58 31 25 58 37
internal_value=0.939606 1.00378 0.923915 0.88769 1.02549 0.851126 0.97538 1.00383 1.04037 1.02534
internal_weight=97.1766 52.9862 10.3017 44.1904 42.6844 40.0596 12.4653 7.98209 30.2191 5.42483
internal_count=914 618 89 296 529 251 124 93 405 68
cat_boundaries=0 1 2
cat_threshold=98628 67
is_linear=0
shrinkage=1


Tree=1
num_leaves=10
num_cat=2
split_feature=2 0 1 7 6 4 13 5 6
split_gain=113.354 46.8875 18.549 17.4924 15.5613 13.4645 4.50664 1.36405 0.539811
threshold=0 16.500000000000004 1 1.0000000180025095e-35 0.74828768000000012 13.500000000000002 1.0000000180025095e-35 5.5000000000000009 0.84150716500000011
decision_type=9 2 9 2 2 2 2 2 2
left_child=1 4 5 6 -1 -3 -2 -4 -7
right_child=3 2 7 -5 -6 8 -8 -9 -10
leaf_value=-0.0022081890453472873 -0.14022655269122872 -0.091075067525878781 0.062963914237169211 -0.030881207068269308 -0.12143711826116013 -0.0019450032031402217 -0.075960449514755335 0.022045119265432952 0.024634827989334133
leaf_weight=4.2447917461395246 34.517559684813023 5.0057987198233622 25.699515216052532 5.6736410260200492 6.8997639119625092 3.5228487327694893 7.3860166892409316 3.7413994669914237 2.8511237576603889
leaf_count=49 190 35 363 56 40 40 60 47 36
internal_value=-0.0544027 0.00561931 0.0316764 -0.0994175 -0.0799458 -0.0205947 -0.130933 0.0441541 0.0116728
internal_weight=99.5425 51.9652 40.8207 47.5772 11.1446 11.3798 41.9036 29.4409 6.37397
internal_count=916 610 521 306 89 111 250 410 76
cat_boundaries=0 1 2
cat_threshold=98564 67
is_linear=0
shrinkage=0.05


Tree=2
num_leaves=14
num_cat=1
split_feature=2 0 6 6 0 0 6 0 0 0 6 0 0
split_gain=108.645 36.5765 17.186 14.4045 7.08339 5.3465 3.8399 1.52584 1.48244 2.66285 1.44208 1.85273 6.48802
threshold=0 14.500000000000002 0.79491592000000011 0.84021277500000002 27.500000000000004 17.500000000000004 0.95742752500000006 17.500000000000004 12.500000000000002 13.500000000000002 0.83069255000000009 21.500000000000004 26.500000000000004
decision_type=9 2 2 2 2 2 2 2 2 2 2 2 2
left_child=1 3 5 -1 7 -2 -6 -3 -4 -10 -9 -12 -13
right_child=2 4 8 -5 6 -7 -8 10 9 -11 11 12 -14
leaf_value=-0.0058229687918993078 -0.064456579040213222 0.0046901232584826381 -0.14291782744291998 -0.12013886429344145 -0.02982717915691337 0.017300698974759245 0.030462414282727248 0.061883678359448614 -0.053662952536930743 -0.11117876690332883 0.052080408238045328 -0.030199275720627757 0.048230926840983832
leaf_weight=5.2565241754055005 3.2180716693401328 2.4127319157123592 15.894372373819349 5.0513514131307602 5.2949769943952543 3.1666856706142426 3.5680022537708282 12.785361461341383 5.4800281226635006 21.799654349684715 7.062204845249652 3.6733166426420194 5.2587475404143333
leaf_count=58 25 28 72 25 55 37 48 185 43 128 101 35 74
internal_value=-0.0481481 0.0103917 -0.0907692 -0.0675135 0.0341272 -0.0270552 -0.00492843 0.0450328 -0.119914 -0.101931 0.0481439 0.0341655 0.0161834
internal_weight=99.922 50.3632 49.5588 10.3079 40.0553 6.38476 8.86298 31.1924 43.1741 27.2797 28.7796 15.9943 8.93206
internal_count=914 609 305 83 526 62 103 423 243 171 395 210 109
cat_boundaries=0 1
cat_threshold=98564
is_linear=0
shrinkage=0.05


Tree=3
num_leaves=13
num_cat=2
split_feature=0 2 7 1 5 0 0 13 8 7 6 0
split_gain=94.5401 36.7143 33.3741 22.1098 12.0726 10.3888 9.58554 5.93038 1.40599 0.997365 0.138115 0.122679
threshold=17.500000000000004 0 0.21583851000000004 1 2.5000000000000004 12.500000000000002 25.500000000000004 1.0000000180025095e-35 0.098780485000000015 0.65686277000000015 0.82406125000000008 11.500000000000002
decision_type=2 9 2 9 2 2 2 2 2 2 2 2
left_child=2 -2 5 9 -5 -1 -6 8 -7 -3 -8 -4
right_child=1 3 11 4 6 7 10 -9 -10 -11 -12 -13
leaf_value=-0.13442931020364557 -0.057250228253159036 0.064046220750366631 0.0059619932080537145 -0.078886063478103008 -0.04910788486132877 -0.11265024902319498 0.020087571111645094 -0.026891055459517865 -0.059651564054358203 0.028093268032861829 0.051756864092133842 0.022074999786033129
leaf_weight=22.225339367985725 8.7018206864595395 24.094829663634304 3.3069676682353011 6.4131332635879543 3.8253407999873144 7.5718290731310862 2.5500983074307442 5.7388276904821387 6.9624633863568306 4.5912738889455786 3.3113895431160927 2.6005108952522278
leaf_count=97 42 353 39 46 36 37 33 52 51 61 47 32
internal_value=-0.0440234 0.0020018 -0.0938918 0.0221741 -0.0194575 -0.109061 0.00537995 -0.0762373 -0.0927363 0.0444565 0.0429144 0.015224
internal_weight=101.894 53.4879 48.4059 44.7861 16.1 42.4985 9.68683 20.2731 14.5343 28.6861 5.86149 5.90748
internal_count=926 618 308 576 162 237 116 140 88 414 80 71
cat_boundaries=0 1 2
cat_threshold=262145 3200
is_linear=0
shrinkage=0.05


Tree=4
num_leaves=11
num_cat=2
split_feature=2 0 3 6 6 1 13 5 6 5
split_gain=77.6737 28.8028 20.8699 14.3153 12.0231 7.9147 7.53291 6.2468 2.62599 1.10454
threshold=0 16.500000000000004 1.0000000180025095e-35 0.84021277500000002 0.67028988 1 1.0000000180025095e-35 2.5000000000000004 0.84150716500000011 5.5000000000000009
decision_type=9 2 2 2 2 9 2 2 2 2
left_child=1 3 -3 -1 -2 7 -6 -4 -9 -7
right_child=4 2 5 -5 6 9 -8 8 -10 -11
leaf_value=0.00247576326750437 -0.019278327956654403 -0.098588810470844848 -0.062245639695168359 -0.10338834360985279 -0.11567838423468796 0.056464575368166792 -0.051776890038386848 -0.01550834264648601 0.039036778340394943 0.018881222061869547
leaf_weight=5.2082524299621564 4.8473759889602652 2.3301245868206015 3.9354860037565249 7.0707486048340797 40.119208179414272 24.321404457092285 7.9196258410811415 4.006352610886097 3.0414524301886559 3.529752440750598
leaf_count=58 50 12 28 34 188 368 62 44 41 46
internal_value=-0.0483587 0.00218545 0.0227653 -0.0616802 -0.0834478 0.0323389 -0.106414 -0.01033 0.00995614 0.0390024
internal_weight=106.33 53.4436 41.1646 12.279 52.8862 38.8344 48.0388 10.9833 7.04781 27.8512
internal_count=931 631 539 92 300 527 250 113 85 414
cat_boundaries=0 1 2
cat_threshold=98628 3
is_linear=0
shrinkage=0.05


Tree=5
num_leaves=14
num_cat=1
split_feature=2 0 6 4 0 6 0 0 8 3 4 3 0
split_gain=69.4712 26.1082 13.5545 11.9913 4.83534 3.85643 4.40993 3.62342 4.40646 3.39038 4.35413 7.25931 2.31865
threshold=0 14.500000000000002 0.67028988 22.500000000000004 21.500000000000004 0.91485510000000014 12.500000000000002 19.500000000000004 0.13172354500000003 4.5000000000000009 8.5000000000000018 2.5000000000000004 17.500000000000004
decision_type=9 2 2 2 2 2 2 2 2 2 2 2 2
left_child=1 3 -2 -1 12 6 -4 8 -8 10 -6 -12 -3
right_child=2 4 5 -5 9 -7 7 -9 -10 -11 11 -13 -14
leaf_value=-0.096669602111208675 -1.2595208539851969e-05 0.003646130202276394 -0.10715285661921543 0.0016592982841811877 0.043249955902181211 -0.11115404266367857 -0.0023543090346380175 -0.079617491301645318 -0.063422826525356066 -0.026423751735004608 -0.03349666695480312 0.049610410852218456 0.059500869663269798
leaf_weight=5.9753862321376783 4.3144031614065161 2.312438860535619 7.7495685219764736 5.5219126343727112 10.451251361519104 22.26397018879652 6.2019718363881129 8.5091181322932226 4.7834754213690758 3.3672712855041018 6.0254836902022344 3.1998492032289505 12.488649908453226
leaf_count=32 48 26 32 57 150 100 57 48 30 35 62 49 197
internal_value=-0.0399394 0.00835352 -0.0719556 -0.0530904 0.0300568 -0.0923471 -0.0735867 -0.0556661 -0.0320188 0.014677 0.0226484 -0.00263796 0.0515575
internal_weight=103.165 49.3422 53.8225 11.4973 37.8449 49.5081 27.2441 19.4946 10.9854 23.0439 19.6766 9.22533 14.8011
internal_count=923 608 315 89 519 267 167 135 87 296 261 111 223
cat_boundaries=0 1
cat_threshold=98564
is_linear=0
shrinkage=0.05


Tree=6
num_leaves=15
num_cat=1
split_feature=0 3 3 1 7 4 13 0 8 6 0 4 6 0
split_gain=54.3598 31.2176 30.3991 13.8951 13.0848 8.83308 6.21441 12.4055 5.08005 2.95714 2.66151 0.90426 0.82677 0.786403
threshold=15.500000000000002 1.0000000180025095e-35 8.5000000000000018 0 0.088932805000000018 21.500000000000004 1.0000000180025095e-35 20.500000000000004 0.11952381000000002 0.84150716500000011 12.500000000000002 2.5000000000000004 0.8987179500000001 13.500000000000002
decision_type=2 2 2 9 2 2 2 2 2 2 2 2 2 2
left_child=4 -2 3 5 10 -3 7 12 -6 -7 -1 -8 -5 -12
right_child=1 2 -4 6 8 9 11 -9 -10 -11 13 -13 -14 -15
leaf_value=-0.10908187512133501 -0.10674510454592863 -0.069264326315529923 -0.0911393720670787 0.045007947032724364 0.01715052029459643 -0.022094001912696906 0.02321648750367214 -0.068773394757137229 -0.059361716098412343 0.039701710083761166 -0.046803985591369633 0.058177944462958403 0.0067678159449524201 -0.085182066646082771
leaf_weight=21.631595283746719 6.3453616425395003 7.0612890273332578 6.4149888679385176 6.5734741464257223 4.1771196946501723 2.9273157864809036 4.1326226927340057 2.8739002496004096 2.8749237358570099 2.9080040901899338 8.2053977027535421 18.272578686475754 2.2279089353978634 7.3703358024358741
leaf_count=88 29 49 34 96 50 28 58 17 20 38 57 290 24 36
internal_value=-0.0415912 -0.0100953 0.00314235 0.0176483 -0.0829393 -0.020504 0.0296512 0.00759676 -0.0175399 0.0100046 -0.0945512 0.0529968 0.0370062 -0.0690076
internal_weight=103.997 59.7374 53.3921 46.9771 44.2594 12.8966 34.0805 11.6753 7.05204 5.83532 37.2073 22.4052 8.80138 15.5757
internal_count=914 663 634 600 251 115 485 137 70 66 181 348 120 93
cat_boundaries=0 1
cat_threshold=8197
is_linear=0
shrinkage=0.05


Tree=7
num_leaves=12
num_cat=2
split_feature=0 2 6 1 5 0 13 6 4 6 0
split_gain=52.5315 33.1825 13.2308 10.2963 9.91069 5.22389 10.2876 2.4295 1.61626 1.29246 1.15381
threshold=15.500000000000002 0 0.69157610000000014 1 2.5000000000000004 12.500000000000002 1.0000000180025095e-35 0.13574661000000002 40.500000000000007 0.84150716500000011 21.500000000000004
decision_type=2 9 2 9 2 2 2 2 2 2 2
left_child=2 3 -1 4 -2 -4 -7 -5 -9 -6 -3
right_child=1 10 5 7 9 6 -8 8 -10 -11 -12
leaf_value=-0.00066044414297419004 -0.075433569081789303 -0.054064803479006857 -0.10342866179341531 0.011145568826143443 -0.0053901634905405386 -0.081591991129966832 0.0034241892749507946 0.057859411984404564 0.013945937979761734 0.034911489718970443 -0.095268543220292184
leaf_weight=5.0004853829741469 4.7095640003681165 12.818844482302667 23.891699507832527 4.8506696410477188 3.9587571918964386 12.51174456626177 4.7242605760693541 20.032221484929327 3.1668313518166533 2.5889983475208282 5.7275341898202887
leaf_count=56 28 87 97 66 44 64 44 331 43 36 24
internal_value=-0.0384949 -0.0064555 -0.0776887 0.0200391 -0.014922 -0.0868161 -0.0593797 0.0343211 0.0526889 0.0130593 -0.0469782
internal_weight=103.982 57.8534 46.1282 39.307 11.2573 41.1277 17.236 28.0497 23.1991 6.54776 18.5464
internal_count=920 659 261 548 108 205 108 440 374 80 111
cat_boundaries=0 1 2
cat_threshold=102660 67
is_linear=0
shrinkage=0.05


Tree=8
num_leaves=11
num_cat=2
split_feature=2 1 5 7 5 13 4 4 6 4
split_gain=45.3165 18.8946 7.97195 7.54431 7.19035 2.62707 2.30331 9.27962 0.413691 0.38091
threshold=0 1 3.5000000000000004 0.021195236500000002 5.5000000000000009 1.0000000180025095e-35 17.500000000000004 14.500000000000002 0.84021277500000002 10.500000000000002
decision_type=9 9 2 2 2 2 2 2 2 2
left_child=1 4 -3 5 6 -2 7 9 -4 -1
right_child=3 2 8 -5 -6 -7 -8 -9 -10 -11
leaf_value=0.04519640874041092 -0.087821252256066989 -0.073640076822674413 -0.012362033544078742 -0.019405222585811011 -0.023036925363618045 -0.045541258799691391 0.055427861868955743 -0.036616385223840829 0.01084603604291378 0.012300047708516846
leaf_weight=13.062957029789692 40.902578972280025 10.490129396319391 2.9051945284008971 6.1351368129253379 5.3150984533131114 7.931207761168479 10.425045792013405 4.0586390271782866 2.7848725765943527 1.916490901261567
leaf_count=211 190 66 31 58 53 56 164 39 35 27
internal_value=-0.0383856 0.00194752 -0.0313964 -0.0640473 0.021277 -0.0820061 0.0367495 0.0242657 -0.00108 0.0420207
internal_weight=105.927 50.9584 16.1802 54.9689 34.7782 48.8338 29.4631 19.0381 5.69007 14.9794
internal_count=930 626 132 304 494 246 441 277 66 238
cat_boundaries=0 1 2
cat_threshold=98564 3712
is_linear=0
shrinkage=0.05


Tree=9
num_leaves=13
num_cat=2
split_feature=0 2 1 7 4 0 0 8 8 4 7 6
split_gain=45.2858 30.9413 17.5436 13.2583 11.8102 5.63114 3.36342 5.1458 2.89949 2.68561 0.0589718 0.00229637
threshold=16.500000000000004 0 1 1.0000000180025095e-35 13.500000000000002 25.500000000000004 12.500000000000002 0.088562095000000021 0.13240941500000003 25.500000000000004 0.65686277000000015 0.84698996000000015
decision_type=2 9 9 2 2 2 2 2 2 2 2 2
left_child=3 -2 10 6 -4 11 -1 -8 -9 -5 -3 -6
right_child=1 2 4 9 5 -7 7 8 -10 -11 -12 -13
leaf_value=-0.09299183003513542 -0.050433921653739257 0.061035090185995948 -0.066503381469275688 -0.033894515606110308 -0.023463476914974635 0.046434781457271229 -0.080444849166990504 0.0070062053378380342 -0.046876159813513979 0.019148106096841491 0.032876899997498384 -0.01029580809325923
leaf_weight=22.018618501722813 11.056486509740353 21.025673925876621 7.5485299080610302 3.4035537093877783 3.3971869572997075 4.8951353877782822 9.3462535068392771 3.9669265896081907 4.8296114951372147 4.2573799937963486 4.2447891980409613 2.7504374198615551
leaf_count=89 48 358 46 30 34 71 45 35 30 51 64 26
internal_value=-0.0317338 -0.00057544 0.0196898 -0.0667707 -0.0147528 0.010957 -0.0780177 -0.0559361 -0.0243423 -0.00560996 0.0418184 -0.019837
internal_weight=102.741 54.9182 43.8618 47.8223 18.5913 11.0428 40.1614 18.1428 8.79654 7.66093 25.2705 6.14762
internal_count=927 647 599 280 177 131 199 110 65 81 422 60
cat_boundaries=0 1 2
cat_threshold=262145 3200
is_linear=0
shrinkage=0.05


Tree=10
num_leaves=16
num_cat=1
split_feature=0 1 3 9 0 13 5 13 0 0 3 3 8 7 0
split_gain=34.7714 27.9818 23.915 12.428 5.33089 6.16026 7.56425 2.81715 6.34294 2.44735 9.81367 0.531776 0.203814 0.130814 0.0948664
threshold=17.500000000000004 0 1.0000000180025095e-35 1.0000000180025095e-35 12.500000000000002 1.0000000180025095e-35 3.5000000000000004 1.0000000180025095e-35 20.500000000000004 25.500000000000004 8.5000000000000018 1.5000000000000002 0.098780485000000015 0.87500000000000011 19.500000000000004
decision_type=2 9 2 2 2 2 2 2 2 2 2 2 2 2 2
left_child=3 2 -2 4 -1 12 -7 8 14 -3 11 -11 -6 -9 -4
right_child=1 9 7 -5 5 6 -8 13 -10 10 -12 -13 -14 -15 -16
leaf_value=-0.089368100910430362 -0.072511193161730422 -0.088406369157346981 0.049797261127189206 0.0092743772823176401 -0.079998605928645508 -0.050103051754557197 0.03637695200700692 0.057806355038696383 -0.036306518006147849 -0.011028778873104172 -0.08928108986716525 0.015244219251145233 -0.04777921473753563 0.028732963942275758 0.021329047578642971
leaf_weight=23.594069249927998 4.3427539169788352 7.5414990931749371 4.3061546571552771 5.0756566002964965 8.8411573767662066 4.9232914745807665 3.4866513907909393 15.53958982229233 2.8455680534243584 2.7667288370430452 4.6942827254533768 2.9840250089764595 8.0907348692417127 3.7046956755220881 2.9297206923365593
leaf_count=98 21 39 78 59 41 33 40 281 19 27 19 37 52 57 31
internal_value=-0.035895 -0.00630576 0.0204237 -0.0635643 -0.0711535 -0.0514464 -0.014194 0.0428581 0.0188089 -0.0429276 -0.0427435 0.00284278 -0.0681259 0.0539052 0.0422601
internal_weight=105.667 51.655 33.6685 54.0116 48.9359 25.3418 8.40994 29.3257 10.0814 17.9865 10.445 5.75075 16.9319 19.2443 7.23588
internal_count=932 609 487 323 264 166 73 466 128 122 83 64 93 338 109
cat_boundaries=0 1
cat_threshold=3712
is_linear=0
shrinkage=0.05


Tree=11
num_leaves=17
num_cat=1
split_feature=0 2 3 3 6 0 8 3 0 6 4 8 6 0 0 6
split_gain=34.6549 25.5192 10.4199 9.09354 8.5908 5.2462 3.09065 2.33549 4.80664 2.69009 2.67077 5.33751 1.4808 1.42112 0.164842 0.107015
threshold=15.500000000000002 0 1.0000000180025095e-35 8.5000000000000018 0.67028988 12.500000000000002 0.09449405000000001 1.5000000000000002 25.500000000000004 0.78319625000000015 14.500000000000002 0.075498577500000011 0.84150716500000011 27.500000000000004 26.500000000000004 0.8987179500000001
decision_type=2 9 2 2 2 2 2 2 2 2 2 2 2 2 2 2
left_child=4 -2 -3 7 -1 -6 -7 8 -4 -9 11 14 -12 -10 -11 -14
right_child=1 2 3 -5 5 6 -8 9 13 10 12 -13 15 -15 -16 -17
leaf_value=-0.0012293669706339306 -0.04932557625238343 -0.062739551281434339 -0.031073354020628094 -0.052016586224327636 -0.086802959356090115 -0.064407145420321721 -0.017366034301274313 0.054441394826185055 0.046320605811115467 0.012905965875448365 0.0065204742733083968 -0.047576658625776862 0.056319473350002425 0.003497307657630168 0.039955598799679436 0.023797784879812267
leaf_weight=4.8750094249844542 11.850983895361422 2.924907073378562 3.9594917893409711 2.8714770302176467 24.224151983857155 7.8350967764854413 7.4345997124910355 11.751710806041958 4.4837382398545742 2.4824447259306934 3.3193790502846223 2.7358241379261017 4.4714704416692257 3.266614805907011 1.971471309661865 2.7453748509287834
leaf_count=54 51 16 40 18 99 40 57 198 70 30 43 24 68 47 38 40
internal_value=-0.0313483 -0.00592199 0.0133278 0.0226158 -0.064191 -0.0717405 -0.0439786 0.0289286 0.00903423 0.0362757 0.0219684 -0.00171761 0.0368792 0.0307338 0.0300099 0.0483497
internal_weight=103.204 58.8349 46.9839 44.059 44.3689 39.4938 15.2697 41.1875 11.7098 29.4777 17.726 7.18974 10.5362 7.75035 4.45392 7.21685
internal_count=933 683 632 616 250 196 97 598 157 441 243 92 151 117 68 108
cat_boundaries=0 1
cat_threshold=262145
is_linear=0
shrinkage=0.05


Tree=12
num_leaves=16
num_cat=0
split_feature=13 0 7 0 4 0 3 6 4 0 0 0 8 6 8
split_gain=31.6877 18.3324 14.6743 12.1765 9.95346 15.7862 8.55025 4.93021 3.77247 3.12641 13.7667 2.81538 2.34451 1.66283 0.623222
threshold=1.0000000180025095e-35 25.500000000000004 0.16695652500000005 19.500000000000004 17.500000000000004 16.500000000000004 6.5000000000000009 0.84021277500000002 38.500000000000007 15.500000000000002 22.500000000000004 19.500000000000004 0.11952381000000002 0.88047618000000016 0.10355340750000001
decision_type=2 2 2 2 2 2 2 2 2 2 2 2 2 2 2
left_child=2 3 9 4 5 -2 -3 -6 -9 -1 11 12 -11 -7 -4
right_child=1 6 14 -5 7 13 -8 8 -10 10 -12 -13 -14 -15 -16
leaf_value=-0.076468983444709246 -0.084842357634219157 0.048442643201336504 0.034136913722817373 -0.09205850690692706 0.055773711850308799 0.038394293491456566 -0.047080372414780469 0.024900603797042817 -0.044023418293342546 0.033279626309119729 -0.094894227150867871 -0.035088485782536198 -0.018419446813307198 -0.010566593360729223 -0.00014893784640770922
leaf_weight=31.718734882771969 7.0225831642746979 15.899735264480116 2.7280041053891173 4.7871232368051997 4.9225020036101323 3.5390678644180298 1.9057455509901036 3.38766198605299 2.6593336425721645 3.6872820183634776 7.4582788795232764 5.4079495370388031 3.235961277037859 2.2369439192116261 2.0431739687919617
leaf_count=146 34 268 42 23 74 59 13 44 19 57 31 34 29 28 23
internal_value=-0.0331693 -0.00238583 -0.0580432 -0.026894 -0.0105824 -0.0391767 0.0362588 0.0232657 -0.00735646 -0.0657324 -0.0456731 -0.0110176 0.00984028 0.0206716 0.0219729
internal_weight=102.64 46.3607 56.2794 28.5552 23.7681 12.7986 17.8055 10.9695 6.047 51.5082 19.7895 12.3312 6.92324 5.77601 4.77118
internal_count=924 562 362 281 258 121 281 137 63 297 151 120 86 87 65
is_linear=0
shrinkage=0.05


Tree=13
num_leaves=18
num_cat=0
split_feature=13 7 3 6 6 4 4 6 6 8 4 3 6 7 4 4 4
split_gain=31.5016 15.1062 10.5934 6.42113 8.39793 3.49577 3.4465 3.49554 1.87055 4.18942 1.59008 1.58289 1.55328 1.40391 0.497717 0.310062 0.231414
threshold=1.0000000180025095e-35 0.25462962500000003 1.0000000180025095e-35 0.13574661000000002 0.83069255000000009 8.5000000000000018 17.500000000000004 0.86754390000000015 0.91485510000000014 0.12254524500000001 12.500000000000002 3.5000000000000004 0.87939395000000009 0.43303571500000004 16.500000000000004 5.5000000000000009 32.500000000000007
decision_type=2 2 2 2 2 2 2 2 2 2 2 2 2 2 2 2 2
left_child=1 8 -2 11 14 15 -7 -8 9 10 -1 -4 -12 -3 -5 -6 -9
right_child=2 13 3 4 5 6 7 16 -10 -11 12 -13 -14 -15 -16 -17 -18
leaf_value=-0.053337604103379538 -0.057144014051649254 0.047464254866741572 -0.0072706226238590556 0.020036509217171497 0.033374107368811821 -0.044100608564398687 -0.02537532937958142 0.044842775725182832 -0.075572625660685455 -0.069120951355703134 0.0037684622422529644 -0.055137092506394564 -0.031182913682854252 -0.0028559672755878664 0.057572822603790222 0.010486976503985885 0.012831436658112115
leaf_weight=4.5163782238960293 5.6265162453055373 2.4835315570235243 4.0088934600353232 2.548504374921321 4.1446752697229403 4.9526153355836851 3.8324726670980453 1.9752757884562013 20.973624438047409 15.371910329908131 4.8251621425151807 2.6009531915187836 7.3257013931870461 2.1237301863729954 9.4250160977244359 3.9415914416313171 2.0905107893049717
leaf_count=27 33 38 54 38 76 35 35 32 95 84 53 22 54 28 160 50 30
internal_value=-0.0298611 -0.0540382 0.00149792 0.011051 0.0201339 0.000522268 -0.0153105 0.00566962 -0.0615437 -0.0503506 -0.0301065 -0.0308763 -0.0180724 0.0278963 0.0517436 0.0245999 0.0341655
internal_weight=102.767 57.62 45.147 39.5205 32.9107 20.9371 12.8509 7.89826 53.0128 32.0392 16.6672 6.60985 12.1509 4.60726 11.9735 8.08627 4.06579
internal_count=944 379 565 532 456 258 132 97 313 218 134 76 107 66 198 126 62
is_linear=0
shrinkage=0.05


Tree=14
num_leaves=14
num_cat=2
split_feature=2 1 13 5 3 5 4 4 8 3 4 4 6
split_gain=24.775 20.13 7.47296 4.34437 3.86738 4.64387 3.71693 9.32549 5.37858 3.08522 0.612035 0.598092 0.0671485
threshold=0 1 1.0000000180025095e-35 5.5000000000000009 7.5000000000000009 3.5000000000000004 17.500000000000004 8.5000000000000018 0.060661765000000006 1.5000000000000002 14.500000000000002 45.500000000000007 0.82826680000000008
decision_type=9 9 2 2 2 2 2 2 2 2 2 2 2
left_child=2 3 12 6 5 -3 7 -2 -9 -7 -10 -11 -1
right_child=1 4 -4 -5 -6 9 -8 8 10 11 -12 -13 -14
leaf_value=-0.04612862953416929 0.045379973642997395 -0.052546211217559563 -0.01564045442647901 -0.014607145770675112 -0.083619265778238833 -0.032829512801616154 0.055057345026776595 -0.067025882268437684 0.023579096240436841 0.035045754552894819 -0.0051851813859999565 0.0011469581476116022 -0.077854772947695466
leaf_weight=5.6736977472901335 11.546779885888105 10.207145445048814 7.124510630965232 5.4891611933708182 4.468176841735839 3.6415945217013341 10.163869656622408 2.7852463200688344 2.3869782313704491 2.4829765111207962 3.4447959065437317 2.1887212581932545 30.041140109300613
leaf_count=40 212 64 59 59 18 31 175 16 37 34 36 26 131
internal_value=-0.0295395 -0.00258512 -0.0529654 0.0190603 -0.0315635 -0.0315338 0.0315099 0.0175998 -0.0204736 -0.00286262 0.00831626 0.0221664 -0.0742084
internal_weight=101.645 58.8054 42.8393 35.8168 22.9886 18.5204 30.3277 20.1638 8.61702 8.31329 5.83177 4.6717 35.7148
internal_count=938 708 230 535 173 155 476 301 89 91 73 60 171
cat_boundaries=0 1 2
cat_threshold=266241 3712
is_linear=0
shrinkage=0.05


Tree=15
num_leaves=11
num_cat=1
split_feature=0 2 0 3 8 7 0 13 0 6
split_gain=30.9359 19.5863 18.6236 17.1016 8.88867 12.3206 5.9481 2.45471 0.503274 0.426139
threshold=17.500000000000004 0 25.500000000000004 8.5000000000000018 0.086335405000000018 0.16695652500000005 12.500000000000002 1.0000000180025095e-35 21.500000000000004 0.20871144000000003
decision_type=2 9 2 2 2 2 2 2 2 2
left_child=4 -2 8 9 -1 6 -6 -8 -3 -4
right_child=1 2 3 -5 5 -7 7 -9 -10 -11
leaf_value=-0.077195757970668008 0.032834874070615735 -0.047074639751278818 0.014641440217160386 -0.069621672973172871 -0.075333628238208231 0.037220441412549529 -0.037699077887276916 0.0049513540760691456 -0.085765318877619762 0.042419825611522681
leaf_weight=24.169510819017887 16.793688453733921 7.2709935940802115 3.2722229249775436 4.2599168866872779 10.334851570427423 4.3385019935667506 9.1789912730455381 4.7302062958478919 6.2930658161640167 9.1937607005238515
leaf_count=112 281 51 50 19 44 60 58 45 26 170
internal_value=-0.0290276 0.000551558 -0.02146 0.00726422 -0.0549475 -0.0341607 -0.0479028 -0.0238354 -0.0696815 0.036757
internal_weight=99.8357 47.0836 30.29 16.7259 52.7521 28.5826 24.244 13.9092 13.5641 12.466
internal_count=916 597 316 239 319 207 147 103 77 220
cat_boundaries=0 1
cat_threshold=119040
is_linear=0
shrinkage=0.05


Tree=16
num_leaves=10
num_cat=2
split_feature=0 2 13 1 8 7 0 8 12
split_gain=25.9531 16.8276 18.1263 15.2511 7.72957 8.02734 6.84591 3.50149 2.06445
threshold=17.500000000000004 0 1.0000000180025095e-35 1 0.098780485000000015 0.25462962500000003 12.500000000000002 0.13100686500000003 1.0000000180025095e-35
decision_type=2 9 2 9 2 2 2 2 2
left_child=4 8 -3 -4 -1 6 -6 -8 -2
right_child=1 2 3 -5 5 -7 7 -9 -10
leaf_value=-0.071071754094756884 0.051707138021169621 -0.075817151067262389 -0.032506918193806293 0.02780793192579234 -0.073549211670795672 0.030948001281432703 0.012714181729785667 -0.038092918289670263 0.00097019299628019412
leaf_weight=26.436819955706596 14.669767886400225 11.098913326859476 8.0493370816111547 12.327769581228496 8.7759153172373825 3.7632496282458296 5.531908877193926 6.4335482120513916 2.3434431888163081
leaf_count=129 254 54 41 242 38 54 50 44 35
internal_value=-0.0278407 -0.00150256 -0.0209022 0.00137819 -0.0523994 -0.0302579 -0.0422756 -0.0154347 0.0290392
internal_weight=99.4307 48.4892 31.476 20.3771 50.9414 24.5046 20.7414 11.9655 17.0132
internal_count=941 626 337 283 315 186 132 94 289
cat_boundaries=0 1 2
cat_threshold=119040 67
is_linear=0
shrinkage=0.05


Tree=17
num_leaves=17
num_cat=1
split_feature=1 13 0 3 0 0 0 5 4 4 6 4 3 4 4 0
split_gain=20.601 14.5186 11.9247 12.2646 6.2605 5.90945 12.5839 5.6367 5.64856 1.16582 1.13821 1.00283 0.945405 0.617638 0.0448929 0.19368
threshold=0 1.0000000180025095e-35 25.500000000000004 8.5000000000000018 19.500000000000004 15.500000000000002 22.500000000000004 3.5000000000000004 46.500000000000007 30.500000000000004 0.8987179500000001 30.500000000000004 1.5000000000000002 8.5000000000000018 2.5000000000000004 26.500000000000004
decision_type=9 2 2 2 2 2 2 2 2 2 2 2 2 2 2 2
left_child=9 5 4 14 7 -2 10 12 -9 -1 11 13 -3 -7 -4 -16
right_child=1 2 3 -5 -6 6 -8 8 -10 -11 -12 -13 -14 -15 15 -17
leaf_value=0.052456495898646385 -0.069433070576377695 -0.055373236083692025 0.022010635823814073 -0.066454035975266362 -0.080579185098907255 0.00070563603818101428 -0.080969019035008569 0.046090597121146396 -0.035949951672714753 0.01476171930983273 -0.02032388064987416 -0.013302217817863546 -0.019846793349639819 0.031202466497840538 0.017333796886464001 0.052494109522928725
leaf_weight=8.6187717206776124 29.488233387470245 5.0973421968519741 2.968732099980115 2.2432515174150458 4.8416604325175276 2.6876162216067332 6.7217884361743918 4.3273557871580115 2.5428398549556732 3.8968828842043868 3.4837255850434294 2.4738876968622208 5.2255783639848232 3.5523579679429531 1.7976040691137294 6.8233835622668266
leaf_count=171 140 32 49 9 22 35 29 62 16 59 27 18 47 44 17 138
internal_value=-0.0270033 -0.0337709 -0.0130934 0.0223153 -0.035326 -0.0553519 -0.0310208 -0.0188539 0.0150156 0.0245306 0.000553874 0.0101336 -0.0407304 0.0199789 0.0434107 0.0477264
internal_weight=96.791 84.2754 35.8677 13.833 22.0348 48.4076 18.9194 17.1931 6.8702 12.5157 12.1976 8.71386 10.3229 6.23997 11.5897 8.62099
internal_count=915 685 392 213 179 293 153 157 78 230 124 97 79 79 204 155
cat_boundaries=0 1
cat_threshold=2688
is_linear=0
shrinkage=0.05


Tree=18
num_leaves=14
num_cat=1
split_feature=0 2 0 3 7 5 0 8 0 8 12 12 6
split_gain=21.441 13.4546 17.8823 12.9408 7.5446 6.05601 4.35572 3.12652 2.14866 1.97587 1.31202 1.11697 1.03573
threshold=17.500000000000004 0 25.500000000000004 8.5000000000000018 0.16695652500000005 3.5000000000000004 12.500000000000002 0.098780485000000015 20.500000000000004 0.13100686500000003 1.0000000180025095e-35 1.0000000180025095e-35 0.90121950000000017
decision_type=2 9 2 2 2 2 2 2 2 2 2 2 2
left_child=4 2 8 11 6 -6 -1 -8 -2 -9 12 -4 -3
right_child=1 10 3 -5 5 -7 7 9 -10 -11 -12 -13 -14
leaf_value=-0.073057464957859128 -0.034014510126518342 0.053914385347838926 0.042051468680372329 -0.062986126862916714 -0.043043775088622685 0.047229579876098292 -0.055867742658173458 0.0074921927769369444 -0.081126418776186482 -0.033003294201590941 0.0056571990484772031 0.0072419117719588122 0.013675729284917391
leaf_weight=22.901226997375488 6.4223921187222031 10.086240760982035 9.1541151031851786 3.6709259897470465 2.589190922677516 2.8598949834704399 11.800894632935526 4.4992722570896131 8.5301420390605909 6.5381781607866287 2.6147972829639903 3.6007256284356108 2.8448652811348429
leaf_count=103 49 186 180 17 20 47 62 40 36 45 40 55 46
internal_value=-0.0285519 -0.00393886 -0.0202817 0.00953243 -0.0506067 0.00431207 -0.0571016 -0.0387082 -0.0642917 -0.0172448 0.0252671 0.0334656 0.0466789
internal_weight=98.1129 46.9242 31.3783 16.4258 51.1887 5.44909 45.7396 22.8383 14.9525 11.0375 15.5459 12.7548 12.9311
internal_count=926 609 337 252 317 67 250 147 85 85 272 235 232
cat_boundaries=0 1
cat_threshold=263237
is_linear=0
shrinkage=0.05


Tree=19
num_leaves=14
num_cat=1
split_feature=2 0 7 7 13 0 5 0 0 0 0 3 0
split_gain=22.1762 19.5696 6.8416 6.33978 3.87736 7.79561 3.23499 2.83912 10.9786 2.64301 0.890288 0.803495 0.795588
threshold=0 17.500000000000004 0.10912698500000002 0.65686277000000015 1.0000000180025095e-35 15.500000000000002 3.5000000000000004 21.500000000000004 25.500000000000004 27.500000000000004 13.500000000000002 3.5000000000000004 22.500000000000004
decision_type=9 2 2 2 2 2 2 2 2 2 2 2 2
left_child=1 2 -1 7 10 -6 -4 -3 -9 -10 -2 -5 -12
right_child=4 3 6 11 5 -7 -8 8 9 -11 12 -13 -14
leaf_value=-0.056398469616585206 -0.071034913550829359 0.05634720433443894 -0.027648671665238701 0.00071568924067844683 0.020890116304657737 -0.06155476117883435 0.037420380207133994 -0.068333338598342092 0.051825247373986694 -0.0014437717900494553 -0.035316746259367142 -0.033831815254615087 -0.06496335111363033
leaf_weight=12.175842210650446 18.517567873001099 11.256682064384227 2.6279608756303778 3.1134553477168074 4.920844338834284 4.8046138137578964 3.091119933873415 1.9434343576431263 8.9416301399469358 2.9713605158030978 13.561601266264917 2.5623588897287846 5.8498856872320166
leaf_count=67 86 228 22 46 45 24 49 8 172 53 88 24 26
internal_value=-0.0245351 0.00320183 -0.0365344 0.027727 -0.0439745 -0.0217813 0.00785568 0.0382562 0.0207559 0.0394559 -0.0602555 -0.0176124 -0.0469961
internal_weight=96.3384 48.6838 17.8949 30.7889 47.6545 9.72546 5.71908 25.1131 13.8564 11.913 37.9291 5.67581 19.4115
internal_count=938 669 138 531 269 69 71 461 233 225 200 70 114
cat_boundaries=0 1
cat_threshold=102660
is_linear=0
shrinkage=0.05


Tree=20
num_leaves=18
num_cat=0
split_feature=13 3 0 7 3 0 0 0 0 4 7 7 8 5 4 0 4
split_gain=19.0927 11.0754 11.1313 9.8563 9.58316 2.84181 2.43666 10.813 2.93894 1.73897 1.25807 1.22696 0.58988 0.24657 0.148112 0.13418 0.0852287
threshold=1.0000000180025095e-35 1.0000000180025095e-35 12.500000000000002 0.18303571500000002 8.5000000000000018 25.500000000000004 22.500000000000004 16.500000000000004 19.500000000000004 25.500000000000004 0.43303571500000004 0.046536798500000011 0.09449405000000001 3.5000000000000004 2.5000000000000004 12.500000000000002 14.500000000000002
decision_type=2 2 2 2 2 2 2 2 2 2 2 2 2 2 2 2 2
left_child=3 -2 -3 6 5 9 7 15 13 11 -5 12 -4 -9 -7 -1 -13
right_child=1 2 4 10 -6 14 -8 8 -10 -11 -12 16 -14 -15 -16 -17 -18
leaf_value=-0.066790907812349046 -0.055039228113264275 -0.042532270994112414 0.0032770461705871044 0.043997459351598857 -0.057493206482989001 0.023967619050214353 -0.078489317700986883 0.034703386109824749 -0.023646836398413779 0.042001277151380911 -0.0046201042982262682 0.028441393258484909 -0.024364386900492307 0.0090966858272337036 0.052504422009026247 -0.044959553602178196 0.0079083971436871379
leaf_weight=15.837781071662905 6.4541487544775 6.7370383739471427 3.7740701064467483 2.2178763039410105 2.3294996842741957 3.2022945769131175 7.5304918587207785 2.4810418225824815 5.2169934511184692 3.2774622812867156 1.9743809327483175 2.1752418018877506 2.5565667301416397 2.6136443503201008 11.196676213294266 13.189052395522593 1.8520677424967287
leaf_count=77 36 55 49 40 11 54 34 47 35 52 27 37 26 30 230 74 30
internal_value=-0.0236963 0.000714715 0.0116038 -0.0441326 0.0245884 0.0331542 -0.0506681 -0.0435286 0.000589117 0.0151355 0.0246206 0.00368507 -0.00968657 0.0252148 0.0481265 -0.058699 0.0224501
internal_weight=94.6163 43.5551 37.1009 51.0613 30.3639 28.0344 46.869 39.3385 10.3117 13.6354 4.19226 10.3579 6.33064 5.09469 14.399 29.0268 4.02731
internal_count=944 580 544 364 489 478 297 263 112 194 67 142 75 77 284 151 67
is_linear=0
shrinkage=0.05


Tree=21
num_leaves=14
num_cat=1
split_feature=0 2 13 3 3 0 4 5 0 0 8 0 0
split_gain=16.6373 11.0712 12.6317 10.6888 7.70733 3.2435 2.94397 2.21583 2.3445 1.71779 1.56014 1.30401 1.61092
threshold=12.500000000000002 0 1.0000000180025095e-35 1.0000000180025095e-35 8.5000000000000018 17.500000000000004 26.500000000000004 2.5000000000000004 19.500000000000004 25.500000000000004 0.10355340750000001 19.500000000000004 14.500000000000002
decision_type=2 9 2 2 2 2 2 2 2 2 2 2 2
left_child=6 5 11 -4 9 -2 -1 8 -7 10 -5 12 -3
right_child=1 2 3 4 -6 7 -8 -9 -10 -11 -12 -13 -14
leaf_value=-0.067775412858673501 -0.0057281514385558955 -0.054958940957080198 -0.056585648484234467 -0.011094159060913704 -0.055697961061300351 0.035283721299035502 -0.022192875695576403 0.051175357733999172 -0.017633775339294434 0.039280511896123409 0.030123823792072554 -0.070335531682015215 -0.014197357231850866
leaf_weight=16.554346859455112 5.9538722634315517 4.9553084075450915 5.6641938909888294 4.3978128954768243 2.3168968632817259 3.5208460986614218 6.0742474757134906 9.1901462599635106 3.0486052222549915 10.815221060067413 3.0840353555977345 8.3843559175729734 5.696941539645195
leaf_count=82 46 24 29 41 11 75 56 184 29 223 38 39 42
internal_value=-0.020892 -0.00804445 -0.0198353 -0.00126811 0.0158465 0.017417 -0.0569967 0.0363735 0.0116415 0.0273228 0.00744443 -0.0540226 -0.0362485
internal_weight=89.6568 67.0282 45.3148 26.2782 20.614 21.7135 22.6286 15.7596 6.56945 18.2971 7.48185 19.0366 10.6522
internal_count=919 781 447 342 313 334 138 288 104 302 79 105 66
cat_boundaries=0 1
cat_threshold=120064
is_linear=0
shrinkage=0.05


Tree=22
num_leaves=15
num_cat=1
split_feature=0 2 13 3 6 0 0 0 6 4 0 3 0 4
split_gain=15.7345 14.4549 16.5367 7.96666 3.75248 2.84177 2.64377 3.38006 2.23265 1.72583 1.0854 0.99377 0.649032 0.296884
threshold=12.500000000000002 0 1.0000000180025095e-35 1.0000000180025095e-35 0.20871144000000003 17.500000000000004 25.500000000000004 16.500000000000004 0.7193750000000001 11.500000000000002 19.500000000000004 3.5000000000000004 14.500000000000002 4.5000000000000009
decision_type=2 9 2 2 2 2 2 2 2 2 2 2 2 2
left_child=8 5 10 -4 11 -2 7 -6 -1 13 12 -5 -3 -7
right_child=1 2 3 4 6 9 -8 -9 -10 -11 -12 -13 -14 -15
leaf_value=-0.020019193037013102 -0.0012586748631052264 -0.055664356216258495 -0.05259221395425967 0.0012330767795798994 0.030267082857868235 0.020011533427724451 0.04419532196151927 -0.028460628411195878 -0.065619427373495645 0.051990801761820651 -0.074449938778938782 -0.036568150953435657 -0.024535773869688433 -0.0032463231900639773
leaf_weight=4.4390492141246822 5.2231017090380218 5.1428423747420329 4.840470843017104 3.1571947112679508 4.3643285483121854 2.8546070754528037 7.7843772768974304 3.5225482359528542 17.952644295990467 10.087558716535566 9.5075644478201848 2.7051672376692295 6.3444666713476181 1.7488478384912012
leaf_count=45 41 25 25 48 46 51 170 31 90 207 44 24 44 26
internal_value=-0.0224516 -0.0100061 -0.0226161 -0.000571777 0.0129367 0.0206 0.0253056 0.00378626 -0.0578217 0.0410849 -0.059306 -0.0189971 -0.0418136 0.0121734
internal_weight=89.6748 67.2831 47.369 26.3741 21.5336 19.9141 15.6713 7.88688 22.3917 14.691 20.9949 5.86236 11.4873 4.60345
internal_count=917 782 457 344 319 325 247 77 135 284 113 72 69 77
cat_boundaries=0 1
cat_threshold=119040
is_linear=0
shrinkage=0.05


Tree=23
num_leaves=13
num_cat=1
split_feature=0 2 3 0 6 6 0 0 3 7 6 6
split_gain=15.4925 14.1994 7.03178 5.06548 4.14214 2.87226 2.28687 2.48089 0.504648 0.482417 3.44369 0.454816
threshold=12.500000000000002 0 1.0000000180025095e-35 13.500000000000002 0.13574661000000002 0.7193750000000001 27.500000000000004 15.500000000000002 3.5000000000000004 0.073333335000000013 0.84021277500000002 0.89379696500000005
decision_type=2 9 2 2 2 2 2 2 2 2 2 2
left_child=5 3 -3 -2 8 -1 7 -6 -4 10 -9 -5
right_child=1 2 4 11 6 -7 -8 9 -10 -11 -12 -13
leaf_value=-0.015492889069224761 -0.004769224744271691 -0.048055788854994466 -0.0011912086760995824 -0.03782874653488387 -0.0066153052915918376 -0.064804641409584821 -0.010910618941364593 -0.0077446093625985401 -0.029454738088169088 0.051733251705793848 0.042982529051647324 -0.063591182785493444
leaf_weight=4.3265527039766338 7.4824473112821606 3.2320566996932021 2.9953841492533675 10.498632971197368 3.2190843932330671 19.576033346354961 2.9059823416173449 4.2108750157058266 2.562349408864975 6.9240495115518561 11.385950714349745 10.584811747074125
leaf_count=46 58 17 45 74 26 101 50 57 24 161 210 52
internal_value=-0.023208 -0.0103543 0.0107022 -0.0306356 0.020502 -0.0568594 0.0280454 0.032687 -0.0167264 0.0383472 0.0296456 -0.0530565
internal_weight=89.9042 66.0016 37.4357 28.5659 34.2037 23.9026 28.6459 25.74 5.55773 22.5209 15.5968 21.0834
internal_count=921 774 590 184 573 147 504 454 69 428 267 126
cat_boundaries=0 1
cat_threshold=398337
is_linear=0
shrinkage=0.05


Tree=24
num_leaves=17
num_cat=0
split_feature=10 0 13 7 0 0 0 0 8 6 0 6 4 8 4 6
split_gain=13.8494 13.5883 11.1665 4.78383 3.87988 5.87874 3.74416 6.5637 2.91006 2.89813 2.70946 1.37228 0.952975 3.15249 0.168853 0.102721
threshold=1.0000000180025095e-35 12.500000000000002 1.0000000180025095e-35 0.52711638500000013 19.500000000000004 17.500000000000004 25.500000000000004 19.500000000000004 0.098780485000000015 0.90550595000000011 27.500000000000004 0.83069255000000009 30.500000000000004 0.088562095000000021 2.5000000000000004 0.82826680000000008
decision_type=2 2 2 2 2 2 2 2 2 2 2 2 2 2 2 2
left_child=1 -1 4 -2 5 12 7 8 9 -4 -8 -10 13 -3 -12 -7
right_child=3 2 6 -5 -6 15 10 -9 11 -11 14 -13 -14 -15 -16 -17
leaf_value=-0.06441526349187264 0.052688694697096639 -0.047207349247954035 -0.048639210462131599 -0.029831138294752785 -0.060378232604838801 0.0087884414358065082 0.041894379238452087 -0.062591469209970024 0.047863395261178741 0.010985229589740492 -0.0061257268915150508 0.0026824488647112701 -0.053626612568458791 0.0073677358449364769 0.0080203050063148758 0.033487580256634362
leaf_weight=20.969624493271112 6.4985611140727979 4.8099275156855636 2.6310408301651531 1.5786750130355356 12.019314065575598 1.5555102638900273 6.9054716937243921 3.7382618673145762 3.0226109251379967 3.9891502819955349 4.5196670144796371 3.1028604730963707 5.194729007780551 4.4280842915177345 2.4218889698386192 2.3017622716724873
leaf_count=112 138 26 23 14 66 27 139 18 59 52 60 36 27 36 47 43
internal_value=-0.0243316 -0.030562 -0.0180004 0.0350508 -0.0389512 -0.0224704 0.00351059 -0.0122877 0.00594642 -0.0159844 0.0218783 0.0285653 -0.0367064 -0.0228832 -0.00080178 0.0273872
internal_weight=89.6871 81.6099 60.6403 8.07724 30.3093 18.29 30.331 16.4839 12.7457 6.62019 13.847 6.12547 14.4327 9.23801 6.94156 3.85727
internal_count=923 771 659 152 225 159 434 188 170 75 246 95 89 62 107 70
is_linear=0
shrinkage=0.05


Tree=25
num_leaves=16
num_cat=0
split_feature=0 10 13 3 0 8 8 6 6 4 6 4 8 3 0
split_gain=13.227 8.67425 9.11696 6.31786 4.55031 4.06989 4.41743 3.18525 2.40411 2.24696 1.75255 2.50294 0.97069 0.945879 0.178625
threshold=12.500000000000002 1.0000000180025095e-35 1.0000000180025095e-35 1.0000000180025095e-35 22.500000000000004 0.072751325000000019 0.12254524500000001 0.15692308000000002 0.8987179500000001 26.500000000000004 0.8987179500000001 8.5000000000000018 0.15663661000000004 3.5000000000000004 18.500000000000004
decision_type=2 2 2 2 2 2 2 2 2 2 2 2 2 2 2
left_child=9 2 4 -4 5 -2 8 -5 14 -1 12 13 -9 -12 -7
right_child=1 -3 3 7 -6 6 -8 10 -10 -11 11 -13 -14 -15 -16
leaf_value=-0.064184628748295239 -0.047561148603025016 0.050051709324524997 -0.043273555390894405 -0.015946198608721533 -0.068561358684467263 0.04760834671850106 -0.032219723768801715 0.049399599097662429 -0.010395854459651898 -0.02132747907300098 0.040318284930653682 -0.015241985539852536 0.0048448253244356178 -0.001534535802534594 0.016149792823690473
leaf_weight=14.614943817257883 8.2313900887966209 4.8619876354932776 4.3380029276013401 5.1579694114625481 6.0404686480760565 2.5755450464785081 7.2030892558395854 6.7116822917014378 3.9117972813546658 5.4766779206693164 4.3228997327387315 4.6099965684115887 1.7302134111523626 1.7131613940000532 2.2687730044126511
leaf_count=80 51 111 24 65 30 37 49 131 34 50 99 52 28 25 34
internal_value=-0.0197142 -0.00820655 -0.0137788 0.00642004 -0.0324711 -0.0210953 -0.00544529 0.016673 0.0176252 -0.0540675 0.0258424 0.010728 0.0417481 0.0299097 0.0381594
internal_weight=83.7686 63.677 58.815 28.5839 30.2311 24.1906 15.9592 24.2459 8.75612 20.0916 19.088 10.6461 8.4419 6.03606 4.84432
internal_count=900 770 659 424 235 205 154 400 105 130 335 176 159 124 71
is_linear=0
shrinkage=0.05


Tree=26
num_leaves=13
num_cat=1
split_feature=2 10 13 3 5 8 5 3 4 3 4 4
split_gain=12.4744 10.5548 7.99087 4.14943 4.66336 2.85302 3.80901 1.54453 3.17506 0.69213 2.18204 0.718614
threshold=0 1.0000000180025095e-35 1.0000000180025095e-35 1.0000000180025095e-35 5.5000000000000009 0.063508065000000016 5.5000000000000009 5.5000000000000009 8.5000000000000018 1.5000000000000002 2.5000000000000004 3.5000000000000004
decision_type=9 2 2 2 2 2 2 2 2 2 2 2
left_child=5 2 -2 -4 7 -1 -7 8 9 10 -5 -11
right_child=1 -3 3 4 -6 6 -8 -9 -10 11 -12 -13
leaf_value=-0.013777639938059489 -0.050113001471213114 0.046078626055629561 -0.050369860952806315 -0.033272772826515487 0.047473132316641742 0.054025548781422732 -0.0042525257705304364 -0.044141973649162489 -0.029888040411666525 0.033831389349328597 0.023189869917530685 -0.0014851321231993428
leaf_weight=2.9435558784753075 39.530764270573854 3.3365694358944884 5.3886398524045971 2.1200623996555894 2.6999565064907065 8.4056984875351173 3.7980375587940207 2.4680926240980616 7.424386352300643 3.1946197263896465 2.7985111586749554 2.0702493228018284
leaf_count=43 240 76 28 24 48 183 53 14 57 65 60 30
internal_value=-0.0209601 -0.0275587 -0.0358179 -0.0147233 -0.00452578 0.0165758 0.0369399 -0.0134396 -0.00699514 0.0108754 -0.00265708 0.0219239
internal_weight=86.1791 71.0319 67.6953 28.1645 22.7759 15.1473 12.2037 20.0759 17.6078 10.1834 4.91857 5.26487
internal_count=921 642 566 326 298 279 236 250 236 179 84 95
cat_boundaries=0 1
cat_threshold=98560
is_linear=0
shrinkage=0.05


Tree=27
num_leaves=13
num_cat=1
split_feature=13 0 3 7 2 7 0 0 0 3 4 4
split_gain=13.394 7.33308 8.76968 7.15658 5.78496 5.14179 4.38577 1.85701 4.29899 1.7764 0.990131 0.688939
threshold=1.0000000180025095e-35 25.500000000000004 8.5000000000000018 1.0000000180025095e-35 0 0.56752872000000021 17.500000000000004 19.500000000000004 12.500000000000002 1.0000000180025095e-35 12.500000000000002 14.500000000000002
decision_type=2 2 2 2 9 2 2 2 2 2 2 2
left_child=4 3 -3 7 6 -5 -1 8 -2 -10 -8 -11
right_child=1 2 -4 5 -6 -7 10 -9 9 11 -12 -13
leaf_value=-0.019877213509329875 -0.056567994237752162 0.044385745079848049 -0.052449668774317476 0.045100167688146391 -0.044875788489172723 -0.036920225185488008 0.0064098308849774317 -0.05976656685996571 -0.028054928914479246 -0.004382771658492028 0.045238171129515434 0.026201703197234208
leaf_weight=7.9751552678644639 4.2380941063165727 12.367921795696018 1.9549203813076008 5.7410271856933823 29.955469645559788 1.810945753008127 3.0404691658914089 3.9509777836501589 2.6621858701109868 2.6231520101428032 3.900237375870347 3.6799702476710081
leaf_count=58 21 280 9 115 171 15 51 20 16 31 72 59
internal_value=-0.0202395 0.00125886 0.0286083 -0.0150924 -0.0385586 0.0234146 0.00266923 -0.0324004 -0.0205801 0.000401531 0.0311781 0.0146162
internal_weight=83.9005 39.0292 14.3228 24.7064 44.8713 7.55197 14.9159 17.1544 13.2034 8.96531 6.94071 6.30312
internal_count=918 566 289 277 352 130 181 147 127 106 123 90
cat_boundaries=0 1
cat_threshold=118784
is_linear=0
shrinkage=0.05


Tree=28
num_leaves=15
num_cat=2
split_feature=0 2 13 1 3 0 4 6 4 0 0 0 4 4
split_gain=13.3339 10.4204 11.2103 7.13353 5.41974 2.92924 1.53093 0.906565 0.883811 0.713539 0.707169 1.47775 0.552715 0.0451784
threshold=12.500000000000002 0 1.0000000180025095e-35 1 1.0000000180025095e-35 17.500000000000004 26.500000000000004 0.65591400000000011 11.500000000000002 27.500000000000004 19.500000000000004 14.500000000000002 5.5000000000000009 40.500000000000007
decision_type=2 9 2 9 2 2 2 2 2 2 2 2 2 2
left_child=6 5 10 -4 -5 -2 -1 9 12 -6 11 -3 -7 -10
right_child=1 2 3 4 7 8 -8 -9 13 -11 -12 -13 -14 -15
leaf_value=-0.061451660867593044 -0.0019988378955882505 -0.052045942070532696 -0.02259380772310474 -0.028093990670961667 -0.0031887062818798124 0.028046562319340163 -0.023251777260734924 0.04966962688506435 0.054363915361944397 0.031020126050683501 -0.064340672829967374 -0.01177780321517728 -0.0049354244736746957 0.020285008818615034
leaf_weight=14.465777710080149 5.133059240877631 5.0237606763839739 9.2082780674099904 2.9655678272247377 2.2637348640710107 2.3776358310133214 5.2509721145033827 8.1902012452483159 7.2117354869842512 2.7933965846896172 8.0851684138178808 4.8768491819500923 1.6199509389698503 1.7832373380661009
leaf_count=86 40 26 64 18 50 49 49 170 172 53 42 36 25 38
internal_value=-0.0181746 -0.00638235 -0.0178567 -0.000160938 0.0166219 0.0196535 -0.0528917 0.039568 0.0417851 0.0177088 -0.0509473 -0.0351108 0.016368 0.0503133
internal_weight=81.2493 61.5326 43.407 25.4212 16.2129 18.1256 19.7167 13.2473 12.9926 5.05713 17.9858 9.90061 3.99759 8.99497
internal_count=918 783 459 355 291 324 135 273 284 103 104 62 74 210
cat_boundaries=0 1 2
cat_threshold=119040 67
is_linear=0
shrinkage=0.05


Tree=29
num_leaves=15
num_cat=1
split_feature=0 1 13 6 3 6 5 6 0 0 6 7 8 6
split_gain=11.0385 10.8336 9.09811 7.29543 4.13999 2.89137 2.48974 2.9403 1.54433 4.59682 1.17844 0.322928 0.305535 0.221925
threshold=12.500000000000002 0 1.0000000180025095e-35 0.82826680000000008 1.0000000180025095e-35 0.7100840650000001 2.5000000000000004 0.78319625000000015 15.500000000000002 22.500000000000004 0.84952830000000013 0.093073595000000023 0.18660714500000003 0.8987179500000001
decision_type=2 9 2 2 2 2 2 2 2 2 2 2 2 2
left_child=5 2 3 11 -4 -1 -3 -8 -5 13 -9 -2 -6 -10
right_child=1 6 4 8 12 -7 7 10 9 -11 -12 -13 -14 -15
leaf_value=-0.0080321651710355459 0.0093642191630652315 -0.056473271213242929 -0.015027232518999359 -0.046197253316568133 0.049837370009589876 -0.05914845540680929 0.017805733850618895 -0.04678182773748283 0.027136905008524143 -0.05150931713804302 -0.011135893076255649 0.041760340341877367 0.012572209471900337 0.0042416103744581735
leaf_weight=3.7040035724639919 1.7778804786503339 10.552993550896646 2.7142783850431469 6.4887843951582891 13.322844678536056 16.31288568675518 2.9512647204101077 6.0636415556073171 2.3845140114426613 3.0442642867565155 4.6430165097117424 3.6102915648370981 1.4119963999837626 2.1759208664298058
leaf_count=42 30 60 19 36 313 100 40 43 37 17 49 65 42 25
internal_value=-0.0192224 -0.00832727 0.00955335 -0.0112502 0.0373092 -0.0505219 -0.0277008 -0.0220314 -0.0297454 -0.0119703 -0.0335954 0.0342101 0.0472923 0.0189403
internal_weight=81.1586 61.1417 36.9308 19.4817 17.4491 20.0169 24.2109 13.6579 14.0935 7.6047 10.7067 5.38817 14.7348 4.56043
internal_count=918 776 584 210 374 142 192 132 115 79 92 95 355 62
cat_boundaries=0 1
cat_threshold=3712
is_linear=0
shrinkage=0.05


Tree=30
num_leaves=16
num_cat=1
split_feature=10 0 2 13 3 4 0 3 6 4 8 6 0 0 0
split_gain=11.3092 9.8112 8.05497 9.30674 3.73194 3.41527 2.56794 4.91019 2.47258 2.46912 0.604753 0.419729 0.408955 0.33267 0.0734498
threshold=1.0000000180025095e-35 12.500000000000002 0 1.0000000180025095e-35 1.0000000180025095e-35 20.500000000000004 25.500000000000004 8.5000000000000018 0.21240602000000003 11.500000000000002 0.13975695000000002 0.90121950000000017 19.500000000000004 26.500000000000004 14.500000000000002
decision_type=2 2 9 2 2 2 2 2 2 2 2 2 2 2 2
left_child=1 -1 9 12 -5 6 -6 13 -2 -3 11 -11 14 -8 -4
right_child=8 2 3 4 5 -7 7 -9 -10 10 -12 -13 -14 -15 -16
leaf_value=-0.058969559109491955 -0.012795076133171924 -0.013590940969692071 -0.04466982228703751 -0.04064578026037368 -0.02661560678800215 0.042905018730667044 0.0050285409729678536 -0.049225823262569024 0.050930239552921898 0.053550641465624396 0.007814518937301531 0.013520645857730993 -0.061172958864919781 0.034657225190448372 -0.024900167803050224
leaf_weight=16.357820123434067 1.5388131476938713 2.0550235770642749 6.7356372773647326 4.634649462997916 6.8215406239032772 3.6870010904967776 1.5441873371601085 1.6200144737958906 5.4693765453994274 5.5307747069746238 1.6239236965775488 1.6570174694061277 9.1405194550752622 5.7214392740279436 6.510972261428833
leaf_count=102 26 25 38 26 62 62 16 7 122 129 31 35 51 149 44
internal_value=-0.0200148 -0.0258731 -0.0155724 -0.0221582 -0.00476795 0.00537842 -0.00547115 0.0118118 0.0370874 0.0166754 0.041395 0.0471008 -0.0492963 0.0297304 -0.0373825
internal_weight=80.6487 73.6405 57.2827 46.416 24.0288 19.3942 15.7072 8.88564 7.00819 10.8667 8.81172 7.18779 22.3871 7.26563 13.2466
internal_count=925 777 675 455 322 296 234 172 148 220 195 164 133 165 82
cat_boundaries=0 1
cat_threshold=114944
is_linear=0
shrinkage=0.05


Tree=31
num_leaves=15
num_cat=1
split_feature=2 13 0 0 3 7 0 0 0 0 4 4 4 7
split_gain=9.83736 10.0979 6.15746 6.04897 5.73784 4.18385 2.94115 0.832544 2.46828 1.0369 0.43953 0.310244 0.589148 0.0806172
threshold=0 1.0000000180025095e-35 11.500000000000002 25.500000000000004 8.5000000000000018 1.0000000180025095e-35 13.500000000000002 13.500000000000002 22.500000000000004 17.500000000000004 15.500000000000002 30.500000000000004 41.500000000000007 0.87500000000000011
decision_type=9 2 2 2 2 2 2 2 2 2 2 2 2 2
left_child=2 7 -1 5 13 6 -3 -2 9 -9 -11 -4 -13 -5
right_child=1 3 11 4 -6 -7 -8 8 -10 10 -12 12 -14 -15
leaf_value=-0.020198831606692454 -0.054661761510771123 -0.0038814482340713916 0.05167581518443809 0.044396301471158445 -0.04389723237015463 0.020995200453948096 -0.05212165970120769 -0.033106667428537344 -0.061609277172647019 -0.017256632235521208 0.0048527145872256329 -0.0033316164884492228 0.035032170917924585 0.01868712916069136
leaf_weight=4.4851234741508952 15.408195689320562 5.1344713270664268 7.60804186016321 6.5293368771672231 1.7034496590495098 3.6541581675410262 7.9978150278329849 7.0004000738263148 4.9922228455543509 3.3068477213382721 4.001648984849453 1.4297763127833607 1.4348257742822168 2.6504854112863541
leaf_count=45 100 42 200 185 9 52 50 44 28 32 35 30 32 48
internal_value=-0.0163527 -0.0230618 0.0158425 -0.00388071 0.0238838 -0.0222122 -0.0348699 -0.044274 -0.0336973 -0.0205708 -0.00602397 0.0455021 0.0199767 0.0395382
internal_weight=77.3368 62.379 14.9578 27.6697 10.8833 16.7864 13.1323 34.7093 19.3011 14.3089 7.3085 10.4726 2.8646 9.17982
internal_count=932 625 307 386 242 144 92 239 139 111 67 262 62 233
cat_boundaries=0 1
cat_threshold=98560
is_linear=0
shrinkage=0.05


Tree=32
num_leaves=14
num_cat=1
split_feature=0 2 3 0 0 5 6 0 4 4 8 4 4
split_gain=11.8007 8.63046 5.29253 7.35492 7.80385 5.24162 2.54363 2.44812 1.86307 1.00113 0.642743 0.191798 0.0923596
threshold=12.500000000000002 0 8.5000000000000018 25.500000000000004 19.500000000000004 3.5000000000000004 0.7100840650000001 17.500000000000004 11.500000000000002 27.500000000000004 0.077935222500000026 5.5000000000000009 45.500000000000007
decision_type=2 9 2 2 2 2 2 2 2 2 2 2 2
left_child=6 7 3 4 5 10 -1 -2 11 -5 -3 -9 -10
right_child=1 2 -4 9 -6 -7 -8 8 12 -11 -12 -13 -14
leaf_value=-0.010977354971932614 -0.0022150227332747223 -0.033956549117759131 -0.061241574444872028 0.028544863128735016 -0.059555547119103519 0.031816550781758081 -0.058629134852159259 0.014198285799131788 0.053575570579044988 -0.0089605053899877354 -0.0084468953882055053 -0.0046812649615742066 0.016703678116603556
leaf_weight=3.9780346862971809 5.1004050038754967 6.0144197344780022 5.9258034601807585 8.3732340205460769 9.8306506387889367 5.4979854188859454 16.182593300938606 2.4419900290668002 7.2157490979880077 1.6971211507916439 5.150371640920639 1.5705548934638498 1.3685583733022211
leaf_count=44 41 45 31 207 54 63 107 51 191 29 41 25 26
internal_value=-0.0180481 -0.00663745 -0.0169973 -0.0129121 -0.0264943 -0.00472143 -0.0501897 0.0175296 0.0379914 0.0219858 -0.0238506 0.00734894 0.0500534
internal_weight=80.3475 60.1868 42.4896 36.5638 26.4934 16.6628 20.1606 17.6973 12.5969 10.0704 11.1648 4.01254 8.58431
internal_count=955 804 470 439 203 149 151 334 293 236 86 76 217
cat_boundaries=0 1
cat_threshold=119040
is_linear=0
shrinkage=0.05


Tree=33
num_leaves=16
num_cat=1
split_feature=10 0 2 13 0 0 8 7 0 0 4 6 6 0 7
split_gain=9.3227 9.28334 6.56959 4.6129 2.69204 3.72507 3.60465 2.49844 1.34011 2.79194 0.855114 0.851 0.351174 0.218938 0.0848378
threshold=1.0000000180025095e-35 12.500000000000002 0 1.0000000180025095e-35 25.500000000000004 19.500000000000004 0.09449405000000001 0.52711638500000013 22.500000000000004 15.500000000000002 3.5000000000000004 0.90121950000000017 0.68303570000000013 19.500000000000004 0.87500000000000011
decision_type=2 2 9 2 2 2 2 2 2 2 2 2 2 2 2
left_child=1 -1 11 8 5 6 -5 -2 9 -4 14 12 -3 -11 -6
right_child=7 2 3 4 10 -7 -8 -9 -10 13 -12 -13 -14 -15 -16
leaf_value=-0.056341917393954478 0.050187099021684715 0.010013264143285915 -0.044807646234953445 -0.026229063360743151 0.0071072830881574196 -0.054059370110995403 0.028502118458670508 -0.015237099899923126 -0.058988484085084704 0.0020996255949261955 0.028946774163891038 0.005096920837491044 0.050275561669183927 -0.012505319379699426 -0.0033979906014963619
leaf_weight=14.590859934687613 5.2660193294286719 1.2313416507095079 9.925328187644487 5.6223620697855967 2.1485317759215814 4.0900164432823649 4.5149141028523445 1.3927735872566698 5.2246385961771002 4.0398683883249742 3.8968051001429558 1.9784263037145136 5.1675237063318491 5.0151983015239239 3.964205339550972
leaf_count=100 127 34 58 46 59 22 55 14 32 32 87 39 139 39 62
internal_value=-0.0166764 -0.0220494 -0.0124211 -0.0179298 -0.00572254 -0.0191547 -0.00148255 0.0363 -0.0365546 -0.0277361 0.0133753 0.0179385 0.0449283 -0.00642861 0.000774552
internal_weight=78.0688 71.41 56.8192 48.4419 24.2368 14.2273 10.1373 6.65879 24.205 18.9804 10.0095 8.37729 6.39887 9.05507 6.11274
internal_count=945 804 704 492 331 123 101 141 161 129 208 212 173 71 121
cat_boundaries=0 1
cat_threshold=98560
is_linear=0
shrinkage=0.05


Tree=34
num_leaves=16
num_cat=1
split_feature=0 2 13 3 3 4 6 6 0 0 0 0 0 4 3
split_gain=10.2639 7.23448 7.3227 5.87356 4.16703 1.87712 2.19869 1.787 1.47968 2.30095 1.18619 2.59891 0.797673 0.471649 0.240787
threshold=12.500000000000002 0 1.0000000180025095e-35 1.0000000180025095e-35 8.5000000000000018 40.500000000000007 0.25833334000000002 0.7100840650000001 25.500000000000004 17.500000000000004 19.500000000000004 14.500000000000002 17.500000000000004 19.500000000000004 2.5000000000000004
decision_type=2 9 2 2 2 2 2 2 2 2 2 2 2 2 2
left_child=7 5 10 -4 8 6 -2 -1 9 13 11 -3 -8 -5 -10
right_child=1 2 3 4 -6 -7 12 -9 14 -11 -12 -13 -14 -15 -16
leaf_value=-0.01130451743390486 -0.013128259518972988 -0.050163016273541541 -0.043097392038350314 0.0053219717128987912 -0.0437148733322619 -0.0064274521415335047 0.015022058281651183 -0.055618688646344686 0.020663922530444835 -0.02644966732858824 -0.058220183787388871 -0.0012935318472910495 0.049915897481111311 0.036235236507585512 0.045502342693400775
leaf_weight=3.3893333561718491 1.63143811747432 4.6700799465179461 5.0268732681870487 2.6048230566084447 1.8680271357297886 3.0528257712721816 3.3467779830098143 13.833635829389094 5.3614699598401767 2.7740198522806168 7.0467592030763617 5.3344788625836372 8.488420005887745 2.3308442384004593 3.7464330587536097
leaf_count=38 26 26 28 30 10 47 29 99 129 24 42 43 226 30 106
internal_value=-0.0152976 -0.00481124 -0.0146577 9.57374e-05 0.0133147 0.0173813 0.0348647 -0.0479969 0.0217473 0.00459915 -0.0421635 -0.026591 0.0419877 0.0235658 0.0343718
internal_weight=74.5062 57.2833 40.7638 23.7125 18.6856 16.5195 13.4666 17.223 16.8176 7.70969 17.0513 10.0046 11.8352 4.93567 9.1079
internal_count=933 796 468 357 329 328 281 137 319 84 111 69 255 60 235
cat_boundaries=0 1
cat_threshold=119040
is_linear=0
shrinkage=0.05


Tree=35
num_leaves=15
num_cat=1
split_feature=10 0 2 13 3 6 0 3 6 0 3 5 4 3
split_gain=11.5518 9.67497 5.68646 7.45742 3.41283 2.16507 0.938839 2.43138 0.551127 0.792446 0.717582 0.529836 0.385097 0.220819
threshold=1.0000000180025095e-35 12.500000000000002 0 1.0000000180025095e-35 1.0000000180025095e-35 0.65591400000000011 19.500000000000004 3.5000000000000004 0.83069255000000009 25.500000000000004 3.5000000000000004 4.5000000000000009 10.500000000000002 3.5000000000000004
decision_type=2 2 9 2 2 2 2 2 2 2 2 2 2 2
left_child=1 -1 11 6 -5 13 7 -4 -7 -10 -11 12 -3 -6
right_child=-2 2 3 4 5 8 -8 -9 9 10 -12 -13 -14 -15
leaf_value=-0.055401852791681944 0.04580284101618004 0.0079312142956943672 -0.0009679889250774654 -0.034157496235578316 -0.0032655475393498267 0.041747913797595543 -0.05609216100810982 -0.045477447219421617 -0.00039637577670600981 0.036198209969500815 -0.0021254753327828364 0.01058080507986682 0.047753105123762726 -0.022071684352350726
leaf_weight=14.388597495853899 6.3286737427115431 1.182312123477457 5.0289968252182025 4.6363741457462337 3.5995734408497837 2.0463431663811198 7.6342585831880561 7.0514103472232819 5.0339241661131364 3.590101707726717 1.5196959804743526 2.6665045395493507 4.8625938501209021 2.465679295361042
leaf_count=107 152 18 40 28 56 42 48 41 48 99 26 52 138 27
internal_value=-0.0141793 -0.0205566 -0.00991443 -0.0159451 6.47401e-05 0.0100788 -0.0413382 -0.028439 0.0216515 0.0142148 0.026318 0.017049 0.0421958 -0.0129526
internal_weight=72.035 65.7064 51.3178 42.6064 22.8917 18.2553 19.7147 12.0804 12.1901 10.1437 5.1098 8.71141 6.04491 6.06525
internal_count=922 770 663 455 326 298 129 81 215 173 125 208 156 83
cat_boundaries=0 1
cat_threshold=114944
is_linear=0
shrinkage=0.05


Tree=36
num_leaves=16
num_cat=1
split_feature=10 0 2 13 4 0 3 4 5 0 0 0 3 4 3
split_gain=9.3092 8.67755 5.76588 4.5981 5.09254 3.48437 3.61772 2.78738 4.21873 0.982815 0.508093 0.464957 0.440687 0.306393 0.107198
threshold=1.0000000180025095e-35 12.500000000000002 0 1.0000000180025095e-35 25.500000000000004 25.500000000000004 8.5000000000000018 40.500000000000007 1.5000000000000002 22.500000000000004 17.500000000000004 26.500000000000004 1.5000000000000002 13.500000000000002 1.5000000000000002
decision_type=2 2 9 2 2 2 2 2 2 2 2 2 2 2 2
left_child=1 -1 3 9 5 12 11 8 -4 10 -3 -7 -5 -10 -13
right_child=-2 2 7 4 -6 6 -8 -9 13 -11 -12 14 -14 -15 -16
leaf_value=-0.052704791781010875 0.043871542762863869 -0.035970231831769298 -0.019990185551035936 -0.042163249354727421 0.048763870287340444 0.00046142063487383805 -0.043659571444582962 -0.014857008263438908 0.01450821867513228 -0.058100589986098065 -0.01276496352078775 0.014772212434753738 -0.015640798202443251 0.057547940559233873 0.040471028546836076
leaf_weight=13.197097472846506 5.7328697070479384 6.9326249733567256 1.9792418703436832 5.4473270997405105 2.8642163500189772 1.4500802233815182 1.4914857745170591 2.6703773476183406 1.3067007083445785 4.7065417170524588 5.7184380702674389 2.4960748814046383 4.4761078916490078 6.6139541398733854 2.5528790336102247
leaf_count=102 146 43 21 34 56 16 7 38 25 30 46 68 41 168 76
internal_value=-0.0124476 -0.0180982 -0.00824614 -0.0159542 -0.00373172 -0.0142595 0.00976437 0.0151694 0.0378057 -0.0382758 -0.0271846 0.0262119 -0.032727 0.0528698 0.0323086
internal_weight=69.636 63.9031 50.7061 38.1358 20.7782 17.914 7.99052 12.5703 9.8999 17.3576 12.6511 6.49903 9.92343 7.92065 5.04895
internal_count=917 771 669 417 298 242 167 252 214 119 89 160 75 193 144
cat_boundaries=0 1
cat_threshold=410629
is_linear=0
shrinkage=0.05


Tree=37
num_leaves=20
num_cat=1
split_feature=10 13 3 3 6 4 6 7 4 2 6 6 8 3 4 4 8 4 4
split_gain=8.29216 6.34653 2.84197 3.01791 1.54623 1.87501 2.20104 1.22122 1.02802 0.901772 2.84196 1.82708 1.11862 0.842403 0.733299 0.359076 0.344404 0.145492 0.00174537
threshold=1.0000000180025095e-35 1.0000000180025095e-35 1.0000000180025095e-35 6.5000000000000009 0.91485510000000014 41.500000000000007 0.7193750000000001 0.52711638500000013 13.500000000000002 0 0.94281045000000008 0.83069255000000009 0.060661765000000006 1.5000000000000002 15.500000000000002 19.500000000000004 0.098780485000000015 40.500000000000007 3.5000000000000004
decision_type=2 2 2 2 2 2 2 2 2 9 2 2 2 2 2 2 2 2 2
left_child=1 4 -3 9 5 6 -1 -2 -8 10 11 13 -11 -4 -15 -10 -17 -14 -12
right_child=7 2 3 -5 -6 -7 8 -9 15 12 18 -13 17 14 -16 16 -18 -19 -20
leaf_value=-0.045924941847945495 0.047512858055076546 -0.034729861879316669 -0.019128998114990109 -0.042255696459645178 -0.049148055619094001 -0.047530429075692049 -0.025772092336527153 -0.00480440941804142 0.016267680151120786 -0.0024965621137618852 0.034445503361873735 -0.037165185254659491 0.052234054481359718 0.02784662151602665 -0.0081332638847852658 -0.013860416745370738 0.0049790986483481403 0.015905798743484325 0.014700205514818787
leaf_weight=3.449432196095592 4.648906795307993 4.680854037404063 2.0935913026332837 2.0858773440122595 12.094265097752212 5.9256939738988867 3.3283982202410689 1.1755849644541738 2.5253250151872626 1.3355501350015462 1.6889616772532452 4.617944460362196 3.8708618637174368 2.4102685935795307 1.8079567067325113 2.980892561376093 5.3198292348533869 1.5290287546813486 2.8625275511294603
leaf_count=24 133 29 28 14 98 36 30 14 31 16 64 38 102 48 32 41 57 34 55
internal_value=-0.0151524 -0.0204292 -0.00284527 0.00442581 -0.0342671 -0.0249264 -0.0151717 0.0377967 -0.00514125 0.0104399 -0.0017537 -0.0164163 0.0162849 0.00177101 0.0138221 0.00284449 -0.00254924 0.04604 0.0269122
internal_weight=70.4318 64.6073 28.9834 24.3026 35.6238 23.5296 17.6039 5.82449 14.1544 22.2167 15.4813 10.9298 6.73544 6.31182 4.21823 10.826 8.30072 5.39989 4.55149
internal_count=924 777 460 431 317 219 183 147 159 417 265 146 152 108 80 129 98 136 119
cat_boundaries=0 1
cat_threshold=37892
is_linear=0
shrinkage=0.05


Tree=38
num_leaves=16
num_cat=1
split_feature=10 0 2 3 0 0 8 6 8 4 4 6 4 4 4
split_gain=7.43026 7.0611 5.07948 4.42959 3.8784 3.88539 3.46091 2.66287 2.65334 1.55402 1.39751 0.794453 0.754057 0.505433 0.0242565
threshold=1.0000000180025095e-35 12.500000000000002 0 5.5000000000000009 25.500000000000004 21.500000000000004 0.09449405000000001 0.20871144000000003 0.11222222500000002 17.500000000000004 30.500000000000004 0.92980295000000013 38.500000000000007 13.500000000000002 7.5000000000000009
decision_type=2 2 9 2 2 2 2 2 2 2 2 2 2 2 2
left_child=1 -1 10 4 5 6 13 -2 14 -8 11 -3 -11 -4 -6
right_child=7 2 3 -5 8 -7 9 -9 -10 12 -12 -13 -14 -15 -16
leaf_value=-0.053933841400992645 -0.019766145312940391 0.051314814604216219 -0.038911320954549557 -0.053926433305048427 0.034937984507348585 -0.058777470741859662 -0.014448684514592875 0.04807461251392945 -0.027628353475249258 0.032116347734272487 0.0014160768008759056 0.0020724223616166134 0.00054635476258355802 -0.01460352798231619 0.014048470113267994
leaf_weight=12.311394803225992 1.3069833498448122 4.4333242829889041 6.7446832954883629 7.6551301889121524 4.0014714077115041 4.8530500531196585 4.3836426772177202 4.822125893086195 1.8375186584889887 4.108245387673378 2.9209104385226965 1.0664781462401149 3.0594305321574211 5.5334025248885155 2.2983956802636385
leaf_count=99 17 135 50 49 123 28 36 136 23 44 59 18 29 42 46
internal_value=-0.0161932 -0.0212311 -0.0127602 -0.0176 -0.013475 -0.0219761 -0.0124158 0.0328647 0.0156153 0.00705022 0.0148627 0.043554 0.0203578 -0.0298813 0.0302853
internal_weight=71.3362 65.2071 52.8957 44.475 36.8198 28.6825 23.8294 6.12911 8.13739 11.5513 8.42071 5.4998 7.16768 12.2781 6.29987
internal_count=934 781 682 470 421 229 201 153 192 109 212 153 73 92 169
cat_boundaries=0 1
cat_threshold=98624
is_linear=0
shrinkage=0.05


Tree=39
num_leaves=12
num_cat=2
split_feature=0 2 1 0 6 0 3 0 6 7 4
split_gain=7.61218 6.06282 3.54713 5.2565 2.62275 2.1761 1.42199 1.50753 0.702324 0.414306 0.0241985
threshold=12.500000000000002 0 1 17.500000000000004 0.7100840650000001 13.500000000000002 1.5000000000000002 25.500000000000004 0.8987179500000001 0.65686277000000015 2.5000000000000004
decision_type=2 9 9 2 2 2 2 2 2 2 2
left_child=4 5 3 -3 -1 -2 7 -5 -7 -8 -9
right_child=1 2 -4 6 -6 8 9 10 -10 -11 -12
leaf_value=0.00018600349682499547 -0.00048959219594978587 -0.017204957317425922 -0.01189808008054961 -0.0113438620775366 -0.051906602731601928 -0.022464037268884761 0.048617152674715808 0.0092820596503744579 -0.05108916147978431 0.015821387372292182 0.033730178108275742
leaf_weight=3.0283941105008116 5.5106473900377813 5.2404519915580776 7.1163552887737742 2.8371008317917612 10.816491939127443 7.4903639703989011 12.202349156141279 1.0984425395727155 5.7293325960636139 2.395126234740018 3.4119566567242146
leaf_count=40 49 42 57 38 93 54 354 20 40 47 104
internal_value=-0.00961872 -0.00074558 0.0109803 0.0186714 -0.0412671 -0.0180863 0.0357526 0.0149466 -0.0375904 0.0445954 0.0305412
internal_weight=66.877 53.0321 34.3018 27.1854 13.8449 18.7303 21.945 7.3475 13.2197 14.5975 4.5104
internal_count=938 805 662 605 133 143 563 162 94 401 124
cat_boundaries=0 1 2
cat_threshold=393281 3713
is_linear=0
shrinkage=0.05


Tree=40
num_leaves=18
num_cat=1
split_feature=10 0 2 13 3 6 3 3 4 0 4 0 3 0 0 4 4
split_gain=6.77497 7.19316 4.64384 4.92346 3.19054 2.92391 2.13433 2.30286 1.76123 1.42194 1.043 0.938136 2.04218 0.574951 0.23594 0.148125 0.0155447
threshold=1.0000000180025095e-35 12.500000000000002 0 1.0000000180025095e-35 1.0000000180025095e-35 0.20344828000000004 4.5000000000000009 1.5000000000000002 8.5000000000000018 17.500000000000004 2.5000000000000004 19.500000000000004 3.5000000000000004 25.500000000000004 15.500000000000002 13.500000000000002 6.5000000000000009
decision_type=2 2 9 2 2 2 2 2 2 2 2 2 2 2 2 2 2
left_child=1 -1 8 11 -5 -2 7 10 -3 -10 -6 12 -4 -12 -9 -11 -15
right_child=5 2 3 4 6 -7 -8 14 9 15 13 -13 -14 16 -16 -17 -18
leaf_value=-0.053178249731505992 -0.023885967768513899 -0.017558951156539836 -0.0027274521823103209 -0.035942633336293314 -0.031162062227581128 0.047996251066164473 -0.021280418564107104 0.011539395611857061 -0.0028081247894231973 0.011710427820565026 -0.0086259269504212911 -0.053420720847349723 -0.043148835034394019 0.026829769849343738 0.039136911796189867 0.049195589103671951 0.0064889948865070671
leaf_weight=11.886323332786558 1.1914028618484724 1.2508190535008896 5.6341689974069613 4.8023872673511532 1.6912933513522164 4.8251769784837961 4.1858707703649989 2.1448035910725594 1.7975040823221187 1.062940953299403 2.2239801809191704 6.9393490627408019 6.4412708953022957 1.002858944237232 5.1543612964451313 5.2526752073317766 0.9803229123353957
leaf_count=103 15 11 45 29 21 138 45 23 16 30 19 48 39 44 122 168 18
internal_value=-0.0147378 -0.0197166 -0.010972 -0.0162862 -0.00374574 0.0323866 0.00662033 0.0163452 0.0139651 0.0355428 -0.00653618 -0.0381369 -0.02594 0.00744681 0.0333951 0.0453498 0.0223206
internal_weight=68.4675 62.4509 50.5646 41.2007 22.1859 6.01658 17.3835 13.1976 9.36394 8.11312 5.89846 19.0148 12.0754 4.20716 7.29916 6.31562 1.98318
internal_count=934 781 678 453 321 153 292 247 225 214 102 132 84 81 145 198 62
cat_boundaries=0 1
cat_threshold=114944
is_linear=0
shrinkage=0.05


Tree=41
num_leaves=14
num_cat=2
split_feature=10 0 2 13 1 6 6 0 0 0 8 6 4
split_gain=6.49933 5.51918 4.39153 3.02326 3.06716 2.88466 2.65687 2.52715 0.795441 1.43672 0.600816 0.44627 0.138979
threshold=1.0000000180025095e-35 12.500000000000002 0 1.0000000180025095e-35 1 0.19279907000000004 0.92153845000000012 17.500000000000004 22.500000000000004 15.500000000000002 0.14760349000000003 0.8762755000000001 2.5000000000000004
decision_type=2 2 9 2 9 2 2 2 2 2 2 2 2
left_child=1 -1 6 8 -5 -2 10 -6 9 -4 -3 -11 -9
right_child=5 2 3 4 7 -7 -8 12 -10 11 -12 -13 -14
leaf_value=-0.050225743208521169 -0.0245055458673634 0.05116058250912521 -0.038888450351940322 -0.018885698354069426 -0.0080544692178336503 0.047392993840351019 -0.014480744358235762 0.015465845188918456 -0.053634514559561058 -0.018151185860395491 0.0039315141065892631 0.0038975571517635109 0.041071377609695529
leaf_weight=11.138533424586056 1.1552888266742218 4.901723419316113 8.6755000278353744 7.4786588177084941 5.7822975777089578 4.7166866641491652 2.0177469328045845 2.6275838539004326 4.1915777921676627 4.1161834299564353 0.95845978520810593 3.6285333037376404 4.1748101152479649
leaf_count=103 14 155 56 57 49 143 30 55 32 31 24 32 138
internal_value=-0.0148749 -0.0199078 -0.0120794 -0.0167297 -0.00640781 0.0317397 0.0140871 0.00907421 -0.0337565 -0.0258946 0.0451351 -0.00855657 0.0344305
internal_weight=65.5636 59.6916 48.5531 40.6751 20.0634 5.87198 7.87793 12.5847 20.6118 16.4202 5.86018 7.74472 6.80239
internal_count=919 762 659 450 299 157 209 242 151 119 179 63 193
cat_boundaries=0 1 2
cat_threshold=99584 67
is_linear=0
shrinkage=0.05


Tree=42
num_leaves=14
num_cat=2
split_feature=0 2 13 1 3 4 0 4 6 23 8 4 6
split_gain=6.21607 4.93942 5.42577 6.27178 4.90134 1.9185 1.42975 1.40599 0.706799 0.934574 0.620006 0.471719 0.132348
threshold=12.500000000000002 0 1.0000000180025095e-35 1 1.0000000180025095e-35 40.500000000000007 19.500000000000004 26.500000000000004 0.94868422000000008 1.0000000180025095e-35 0.16064516000000004 2.5000000000000004 0.88047618000000016
decision_type=2 9 2 9 2 2 2 2 2 2 2 2 2
left_child=7 5 6 -4 -5 8 12 -1 9 10 -2 -6 -3
right_child=1 2 3 4 11 -7 -8 -9 -10 -11 -12 -13 -14
leaf_value=-0.051627920871799654 0.047067201342916892 -0.010309998416604276 -0.020371606074949214 -0.023206914195914249 0.019672434179937224 -0.0087936299120420936 -0.052966309525601531 -0.011293544851178791 -0.00076247464807424961 0.0004246976990116491 0.0048174976029731927 0.054752947011015109 -0.026466943534952776
leaf_weight=9.2534623406827432 7.6985137537121719 4.6275468431413156 8.5602278113365227 2.5641912445425943 2.9114187844097597 3.1123986653983584 7.2203311920166007 3.5907172523438922 1.3736663218587644 1.5627790801227099 1.2361282855272291 6.7739595454186201 3.8649082481861115
leaf_count=85 210 35 67 16 60 50 52 47 17 42 20 207 30
internal_value=-0.0122215 -0.0041418 -0.0126418 0.00098154 0.0180597 0.0147518 -0.0372278 -0.0419823 0.0325898 0.0366409 0.0422952 0.0470357 -0.0196766
internal_weight=64.3502 51.5061 36.5226 20.8098 12.2496 14.9835 15.7128 12.8442 11.8711 10.4974 8.93464 9.68538 8.49246
internal_count=938 806 467 350 283 339 117 132 289 272 230 267 65
cat_boundaries=0 1 2
cat_threshold=119040 67
is_linear=0
shrinkage=0.05


Tree=43
num_leaves=17
num_cat=1
split_feature=1 0 3 3 13 4 6 0 4 0 0 0 6 5 7 6
split_gain=5.32828 3.87135 3.90926 2.76214 2.4376 2.09213 2.06653 1.73335 1.6366 1.80708 1.36097 1.183 0.615975 0.762639 0.464269 0.124388
threshold=0 12.500000000000002 8.5000000000000018 1.0000000180025095e-35 1.0000000180025095e-35 26.500000000000004 0.91485510000000014 19.500000000000004 20.500000000000004 26.500000000000004 18.500000000000004 15.500000000000002 0.93440862000000013 5.5000000000000009 0.87500000000000011 0.86005710000000013
decision_type=9 2 2 2 2 2 2 2 2 2 2 2 2 2 2 2
left_child=12 5 3 -3 6 -2 7 11 9 10 -6 -5 13 -1 -11 -13
right_child=1 2 -4 4 8 -7 -8 -9 -10 14 -12 15 -14 -15 -16 -17
leaf_value=0.052212279356349936 -0.055409658699560521 -0.034254644867954397 -0.047941488246687286 -0.0065913719063727741 0.0086157175778961027 -0.0084115883334031725 -0.040235618974741594 -0.022743799669353328 0.038806137689783506 0.037427569432212156 -0.027678095485765854 0.010991060102670102 -0.00070704616466036913 0.0098615931406825404 0.0068422713111821508 0.038057651510858846
leaf_weight=4.1766746286302805 8.9768930673599225 6.3904478028416625 5.7381326556205741 3.8743068240582961 4.3885811679065245 3.6357033848762503 4.1937296204268923 5.0755223985761404 3.4341304060071698 2.3413834962993851 4.2334730941802263 1.8594775404781105 0.93722258135676373 2.0319581180810928 2.8567920178174973 1.7531524617224929
leaf_count=162 85 44 40 29 52 49 33 52 70 109 38 33 15 47 58 30
internal_value=-0.0132616 -0.0170029 -0.0126047 -0.00654905 -0.000513562 -0.0434752 -0.0136896 -0.00251441 0.012331 0.00357775 -0.0102292 0.0122634 0.0164675 0.0416426 0.0244345 0.0295292
internal_weight=65.8976 58.7517 46.1391 40.401 34.0105 12.6126 16.7562 12.5625 17.2544 13.8202 8.62205 7.48694 7.14586 6.20863 5.19818 3.61263
internal_count=946 722 588 548 504 134 177 144 327 257 90 92 224 209 167 63
cat_boundaries=0 1
cat_threshold=2688
is_linear=0
shrinkage=0.05


Tree=44
num_leaves=15
num_cat=1
split_feature=10 0 2 6 3 0 0 0 8 4 8 4 6 8
split_gain=4.98765 4.45775 4.38934 2.76947 2.54087 2.87765 5.84449 4.01401 4.99301 1.55863 1.35526 1.76291 0.614124 0.00796824
threshold=1.0000000180025095e-35 12.500000000000002 0 0.20344828000000004 6.5000000000000009 25.500000000000004 28.500000000000004 18.500000000000004 0.088562095000000021 40.500000000000007 0.13975695000000002 13.500000000000002 0.84021277500000002 0.10072463500000002
decision_type=2 2 9 2 2 2 2 2 2 2 2 2 2 2
left_child=1 -1 4 -2 5 7 13 8 -3 10 11 -4 -10 -7
right_child=3 2 9 -5 -6 6 -8 -9 12 -11 -12 -13 -14 -15
leaf_value=-0.046877978441476204 -0.025289229915871743 -0.033943175285324152 0.0010785470727591605 0.046564940931385662 -0.051558727423940715 0.033890948390970357 -0.057650372768180462 -0.047273217498248386 0.035050518255221999 -0.0099269286900462959 -0.0068471018160834694 0.052822912764575042 0.0063063543048156347 0.009137295748603903
leaf_weight=9.0744480676949006 1.0850901063531626 6.8953220248222404 2.2964469380676729 4.2864591479301453 4.7678995430469504 5.4468499757349482 1.4376810938119886 9.0137680843472463 3.2287800647318363 2.5159913171082726 1.6568519510328767 5.2167514394968748 4.2908736132085323 0.95311132632195938
leaf_count=92 13 54 33 136 33 164 6 66 41 45 33 149 38 26
internal_value=-0.0120533 -0.0165204 -0.00990395 0.0303589 -0.0161876 -0.0143798 0.0108403 -0.0229151 -0.00560528 0.0122916 0.0308504 0.0389915 0.0213139 0.0319375
internal_weight=62.1663 56.7948 47.7203 5.37155 36.0343 31.2664 7.83764 23.4287 14.415 11.686 9.17005 7.5132 7.51965 6.39996
internal_count=929 780 688 149 428 395 196 199 133 260 215 182 79 190
cat_boundaries=0 1
cat_threshold=398341
is_linear=0
shrinkage=0.05


Tree=45
num_leaves=16
num_cat=1
split_feature=10 6 0 2 13 4 4 0 3 3 4 3 4 0 6
split_gain=4.52811 4.59453 4.5425 3.57188 3.86415 5.14777 2.87999 1.25488 2.07679 1.34717 1.22705 1.02793 0.584263 0.286485 0.0935274
threshold=1.0000000180025095e-35 0.17028986000000004 12.500000000000002 0 1.0000000180025095e-35 25.500000000000004 40.500000000000007 26.500000000000004 8.5000000000000018 1.5000000000000002 14.500000000000002 2.5000000000000004 2.5000000000000004 15.500000000000002 0.87339745000000013
decision_type=2 2 2 9 2 2 2 2 2 2 2 2 2 2 2
left_child=2 -2 -1 4 11 7 10 9 12 -6 14 -4 -9 -12 -5
right_child=1 -3 3 6 5 -7 -8 8 -10 -11 13 -13 -14 -15 -16
leaf_value=-0.048534220089951577 -0.042320014850806865 0.046700778450187018 -0.020015561998223814 0.011472419820984969 -0.040566464238562312 0.048534963698294478 -0.024076514701015787 0.00082226167913154811 -0.037796741518882647 -0.0046075963810450872 0.011052817051367134 -0.049725130168626543 0.03446564407091153 0.051369841529838367 -0.0024905248383967332
leaf_weight=9.7270083576440793 1.1059063244611014 4.4526285026222467 7.0948590114712742 1.6731953173875793 5.8139031082391792 2.6624779254198065 2.2225065715610972 2.4448972456157199 1.3011038303375242 4.680009663105011 1.2052621506154535 9.2138924673199636 1.8572707828134296 3.9352343771606684 1.6428847331553695
leaf_count=101 8 144 56 42 41 55 35 50 7 51 13 64 95 132 22
internal_value=-0.0146876 0.0252373 -0.0190641 -0.0118938 -0.0169401 -0.00559184 0.0103508 -0.0168596 0.00217105 -0.0263259 0.0319336 -0.0387036 0.0191073 0.0452564 0.00558049
internal_weight=61.033 5.55853 55.4745 45.7475 35.0684 18.7597 10.6791 16.0972 5.60327 10.4939 8.45658 16.3088 4.30217 5.1405 3.31608
internal_count=916 152 764 663 419 299 244 244 152 92 209 120 145 145 64
cat_boundaries=0 1
cat_threshold=398341
is_linear=0
shrinkage=0.05


Tree=46
num_leaves=17
num_cat=1
split_feature=10 6 13 2 4 26 4 8 4 5 4 8 8 3 4 6
split_gain=4.4648 4.51571 3.25213 1.67203 3.34915 2.88624 1.54821 1.28815 1.54994 1.10203 0.908195 0.383921 1.05176 0.172655 0.124998 0.0326896
threshold=1.0000000180025095e-35 0.17028986000000004 1.0000000180025095e-35 0 8.5000000000000018 1.0000000180025095e-35 13.500000000000002 0.060661765000000006 41.500000000000007 5.5000000000000009 15.500000000000002 0.11696306500000002 0.098780485000000015 2.5000000000000004 40.500000000000007 0.8987179500000001
decision_type=2 2 2 9 2 2 2 2 2 2 2 2 2 2 2 2
left_child=2 -2 7 6 5 -5 -4 -1 10 -6 15 12 -12 -7 -8 -9
right_child=1 -3 3 4 9 13 14 8 -10 -11 11 -13 -14 -15 -16 -17
leaf_value=-0.048151231251478209 -0.041997980782583558 0.046507217320950735 -0.0091436642971215142 0.034671731262416315 -0.045928305619959343 -0.024663380605997005 0.040643711226214782 -0.014480641404582245 -0.044892068626167556 -0.008175646801449863 -0.012147498380995797 -0.013588486849627018 0.023649390255664413 -0.0053200443572962728 0.010123875050584558 -0.033210028842772084
leaf_weight=6.8961952589452293 1.0890429392456997 4.4880423871800303 2.3909704275429249 3.7992201149463707 6.2791037298738939 2.4991858247667551 3.4506393931806087 3.0971653424203458 4.8699112497270098 3.3234706949442625 3.8430848373100144 5.1151835713535547 2.5858271438628435 2.7761847395449877 1.2597863357514141 3.4029293432831764
leaf_count=65 7 150 32 89 47 54 90 37 32 51 59 54 40 49 31 33
internal_value=-0.0140881 0.0254669 -0.0184364 -0.00511214 -0.0104342 0.00595618 0.00954415 -0.0294187 -0.0220033 -0.0348655 -0.013793 -0.00455392 0.00349597 -0.0169538 0.0356836 -0.0274065
internal_weight=61.1659 5.57709 55.5889 25.7786 18.6772 9.07459 7.1014 29.8103 22.9141 9.60257 18.0442 11.5441 6.42891 5.27537 4.71043 6.50009
internal_count=920 157 763 443 290 192 153 320 255 98 223 153 99 103 121 70
cat_boundaries=0 1
cat_threshold=65793
is_linear=0
shrinkage=0.05


Tree=47
num_leaves=15
num_cat=1
split_feature=0 1 3 13 5 4 0 7 23 0 0 0 6 6
split_gain=4.2921 3.85257 4.10747 4.20536 3.70473 2.97813 2.48238 2.3926 2.19199 1.88931 1.35547 0.856416 0.962736 0.209459
threshold=12.500000000000002 0 1.0000000180025095e-35 1.0000000180025095e-35 2.5000000000000004 43.500000000000007 15.500000000000002 0.44602273500000006 1.0000000180025095e-35 21.500000000000004 25.500000000000004 20.500000000000004 0.76871657500000012 0.93440862000000013
decision_type=2 9 2 2 2 2 2 2 2 2 2 2 2 2
left_child=7 2 -2 6 13 9 -4 -1 -5 -6 -11 12 -8 -3
right_child=1 4 3 8 5 -7 11 -9 -10 10 -12 -13 -14 -15
leaf_value=-0.050100460599397684 -0.030870993140534677 -0.057245995127517157 -0.022459314098507779 0.046338376809537042 0.029482340152271039 -0.032585644866403939 -0.0041401516782974077 0.0026048378675812083 -0.017117548309525922 -0.043857038672452643 0.011909082362641148 -0.0085057332276732411 0.040486182106278398 -0.027185705573141563
leaf_weight=9.2188801504671556 4.4892629757523563 5.0732033532112855 6.484600942581892 9.4759862134233099 4.8997761346399766 5.1998940259218216 1.4611531384289262 2.6070980466902247 1.0440083732828505 1.1171380728483202 1.5733805131167171 1.6871427819132803 3.1603819746524096 4.3392195478081703
leaf_count=98 34 31 52 292 56 47 43 40 28 5 65 22 78 36
internal_value=-0.0133278 -0.00656452 0.00639871 0.0171818 -0.0175622 -0.00654764 -0.0023712 -0.0391841 0.0391017 0.0130071 -0.0168553 0.0185249 0.0281504 -0.0473297
internal_weight=61.8311 50.0051 27.8025 23.3133 22.2026 12.7902 12.7933 11.826 10.52 7.59029 2.69052 6.30868 4.62154 9.41242
internal_count=927 789 549 515 240 173 195 138 320 126 70 143 121 67
cat_boundaries=0 1
cat_threshold=3584
is_linear=0
shrinkage=0.05


Tree=48
num_leaves=19
num_cat=1
split_feature=10 3 3 2 13 6 5 4 6 3 6 4 7 3 4 4 4 3
split_gain=4.57474 2.0983 2.3519 2.80908 6.31466 2.57202 1.64235 1.61688 1.21137 1.15914 1.15534 0.935593 0.654398 0.423606 1.0866 0.455016 0.125793 0.0502527
threshold=1.0000000180025095e-35 8.5000000000000018 1.0000000180025095e-35 0 1.0000000180025095e-35 0.90121950000000017 5.5000000000000009 57.500000000000007 0.20871144000000003 2.5000000000000004 0.82159567000000011 8.5000000000000018 0.085144928000000009 1.5000000000000002 2.5000000000000004 3.5000000000000004 5.5000000000000009 3.5000000000000004
decision_type=2 2 2 9 2 2 2 2 2 2 2 2 2 2 2 2 2 2
left_child=1 2 -1 4 9 7 11 10 -2 -4 12 13 -5 14 -6 17 -16 -15
right_child=8 -3 3 5 6 -7 -8 -9 -10 -11 -12 -13 -14 15 16 -17 -18 -19
leaf_value=-0.036061250207526943 -0.0100779428638317 -0.045511329686481021 -0.017388238035743322 -0.012704188859797459 -0.025551705800866527 -0.01817504250790259 0.038905752985397855 -0.012234339976256167 0.04353765970726535 -0.051766272985752627 0.054130969083720226 -0.016013069699453052 0.02417441462817646 0.03327283204753876 0.02541962769159109 -0.0022961083946571471 0.0024385083778453278 0.0082320639555726865
leaf_weight=7.7526001743972293 0.95024853572249313 4.5452352315187445 5.2041337862610844 1.1238849181681856 1.8220232427120229 3.0372207500040522 1.8129313979297865 1.412081519141793 3.5080484487116337 8.6633435040712339 4.1182112526148558 6.2458197660744181 2.2649044543504715 1.4292789334431293 0.91962544992566142 1.7723868899047373 1.2059656176716087 1.1573545131832359
leaf_count=57 15 35 45 23 24 52 44 17 132 81 101 56 62 45 50 38 18 27
internal_value=-0.0117722 -0.015901 -0.0123657 -0.0072773 -0.0131063 0.00984966 0.00389868 0.0301932 0.0323572 -0.0409023 0.0386739 -0.00268364 0.0118358 0.00798255 -0.00362439 0.0172089 0.0173329 0.0274877
internal_weight=58.9453 54.487 49.9418 42.1892 30.2329 11.9563 16.3654 8.91908 4.4583 13.8675 7.507 14.5525 3.38879 8.30663 3.94761 4.35902 2.12559 2.58663
internal_count=922 775 740 683 428 255 302 203 147 126 186 258 85 202 92 110 68 72
cat_boundaries=0 1
cat_threshold=5125
is_linear=0
shrinkage=0.05


Tree=49
num_leaves=15
num_cat=1
split_feature=0 2 13 0 0 6 3 0 4 4 0 7 4 6
split_gain=4.50055 4.20645 3.37343 3.63096 3.06991 2.63504 1.81725 1.80208 1.70711 2.06514 1.18091 0.534834 0.258238 0.240856
threshold=12.500000000000002 0 1.0000000180025095e-35 13.500000000000002 25.500000000000004 0.5801282000000002 8.5000000000000018 18.500000000000004 8.5000000000000018 40.500000000000007 18.500000000000004 0.87500000000000011 14.500000000000002 0.88730160000000013
decision_type=2 9 2 2 2 2 2 2 2 2 2 2 2 2
left_child=5 8 10 -4 7 -1 11 -5 -2 12 13 -6 -10 -3
right_child=1 2 3 4 6 -7 -8 -9 9 -11 -12 -13 -14 -15
leaf_value=0.0050333823499835954 -0.0064407412086634934 -0.0061073419939957733 0.039854372880153678 -0.0070701174322954381 0.029990282476957505 -0.048631526465732523 -0.031861081882287735 -0.050675129616780862 0.019116212601942451 -0.0036370790395141776 -0.047559510516643685 0.001349090268740619 0.0528876449174299 -0.024495339653539002
leaf_weight=2.7505642473697653 2.9896319210529319 4.399533484131096 3.4091359488666084 5.2427719868719596 4.4512349404394609 8.8526881970465165 1.0872279331088064 3.9891094379127026 2.4048899710178357 2.6016748398542404 6.1250974796712399 2.4647825807332993 5.3476042533293366 3.5716705173254013
leaf_count=43 58 37 39 58 172 103 7 24 51 45 49 53 160 30
internal_value=-0.00991436 -0.00288086 -0.0110057 -0.000904651 -0.0107103 -0.0365202 0.0112912 -0.0290231 0.0148704 0.0341459 -0.0320494 0.0212428 0.0457925 -0.0161585
internal_weight=59.6876 48.0844 34.7406 20.6443 17.2351 11.6033 8.00325 9.23188 13.3438 10.3542 14.0963 6.91602 7.75249 7.9712
internal_count=929 783 469 353 314 146 232 82 314 256 116 225 211 67
cat_boundaries=0 1
cat_threshold=119040
is_linear=0
shrinkage=0.05


Tree=50
num_leaves=13
num_cat=2
split_feature=0 2 13 6 1 0 6 5 6 4 4 6
split_gain=3.99345 4.02851 3.32832 2.24863 2.24282 2.36581 1.58914 2.3675 0.571666 0.431895 0.117866 0.0381851
threshold=12.500000000000002 0 1.0000000180025095e-35 0.5801282000000002 1 17.500000000000004 0.92153845000000012 5.5000000000000009 0.82826680000000008 1.5000000000000002 8.5000000000000018 0.84262126500000012
decision_type=2 9 2 2 9 2 2 2 2 2 2 2
left_child=3 2 8 -1 -4 -6 7 10 -2 -7 -3 -9
right_child=1 6 4 -5 5 9 -8 11 -10 -11 -12 -13
leaf_value=0.003366210056966384 -0.011010706639657176 0.01452905062828337 -0.013238747364089136 -0.047775146663555201 -0.0073026815886402079 -7.1457890388168676e-05 -0.0090783486792898917 0.0046003215868643524 -0.036931464646319849 0.038833281049760422 0.054718459208015116 -0.003733890938784231
leaf_weight=2.6457807794213286 3.9366914220154277 1.1137596275657395 7.241157736629253 8.1429701112210733 5.1187942586839146 0.78730066493153561 2.1699008326977482 1.7137658949941399 10.883797578513621 6.2372873304411769 5.178033065982163 1.7946530375629661
leaf_count=41 41 39 65 99 47 14 33 36 88 234 172 24
internal_value=-0.0100234 -0.0033166 -0.0110275 -0.0360118 -0.000257734 0.0102075 0.0148904 0.0343338 -0.0311775 0.0350074 0.0505724 0.000454542
internal_weight=56.9639 46.1751 34.205 10.7888 19.3845 12.1434 11.9701 9.80021 14.8205 7.02459 6.29179 3.50842
internal_count=933 793 489 140 360 295 304 271 129 248 211 60
cat_boundaries=0 1 2
cat_threshold=397317 67
is_linear=0
shrinkage=0.05


Tree=51
num_leaves=17
num_cat=2
split_feature=0 1 2 0 3 6 6 0 0 13 5 26 0 6 0 8
split_gain=3.40893 4.07014 3.96184 4.10151 2.72439 2.18565 1.62476 3.19488 1.23069 1.50667 1.16364 1.81945 1.29319 0.256472 0.187057 0.178836
threshold=12.500000000000002 0 1 13.500000000000002 8.5000000000000018 0.31009616000000007 0.13574661000000002 27.500000000000004 25.500000000000004 1.0000000180025095e-35 3.5000000000000004 1.0000000180025095e-35 19.500000000000004 0.87339745000000013 13.500000000000002 0.12933094000000003
decision_type=2 9 9 2 2 2 2 2 2 2 2 2 2 2 2 2
left_child=5 2 3 -2 6 -1 7 -4 9 -3 14 15 -13 -10 -8 -12
right_child=1 8 4 -5 -6 -7 10 -9 13 -11 11 12 -14 -15 -16 -17
leaf_value=0.0030054103038478779 0.013710021763290815 -0.016751590167358287 -0.036588706718758988 -0.047822842163545591 -0.020258275321530409 -0.04766158114691077 0.013589694425941502 0.037036521257212622 -0.016391155380569542 -0.059693392243265746 0.0099309698646208987 -0.03946955708402778 0.014998885085601342 0.0057290969192888841 0.048880805183699028 0.042315860325092103
leaf_weight=2.647061634808777 3.7952111400663888 4.650610286742447 1.9903446696698657 6.0907477103173733 2.5732478499412528 7.9114291965961456 1.386675614863633 1.9048642367124557 1.7990511115640393 5.1827470138669014 1.3980992538854473 1.1991790011525156 1.3814243031665681 1.7394584352150559 8.427314527332781 2.1064094631001353
leaf_count=42 41 38 16 49 28 101 13 52 31 28 26 24 41 30 286 69
internal_value=-0.0115036 -0.00523427 0.00577666 -0.0130881 0.0156804 -0.0357981 0.0286427 -0.000373177 -0.0202656 -0.0428054 0.0353529 0.0147046 -0.0142663 -0.00665087 0.0456121 0.034469
internal_weight=56.1839 45.6254 32.2535 9.88596 22.3676 10.5585 19.7943 3.89521 13.3719 9.83336 15.8991 6.08511 2.5806 3.53851 9.81399 3.50451
internal_count=915 772 645 90 555 143 527 68 127 66 459 160 65 61 299 95
cat_boundaries=0 1 2
cat_threshold=11906 1
is_linear=0
shrinkage=0.05


Tree=52
num_leaves=17
num_cat=0
split_feature=0 10 7 13 0 3 0 0 8 3 5 8 8 0 8 5
split_gain=4.30409 3.02836 2.35807 2.26851 2.58444 2.95038 1.9468 1.69828 1.54027 1.33013 1.28243 1.77284 1.222 0.779631 0.709849 0.0200338
threshold=12.500000000000002 1.0000000180025095e-35 0.50925925000000005 1.0000000180025095e-35 25.500000000000004 8.5000000000000018 22.500000000000004 19.500000000000004 0.098780485000000015 1.5000000000000002 5.5000000000000009 0.09449405000000001 0.11696306500000002 15.500000000000002 0.14337102500000001 3.5000000000000004
decision_type=2 2 2 2 2 2 2 2 2 2 2 2 2 2 2 2
left_child=2 3 -1 6 7 -6 10 8 9 -5 11 13 -13 -2 15 -10
right_child=1 -3 -4 4 5 -7 -8 -9 14 -11 -12 12 -14 -15 -16 -17
leaf_value=-0.048591199225843568 -0.031166134825120179 0.040796145864635001 0.0063753849937351406 -0.037588602951120584 0.038172839545449901 -0.032425498541330741 -0.048270068806466511 -0.039644985702192929 0.013234029840123838 0.0052652915015848172 -0.031626254988051626 0.037687823662975149 -0.0030556936118316725 1.8851806606844139e-05 -0.0048191272378169774 0.039722748718199495
leaf_weight=7.9147873260080797 3.4515574313700252 2.7744641769677392 2.224381934851408 2.2933643758296984 6.8546922691166392 1.0183137655258176 3.2039079442620269 2.2861422449350348 1.6507726181298497 3.5562404906377196 3.7486653327941886 2.584533323533833 3.4998798407614231 3.6432454492896795 1.5808077007532118 1.358087074011564
leaf_count=103 29 122 38 15 236 6 30 15 39 60 29 42 35 57 27 28
internal_value=-0.00930445 -0.00215275 -0.0370426 -0.00598585 0.00558475 0.0264162 -0.0175287 -0.00828895 0.00144326 -0.0145706 -0.00934242 -0.00122061 0.0171282 -0.0171283 0.0208085 0.0321164
internal_weight=53.6438 43.5047 10.1392 40.7302 20.5984 7.87301 20.1318 12.7254 10.4393 5.8496 16.9279 13.1792 6.08441 7.0948 4.58967 3.00886
internal_count=911 770 141 648 426 242 222 184 169 75 192 163 77 86 94 67
is_linear=0
shrinkage=0.05


Tree=53
num_leaves=16
num_cat=1
split_feature=0 2 7 13 4 4 4 26 4 0 0 26 3 3 3
split_gain=3.69504 3.203 2.39021 2.37605 2.18217 2.11063 2.02083 0.92141 0.915968 1.39696 0.817362 0.425115 0.250686 0.137625 0.0200012
threshold=12.500000000000002 0 0.44602273500000006 1.0000000180025095e-35 14.500000000000002 25.500000000000004 45.500000000000007 1.0000000180025095e-35 2.5000000000000004 25.500000000000004 18.500000000000004 1.0000000180025095e-35 1.5000000000000002 2.5000000000000004 3.5000000000000004
decision_type=2 9 2 2 2 2 2 2 2 2 2 2 2 2 2
left_child=2 4 -1 13 7 8 -6 -2 12 10 -10 -11 -5 -3 -13
right_child=1 3 -4 5 6 -7 -8 -9 9 11 -12 14 -14 -15 -16
leaf_value=-0.047788888781027702 -0.01642576689492297 -0.017254888723969013 0.0075098935481256457 -0.035314192478618153 0.055311675461429857 0.035799440970828995 -0.00045418711370271504 0.021270583082218804 0.0023240822209290783 0.036328748595699754 -0.028299896563903422 0.0057659754943517397 -0.0075522587269082663 -0.03418050355138523 -0.0019494268363891487
leaf_weight=7.1144688464701158 3.1252481546252948 6.2096225172281283 2.2501978389918804 1.9639227017760301 4.979345285333693 2.3710132129490367 2.2083646301180124 1.6760793803259728 4.5936131384223682 1.5790063962340355 2.9211276508867741 1.079783068038523 2.0782521199434996 6.7448235638439655 0.75909210741519939
leaf_count=94 52 56 38 23 169 55 35 56 51 70 26 51 39 61 21
internal_value=-0.00829971 -0.00170111 -0.0350588 -0.0094932 0.0138515 -0.000160721 0.0402152 -0.0018683 -0.007739 0.000359296 -0.0115056 0.0231457 -0.0253693 -0.0278852 0.00301625
internal_weight=51.654 42.2893 9.36467 30.3003 11.989 17.3458 7.18771 4.80133 14.9748 10.9326 7.51474 3.41788 4.04217 12.9544 1.83888
internal_count=897 765 132 453 312 336 204 108 281 219 77 142 62 117 72
cat_boundaries=0 1
cat_threshold=377152
is_linear=0
shrinkage=0.05


Tree=54
num_leaves=14
num_cat=2
split_feature=0 1 8 2 0 0 7 6 4 3 0 6 6
split_gain=3.8021 2.97667 3.35763 2.70322 2.8484 2.48185 1.60284 1.41097 1.38972 0.967522 1.12232 0.0385591 0.0311737
threshold=12.500000000000002 0 0.13759297000000004 1 13.500000000000002 17.500000000000004 1.0000000180025095e-35 0.31009616000000007 40.500000000000007 3.5000000000000004 19.500000000000004 0.84150716500000011 0.8762755000000001
decision_type=2 9 2 9 2 2 2 2 2 2 2 2 2
left_child=7 3 9 5 -5 -2 -4 -1 -7 10 -3 -6 -12
right_child=1 2 6 4 11 8 -8 -9 -10 -11 12 -13 -14
leaf_value=-0.0015621504941856421 -0.0078474608901206097 0.0072508475214567158 -0.0093286964607936645 0.017834747623812309 -0.036194708247059011 0.050741866848100586 0.039243067544938393 -0.045780384663158973 -0.0038915212537906536 -0.045675107875004013 -0.035923264877348773 -0.018051078703605838 -0.014270503578189327
leaf_weight=2.3833493590354902 2.5500311478972426 2.7611523680388945 3.2973854951560488 4.3619127385318306 3.2955327592790109 8.4810010679066163 1.9592461846768854 7.4830344170331955 1.171608593314885 6.6710348324850202 2.418994290754199 4.9941499084234238 2.4816973088309169
leaf_count=36 27 24 29 49 35 361 70 102 39 52 29 48 33
internal_value=-0.00969959 -0.00314331 -0.0137161 0.00771808 -0.00710515 0.0191691 0.0121536 -0.0362257 0.0443678 -0.0323234 -0.0167673 -0.0283838 -0.029235
internal_weight=54.3101 44.4437 19.5895 24.8542 12.6516 12.2026 5.25663 9.86638 9.65261 14.3329 7.66184 8.28968 4.90069
internal_count=934 796 237 559 132 427 99 138 400 138 86 83 62
cat_boundaries=0 1 2
cat_threshold=3584 114692
is_linear=0
shrinkage=0.05


Tree=55
num_leaves=18
num_cat=1
split_feature=13 2 4 4 3 26 8 4 4 6 6 6 6 4 3 25 6
split_gain=2.17616 3.27176 1.9354 2.59318 1.58477 1.51535 1.164 2.44545 0.544521 0.513833 0.441836 0.318324 1.23708 0.420029 0.245462 0.372629 0.118323
threshold=1.0000000180025095e-35 0 45.500000000000007 12.500000000000002 1.0000000180025095e-35 1.0000000180025095e-35 0.098780485000000015 16.500000000000004 18.500000000000004 0.80798770000000009 0.79491592000000011 0.78319625000000015 0.92724865000000012 2.5000000000000004 4.5000000000000009 1.0000000180025095e-35 0.85092595000000004
decision_type=2 9 2 2 2 2 2 2 2 2 2 2 2 2 2 2 2
left_child=1 2 3 10 -2 11 7 14 -8 -5 -1 13 -13 -6 15 -7 -10
right_child=4 -3 -4 9 5 6 8 -9 16 -11 -12 12 -14 -15 -16 -17 -18
leaf_value=0.0094071392167281043 -0.021662290689509214 -0.023901764483932463 -0.025523810239243536 0.0098509212887114301 0.0039382026083233613 -0.0021968468400804463 -0.0078858556024149033 -0.048209648557476253 0.033505802577459422 0.054147671478772898 -0.01902047178222438 -0.0079168623366802152 0.032184364002832526 0.041604263597062964 -0.0080699897329213326 0.024670228185187128 0.0056945414242127014
leaf_weight=1.6804506862536055 4.3662295155227211 15.228321786969902 1.5737632811069477 1.3798621073365209 1.2244277093559506 2.3092952221632004 1.1048735594376924 2.3131205979734659 1.4683265853673222 3.4205911923199892 1.9915250036865473 3.3920072317123413 2.6689650788903236 2.5217546615749598 1.5584197537973521 1.5539405560120942 1.0275283521041272
leaf_count=45 37 164 12 37 23 60 40 36 46 71 21 58 76 90 22 44 27
internal_value=-0.00745621 -0.0175635 0.0078604 0.0243996 0.00284296 0.00865336 -0.00380885 -0.0142688 0.0168778 0.0453083 -0.00678189 0.0220773 0.011799 0.0327169 0.0054643 0.0114607 0.0269602
internal_weight=50.7834 25.2745 10.0462 8.47243 25.5089 21.1427 11.3355 7.73478 3.60073 4.80045 3.67198 9.80715 6.06097 3.74618 5.42166 3.86324 2.49585
internal_count=909 350 186 174 559 522 275 162 113 108 66 247 134 113 126 104 73
cat_boundaries=0 1
cat_threshold=118848
is_linear=0
shrinkage=0.05


Tree=56
num_leaves=20
num_cat=0
split_feature=8 0 10 0 0 0 3 0 3 0 4 0 4 4 4 8 5 6 3
split_gain=2.76989 3.39169 2.54753 2.04172 2.22196 1.68924 1.38104 1.00452 0.920035 2.14149 0.749468 0.632245 0.577367 0.56323 0.501801 0.393907 0.377402 0.086046 0.00812411
threshold=0.098780485000000015 17.500000000000004 1.0000000180025095e-35 12.500000000000002 19.500000000000004 18.500000000000004 5.5000000000000009 25.500000000000004 8.5000000000000018 25.500000000000004 20.500000000000004 21.500000000000004 2.5000000000000004 14.500000000000002 13.500000000000002 0.077935222500000026 6.5000000000000009 0.84150716500000011 2.5000000000000004
decision_type=2 2 2 2 2 2 2 2 2 2 2 2 2 2 2 2 2 2 2
left_child=1 15 3 -2 6 -3 10 -6 9 11 13 14 -11 -5 18 -1 -9 -12 -7
right_child=2 5 -4 4 7 8 -8 16 -10 12 17 -13 -14 -15 -16 -17 -18 -19 -20
leaf_value=-0.047406318705305484 -0.036918014118252893 0.031699509958169683 0.040077101834937956 0.01828581224851002 -0.03178377356882861 -0.022811425528913125 -0.01621439455552438 -0.012611520310766584 -0.036515980579129331 -0.0017357019620939205 0.016467311612502627 -0.040800454429676697 0.029492866092367443 -0.012853430465453276 0.0095252474382143959 -0.019106155396731665 0.01526970281597425 0.043598147029874905 -0.0079965926826049225
