tree
version=v4
num_class=1
num_tree_per_iteration=1
label_index=0
max_feature_idx=26
objective=binary sigmoid:1
feature_names=depth tag parent_tag num_siblings text_length word_count letter_ratio digit_ratio whitespace_ratio contains_date contains_time starts_with_digit ends_with_digit has_class has_id attr_has_word_date attr_has_word_time attr_has_word_location text_has_word_date text_word_time text_word_location prev_contains_date next_contains_date prev_contains_time next_contains_time same_parent_as_prev same_parent_as_next
feature_infos=[2:30] -1:10:11:0:9:13:7:1:8:2:6:5:3 -1:2:16:0:15:12:8:14:18:17:6:10:4 [0:54] [1:559] [1:81] [0:1] [0:1] [0:0.23529412] [0:1] [0:1] [0:1] [0:1] [0:1] none none [0:1] none none none none [0:1] [0:1] [0:1] [0:1] [0:1] [0:1]
tree_sizes=1060 1188 1196 1295 979 1409 1601 1193 1506 1305 1516 986 1294 1405 1291 1516 1515 1733 1205 1515 1624 1522 1313 1733 1526 1501 1533 1509 1307 1616 1105 1505 1404 1623 1931 1426 1625 1636 2043 1713 1301 1741 1824 1631 1721 1506 1740 1830 1950 1713 1727 1838 1426 1303 1837 1531 1828 1397 1736 1938 1717 2056 2065 1713 1639 1736 1842 1738 1951 1828 1614 1719 2057 2053 1518 1844 1743 1412 1618 1536 1619 1940 1729 1949 1841 1518 1952 1972 2156 2057 1961 1952 1838 2038 1745 1953 1850 1941 1950 2181 1752 1731 1953 1635 1649 1749 1546 2063 2395 1859 1949 2059 1771 1971 1867 1952 1833 1962 2045 2289 1647 1644 1632 1876 1861 1749 1977 1852 1751 2070 1856 1867 1976 1754 1624 1765 2292 1758 1418 1645 1534 2170 1733 2093 1980 2161 2162 1855 1980 1955 1735 1435 2255 1960 1871 1344 1425 1736 2167 1464 1969 2063 1966 1952 2067 1966 1843 1755 2082 1541 2058 1529 2056 1957 1972 2077 1947 1979 2399 1952 1964 1645 1549 1976 2158 1735 1529 1438 1877 2171 2160 1739 1958 1890 1954 1859 1981 1757 1963 1763 1759 1846 2167 2079 1541 2069 1658 1968 2100 2173 2289 1986 1427 2071 2179 1887 1763 1874 1855 1974 1970 1965 2071 2398 1974 1968 2071 1749 2064 1546 1878 2057 1765 1866 2069 1673 1130 1988 2087 1860 1850 1668 1952 1850 1974 1872 1662 1974 1977 1424 1646 1630 1961 2062 1997 1956 1662 2088 2084 1984 1863 2073 1753 1756 1841 2092 1965 1973 1662 1536 1862 2073 1840 1861 1652 1887 2054 1968 1967 1868 1430 2327 1336 1742 2073 1887 2086 1668 2076 1663 2182 1996 2311 1859 1764 1458 1751 2083 2084 1971 2096 1628 1843 1986 1629 1785 1972 1771 1960 1959 2184 1422 1863 1878 1767 2092 1984 2083 1769 1747 1887 1978 1868 1679 2087 1663 2092 1978 1547 1641 1987 2007 2181 2112 1556 2118 1534 1880 1992 1559 1780 2189 1870 1543 1988 1862 1448 2099 1868 1984 1969 1641 1533 2301 2301 1657 1874 1883 1969 1896 1871 1879 1980 1767 2197 2190 1663 1890 1561 2086 1778 1654 2194 1968 1234 1772 1776 1768 1657 1675 1245 1858 1432 2090 1687 1861 1550 2091 1765 2104 1760 1327 1756 1774 1752 1775 1873 1983 1652 1761

Tree=0
num_leaves=9
num_cat=1
split_feature=2 0 6 4 4 0 6 0
split_gain=164.536 54.6428 23.638 5.70379 2.67179 6.20262 4.28069 3.50136
threshold=0 14.500000000000002 0.74828768000000012 13.500000000000002 3.5000000000000004 27.500000000000004 0.85599078500000003 27.500000000000004
decision_type=9 2 2 2 2 2 2 2
left_child=1 -1 -2 4 7 6 -6 -3
right_child=2 3 -4 -5 5 -7 -8 -9
leaf_value=0.82471247332296771 0.89769216389474993 0.98867426532878111 0.78191448754597181 0.98616590918702074 0.94781848362975896 0.98160643375474055 0.88061628741267284 0.93666141251943513
leaf_weight=6.8814794123172751 5.643437683582305 6.0944045484066027 39.489772707223892 20.859335497021675 3.3354082256555539 3.1273918077349654 4.6811632812023163 6.5956553071737289
leaf_count=46 52 76 226 254 37 39 40 70
internal_value=0.875489 0.943895 0.81916 0.967435 0.94939 0.931003 0.90759 0.964193
internal_weight=96.708 51.5748 45.1332 44.6934 23.834 11.144 8.01657 12.6901
internal_count=840 562 278 516 262 116 77 146
cat_boundaries=0 1
cat_threshold=98564
is_linear=0
shrinkage=1


Tree=1
num_leaves=10
num_cat=2
split_feature=2 0 4 1 0 4 4 0 6
split_gain=152.848 44.5159 9.04928 21.5118 3.80626 3.58273 3.80282 2.22342 0.115487
threshold=0 14.500000000000002 13.500000000000002 1 19.500000000000004 51.500000000000007 86.500000000000014 26.500000000000004 0.80284101500000016
decision_type=9 2 2 9 2 2 2 2 2
left_child=8 -2 3 7 -5 -4 -7 -3 -1
right_child=1 2 5 4 -6 6 -8 -9 -10
leaf_value=-0.082289494268232302 -0.090641405231453503 0.020449332441587916 0.060737257159790392 -0.025661138507936249 -0.092616157232062693 -0.02288356884948127 0.049043188712714188 0.063765261014745098 -0.14272008950416751
leaf_weight=4.9885233640670767 8.0462462380528432 5.4926451966166505 19.106296658515934 4.9507319405674952 4.9448323398828506 2.9837732166051856 2.5013079643249512 12.000069111585617 33.661390602588654
leaf_count=34 53 61 239 46 33 28 32 152 169
internal_value=-0.0471473 0.0104219 0.0294488 0.00910351 -0.0336574 0.0508669 0.0124212 0.0337533 -0.10956
internal_weight=98.6758 60.0259 51.9797 27.3883 9.89556 24.5914 5.48508 17.4927 38.6499
internal_count=847 644 591 292 79 299 60 213 203
cat_boundaries=0 1 2
cat_threshold=409601 1024
is_linear=0
shrinkage=0.05


Tree=2
num_leaves=10
num_cat=1
split_feature=2 0 6 0 8 0 6 0 4
split_gain=118.554 47.2858 21.8453 8.74885 3.76959 2.68462 5.45857 0.270783 1.51811
threshold=0 12.500000000000002 0.69157610000000014 17.500000000000004 0.060661765000000006 25.500000000000004 0.8144870500000001 27.500000000000004 3.5000000000000004
decision_type=9 2 2 2 2 2 2 2 2
left_child=1 -1 -2 -3 5 6 -5 -7 -9
right_child=2 3 -4 4 -6 7 -8 8 -10
leaf_value=-0.11776397760767093 -0.011416601728622598 -0.021935211947318116 -0.1209559825786562 0.038618837356137713 0.055774202350055396 0.047482916077617968 -0.043770422242293945 0.0070176157865817742 0.049494686150960567
leaf_weight=4.8614338785409918 5.321758694946765 5.6866523697972289 43.091351881623268 2.9400769919157037 20.960355952382088 4.5098959803581229 3.1132165640592575 5.7429556772112846 2.7370280027389526
leaf_count=24 51 53 223 36 267 56 26 62 36
internal_value=-0.0455298 0.0138732 -0.090978 0.0330729 0.0412368 0.0232514 -0.0039522 0.0353047 0.0245024
internal_weight=98.9647 50.5516 48.4131 45.6902 40.0035 19.0432 6.05329 12.9899 8.47998
internal_count=834 560 274 536 483 216 62 154 98
cat_boundaries=0 1
cat_threshold=98564
is_linear=0
shrinkage=0.05


Tree=3
num_leaves=11
num_cat=2
split_feature=0 2 6 1 5 8 0 6 6 8
split_gain=106.079 50.2547 11.2529 10.2514 11.0032 2.44907 2.06226 8.85626 6.31092 1.14008
threshold=17.500000000000004 0 0.74828768000000012 1 2.5000000000000004 0.13859338500000004 25.500000000000004 0.24264706000000003 0.95119048000000006 0.12933094000000003
decision_type=2 9 2 9 2 2 2 2 2 2
left_child=2 -2 5 4 -3 -1 7 -5 -9 -6
right_child=1 3 -4 6 9 -7 -8 8 -10 -11
leaf_value=-0.061612342481125827 -0.062081025283644967 -0.079472707417947985 -0.11204566028869811 -0.030164172131388778 0.036577233531680083 -0.0068490427411892684 0.06083112115945806 0.059134340617762661 -0.019180808601226493 -0.0048225102914965685
leaf_weight=4.3278612568974477 11.060932010412214 4.3977456241846102 34.058795362710953 3.7459328100085285 2.7625515460968018 3.7633938938379288 16.985027171671391 15.894082203507425 2.5422396585345259 2.6102406084537506
leaf_count=30 51 29 172 36 35 37 224 201 23 27
internal_value=-0.0396071 0.0033385 -0.099399 0.0262474 -0.0148653 -0.039696 0.0375139 0.0339881 0.047904 0.0188635
internal_weight=102.149 59.9988 42.1501 48.9378 9.77054 8.09126 39.1673 22.1823 18.4363 5.37279
internal_count=865 626 239 575 91 67 484 260 224 62
cat_boundaries=0 1 2
cat_threshold=262145 8195
is_linear=0
shrinkage=0.05


Tree=4
num_leaves=8
num_cat=2
split_feature=2 0 6 4 1 0 0
split_gain=94.3831 47.7311 15.1879 6.19721 11.6567 4.38119 1.08008
threshold=0 14.500000000000002 0.69157610000000014 13.500000000000002 1 19.500000000000004 26.500000000000004
decision_type=9 2 2 2 9 2 2
left_child=1 -1 -2 4 6 -6 -3
right_child=2 3 -4 -5 5 -7 -8
leaf_value=-0.087801208370979322 -0.014971140763900598 0.02112701529393313 -0.10496552115381071 0.055946908863200133 -0.0054970406668099769 -0.073839730177072349 0.060976335103580748
leaf_weight=8.4863127097487432 5.6269350349903098 3.6498904600739488 44.93006843328476 19.806691966950893 4.553650289773941 4.248836487531662 11.356201469898222
leaf_count=47 53 43 219 266 46 28 155
internal_value=-0.0400888 0.0121191 -0.0799306 0.0358093 0.0174767 -0.0211136 0.032749
internal_weight=102.659 52.1016 50.557 43.6153 23.8086 8.80249 15.0061
internal_count=857 585 272 538 272 74 198
cat_boundaries=0 1 2
cat_threshold=98564 1024
is_linear=0
shrinkage=0.05


Tree=5
num_leaves=12
num_cat=1
split_feature=2 0 8 3 5 4 0 10 25 4 4
split_gain=86.9632 35.5642 9.76596 8.98694 6.50153 3.39658 7.17641 7.22886 5.34971 1.70809 1.21696
threshold=0 17.500000000000004 0.089220565000000016 6.5000000000000009 7.5000000000000009 13.500000000000002 26.500000000000004 1.0000000180025095e-35 1.0000000180025095e-35 22.500000000000004 53.500000000000007
decision_type=9 2 2 2 2 2 2 2 2 2 2
left_child=-1 2 -2 5 9 6 7 8 -3 -4 -7
right_child=1 3 4 -5 -6 10 -8 -9 -10 -11 -12
leaf_value=-0.081875246363147913 -0.098495774361666066 -0.055897168649593591 -0.011048534417870451 -0.04559152408762833 -0.064971920670344616 0.06144803933213383 0.051756256503687481 0.052048811525434648 0.0163098808834348 0.033530386182095438 0.020698362129174055
leaf_weight=41.259963974356651 5.8884220868349102 5.0151195377111453 3.8781769052147848 2.613104820251464 3.6986531317234039 14.249046035110952 10.813064225018023 3.2328763827681533 3.845347598195076 2.989984393119812 3.6190314814448348
leaf_count=193 29 39 34 22 23 200 148 42 40 30 44
internal_value=-0.0366322 0.00760199 -0.0517823 0.032496 -0.019486 0.0384719 0.0240318 -0.00281707 -0.0260841 0.0101535 0.054729
internal_weight=101.103 59.8428 16.4552 43.3876 10.5668 40.7745 22.9064 12.0933 8.86047 6.86816 17.8681
internal_count=844 651 116 535 87 513 269 121 79 64 244
cat_boundaries=0 1
cat_threshold=278529
is_linear=0
shrinkage=0.05


Tree=6
num_leaves=14
num_cat=0
split_feature=0 3 3 8 13 0 0 0 4 6 4 10 8
split_gain=72.6777 28.7078 30.6349 7.12472 6.73585 20.205 5.48636 3.09978 5.14331 2.7573 1.39503 5.59827 0.20086
threshold=17.500000000000004 1.0000000180025095e-35 8.5000000000000018 0.11001100000000001 1.0000000180025095e-35 21.500000000000004 12.500000000000002 25.500000000000004 6.5000000000000009 0.82626662000000006 16.500000000000004 1.0000000180025095e-35 0.13100686500000003
decision_type=2 2 2 2 2 2 2 2 2 2 2 2 2
left_child=3 -2 4 -1 5 10 -5 8 -6 -8 11 -3 -10
right_child=1 2 -4 6 7 -7 9 -9 12 -11 -12 -13 -14
leaf_value=-0.10226492012362216 -0.093190457663388515 -0.029249306507340672 -0.090195071623021802 -0.09259142767221086 -0.027254162971396698 -0.094740472324217576 -0.0018542452987580797 0.050452229218180593 0.045830355200196495 -0.050454053247410861 0.045499943802723958 0.051518965198564574 0.015793079459789004
leaf_weight=28.136653862893581 6.4998368546366683 3.479946702718733 5.5479268729686728 5.3697283491492298 3.7770375385880488 3.3507815748453131 5.2041414156556112 19.439099259674549 4.5545998364686966 5.8830590173602104 5.7841354832053185 3.1778385862708092 2.2756091058254242
leaf_count=125 31 29 28 24 34 14 49 267 61 36 74 42 28
internal_value=-0.038942 -0.00172387 0.0114036 -0.0861573 0.0253632 -0.00115019 -0.0543374 0.0388872 0.0151722 -0.0296828 0.029228 0.0109957 0.0391179
internal_weight=102.48 57.8868 51.387 44.5936 45.839 15.7927 16.4569 30.0463 10.6072 11.0872 12.4419 6.65779 6.83021
internal_count=842 608 577 234 549 159 109 390 123 85 145 71 89
is_linear=0
shrinkage=0.05


Tree=7
num_leaves=10
num_cat=2
split_feature=2 0 6 4 1 0 0 6 8
split_gain=71.3297 28.6214 11.0046 7.51952 10.9402 2.02154 1.95373 0.450836 0.438171
threshold=0 12.500000000000002 0.69157610000000014 13.500000000000002 1 26.500000000000004 23.500000000000004 0.90238095000000007 0.080540540000000008
decision_type=9 2 2 2 9 2 2 2 2
left_child=1 -1 -2 4 5 -3 -6 -4 -5
right_child=2 3 7 8 6 -7 -8 -9 -10
leaf_value=-0.08437628730683655 -0.011603845891570428 0.011427513641807161 -0.072683264043005888 0.019165925372072967 -0.017120422557686667 0.058000834292383646 -0.06586068091127989 -0.098660168120178679 0.054340569996804249
leaf_weight=5.2982588335871688 5.7976806163787833 3.7005474641919145 25.709511667490005 2.4410314708948162 4.8306528925895691 9.8644263222813588 4.4657827466726303 22.745327889919281 17.831933505833149
leaf_count=24 54 42 135 31 45 147 29 96 251
internal_value=-0.0345373 0.0131565 -0.0668623 0.0297579 0.00938997 0.0278389 -0.0226544 -0.0866255 0.0512053
internal_weight=102.685 48.4326 54.2525 43.1344 22.8614 13.565 9.29644 48.4548 20.273
internal_count=854 569 285 545 263 189 74 231 282
cat_boundaries=0 1 2
cat_threshold=98564 1024
is_linear=0
shrinkage=0.05


Tree=8
num_leaves=13
num_cat=2
split_feature=2 1 5 6 13 3 8 4 26 5 6 4
split_gain=71.8738 18.1077 17.4089 8.79954 3.21868 2.6323 1.82961 0.99049 1.28757 0.859589 0.60891 0.333904
threshold=0 1 2.5000000000000004 0.69157610000000014 1.0000000180025095e-35 2.5000000000000004 0.13759297000000004 6.5000000000000009 1.0000000180025095e-35 4.5000000000000009 0.63779805000000012 24.500000000000004
decision_type=9 9 2 2 2 2 2 2 2 2 2 2
left_child=1 4 -3 -2 5 -1 9 8 10 -4 -6 -7
right_child=3 2 6 -5 7 11 -8 -9 -10 -11 -12 -13
leaf_value=-0.013413331212902455 -0.013624676292530072 -0.086128112328072451 0.013144061050893259 -0.085893208987731645 -0.0054968223760510655 0.042623093344404513 0.038761521994879228 0.059532683693958269 0.047615381822018216 -0.020305141609885544 0.024179504035566287 0.012076298607818137
leaf_weight=4.5356403291225416 5.0383093729615203 7.7796542942523983 2.7511587962508184 50.831579826772213 2.526401028037073 3.4376930072903633 2.9407927542924881 12.528814971446989 5.5189414992928505 3.0106353610754013 2.957487516105175 2.4591411426663399
leaf_count=47 46 41 32 233 27 45 38 187 80 30 39 25
internal_value=-0.0356052 0.0116074 -0.023126 -0.0678071 0.0299969 0.013704 0.0124317 0.048595 0.0322181 -0.00475185 0.0117686 0.0334823
internal_weight=106.316 50.4464 16.4822 55.8699 33.9641 10.4325 8.70259 23.5316 11.0028 5.76179 5.48389 5.89683
internal_count=870 591 141 279 450 117 100 333 146 62 66 70
cat_boundaries=0 1 2
cat_threshold=98628 3712
is_linear=0
shrinkage=0.05


Tree=9
num_leaves=11
num_cat=1
split_feature=2 0 6 3 3 0 6 6 7 0
split_gain=65.1933 25.2786 10.8679 9.40904 4.52341 8.23003 2.1634 1.09724 0.485313 0.384299
threshold=0 12.500000000000002 0.69157610000000014 8.5000000000000018 1.5000000000000002 25.500000000000004 0.88730160000000013 0.92153845000000012 0.18303571500000002 26.500000000000004
decision_type=9 2 2 2 2 2 2 2 2 2
left_child=1 -1 -2 4 5 -3 -6 -8 -7 -9
right_child=2 3 -4 -5 6 8 7 9 -10 -11
leaf_value=-0.078360742328618171 -0.0018513682475460589 -0.032642155183925811 -0.082085022627957333 -0.050503296186781614 0.054601235222873329 0.048173294687756579 -0.0054474159595963439 0.014548850459060842 0.012232985755608369 0.044464594652377086
leaf_weight=5.3586671054363242 4.6741327643394461 5.7476786002516729 47.493774749338627 2.6657785624265662 19.654330343008045 5.6609362177550793 2.4953042119741422 3.7354255616664886 2.0832739844918251 2.5312984213232994
leaf_count=24 45 50 216 17 285 83 27 41 27 41
internal_value=-0.0310528 0.0129579 -0.0631827 0.0282579 0.0343282 0.0095459 0.0453701 0.0211915 0.0410096 0.0310887
internal_weight=102.101 49.9327 52.1679 44.574 41.9082 13.4919 28.4164 8.76203 7.74421 6.26672
internal_count=856 595 261 571 554 160 394 109 110 82
cat_boundaries=0 1
cat_threshold=98628
is_linear=0
shrinkage=0.05


Tree=10
num_leaves=13
num_cat=1
split_feature=0 2 0 3 8 5 3 0 0 5 6 6
split_gain=50.3425 31.8289 8.12542 5.92332 4.86624 4.13548 4.77125 6.51825 3.97276 4.42444 0.484154 0.241508
threshold=17.500000000000004 0 21.500000000000004 1.5000000000000002 0.11001100000000001 1.5000000000000002 5.5000000000000009 25.500000000000004 12.500000000000002 7.5000000000000009 0.79583335000000011 0.23303167500000002
decision_type=2 9 2 2 2 2 2 2 2 2 2 2
left_child=4 5 3 -3 -1 6 7 -2 -6 10 -10 -7
right_child=1 2 -4 -5 8 11 -8 -9 9 -11 -12 -13
leaf_value=-0.085721796388939522 -0.021370290204414638 -0.06280271245218487 -0.08706632108462764 0.0052722213339997529 -0.076586771572401541 0.022719452779667342 -0.038724759849018034 0.045770832292538983 0.009281236727512715 -0.063229240749401769 -0.013208855984835555 0.052539163652494641
leaf_weight=28.684162527322769 4.5998330637812641 4.6390723586082476 10.307867035269735 7.0501478463411331 6.366769231855872 3.0733108930289772 2.6669721454381934 10.310959748923777 4.0097975060343725 3.7887128740549088 3.5991284474730492 14.346518732607363
leaf_count=125 44 24 42 61 28 46 20 153 41 21 25 220
internal_value=-0.0341542 -0.00243756 -0.0392835 -0.0245647 -0.0722006 0.0251073 0.013782 0.0250171 -0.0469632 -0.0255725 -0.0016555 0.0487972
internal_weight=103.443 56.9947 21.9971 11.6892 46.4486 34.9976 17.5778 14.9108 17.7644 11.3976 7.60893 17.4198
internal_count=850 610 127 85 240 483 217 197 115 87 66 266
cat_boundaries=0 1
cat_threshold=98564
is_linear=0
shrinkage=0.05


Tree=11
num_leaves=8
num_cat=1
split_feature=2 0 6 4 0 0 3
split_gain=48.5312 22.3686 9.56934 7.313 3.19337 22.6248 6.24282
threshold=0 17.500000000000004 0.73508772500000019 12.500000000000002 19.500000000000004 25.500000000000004 5.5000000000000009
decision_type=9 2 2 2 2 2 2
left_child=1 3 -2 -1 -3 -6 -7
right_child=2 4 -4 -5 5 6 -8
leaf_value=-0.082600369568914533 -0.009227276947431572 0.049890547454489675 -0.074247149491555975 -0.0067748785768428094 -0.092511580318393918 0.048775133939144816 -0.032847519997801271
leaf_weight=5.4375729486346227 6.74031938612461 13.873410824686287 48.259700298309326 6.6713443472981453 2.923081241548064 17.16004325076938 1.981957048177718
leaf_count=24 59 205 222 57 14 268 17
internal_value=-0.0302325 0.00987685 -0.0564972 -0.0445283 0.0315909 0.0184208 0.0391127
internal_weight=103.047 48.0474 55 12.1089 35.9385 22.0651 19.142
internal_count=866 585 281 81 504 299 285
cat_boundaries=0 1
cat_threshold=98628
is_linear=0
shrinkage=0.05


Tree=12
num_leaves=11
num_cat=2
split_feature=2 0 4 1 0 0 4 0 6 6
split_gain=40.2931 23.0943 10.7421 10.5271 3.52526 3.25679 2.54243 2.18423 1.10907 1.03515
threshold=0 15.500000000000002 13.500000000000002 1 12.500000000000002 26.500000000000004 51.500000000000007 19.500000000000004 0.53661618000000011 0.79583335000000011
decision_type=9 2 2 9 2 2 2 2 2 2
left_child=9 4 3 5 -2 8 -4 -5 -3 -1
right_child=1 2 6 7 -6 -7 -8 -9 -10 -11
leaf_value=-0.037393240093631701 -0.077972828688536167 -0.015128899341834638 0.056047302022044089 -0.019594150375503511 -0.020047093498589904 0.054385900343021799 0.010438914344923269 -0.067728970215298945 0.023505268047963358 -0.07506755719498695
leaf_weight=5.1954823061823836 6.4102272540330869 2.7467672750353822 15.724029567092659 5.459356814622879 5.4889498651027679 8.2579408697783929 4.3835472948849192 5.5655390322208405 2.7373146712779999 37.746571518480778
leaf_count=34 27 27 243 50 41 142 56 33 33 168
internal_value=-0.0287066 0.0036751 0.0208603 -0.00141962 -0.054878 0.0216095 0.0470701 -0.0259362 0.00480594 -0.0582158
internal_weight=99.7157 56.7737 44.8745 24.7669 11.8992 13.742 20.1076 11.0249 5.48408 42.9421
internal_count=854 652 584 285 68 202 299 83 60 202
cat_boundaries=0 1 2
cat_threshold=409601 1024
is_linear=0
shrinkage=0.05


Tree=13
num_leaves=12
num_cat=2
split_feature=2 1 5 13 6 6 8 6 4 6 4
split_gain=37.8404 16.2679 19.1662 5.51882 4.17648 4.05384 2.57494 2.61818 3.49655 0.680519 0.6419
threshold=0 1 2.5000000000000004 1.0000000180025095e-35 0.71651786500000003 0.84262126500000012 0.14661705500000002 0.93933825000000015 3.5000000000000004 0.53661618000000011 2.5000000000000004
decision_type=9 9 2 2 2 2 2 2 2 2 2
left_child=4 6 -3 -4 -1 -5 7 9 -9 10 -2
right_child=1 2 3 5 -6 -7 -8 8 -10 -11 -12
leaf_value=-0.020070340392054353 0.040681521472774762 -0.068392818078226697 -0.025736476118614002 0.054365491422789916 -0.073476137606971248 -0.0096205720916456815 -0.011325399824219491 0.048636345687790065 -0.0087493606341474042 0.060581433006632927 0.0067047395219746904
leaf_weight=5.0010808631777754 3.9731115400791266 13.375311344861986 5.4263082183897469 6.2622690461575985 41.80953823029995 3.3540163151919842 2.3940267711877814 3.522780701518057 5.8287623822689056 9.628619655966757 2.5700255446135998
leaf_count=43 62 74 46 103 188 36 27 60 65 137 33
internal_value=-0.0294742 0.0029153 -0.0201845 0.01169 -0.0564935 0.0332441 0.0254882 0.0388478 0.0154783 0.0506731 0.0299941
internal_weight=103.146 56.3352 28.4179 15.0426 46.8106 9.61629 27.9173 25.5233 9.35154 16.1718 6.54314
internal_count=874 643 259 185 231 139 384 357 125 232 95
cat_boundaries=0 1 2
cat_threshold=397313 3072
is_linear=0
shrinkage=0.05


Tree=14
num_leaves=11
num_cat=2
split_feature=2 1 5 7 4 3 8 5 6 7
split_gain=32.8668 13.3896 23.3534 5.60035 5.08212 2.85902 1.9344 0.680075 0.265587 0.426903
threshold=0 1 2.5000000000000004 0.13961039500000003 48.500000000000007 2.5000000000000004 0.14376130500000003 3.5000000000000004 0.72111110000000012 0.87500000000000011
decision_type=9 9 2 2 2 2 2 2 2 2
left_child=1 6 -3 -2 7 -6 8 -4 9 -1
right_child=3 2 4 -5 5 -7 -8 -9 -10 -11
leaf_value=0.010474031942224168 -0.067813347224193812 -0.072058331176484275 0.013954676458680919 -0.0143284761725488 -0.042027762836948562 0.017395961557562151 -0.0058986605794882942 0.050057815486474359 0.048953910718923278 0.037931098606988782
leaf_weight=3.548700310289866 45.690716840326786 11.993830725550653 2.837606478482483 6.1584507301449767 3.2378296852111808 3.0759332180023193 1.9955311454832543 5.9987960271537304 13.044046036899088 3.6429839245975018
leaf_count=45 215 63 37 52 26 41 24 94 211 59
internal_value=-0.0294924 0.00420668 -0.0167685 -0.0520106 0.018371 -0.0146575 0.0268903 0.0410615 0.042912 0.0273151
internal_weight=101.224 49.3753 27.144 51.8492 15.1502 6.31376 22.2313 8.8364 20.2357 7.19168
internal_count=867 600 261 267 198 67 339 131 315 104
cat_boundaries=0 1 2
cat_threshold=99652 3072
is_linear=0
shrinkage=0.05


Tree=15
num_leaves=13
num_cat=1
split_feature=0 2 6 8 0 5 3 6 3 0 3 7
split_gain=36.0661 25.7387 6.30484 4.03144 3.85247 3.36658 3.29378 2.95172 4.02293 0.715445 0.519523 0.647438
threshold=17.500000000000004 0 1.0000000180025095e-35 0.11001100000000001 12.500000000000002 5.5000000000000009 3.5000000000000004 0.91485510000000014 4.5000000000000009 26.500000000000004 2.5000000000000004 0.085144928000000009
decision_type=2 9 2 2 2 2 2 2 2 2 2 2
left_child=3 -2 6 -1 -5 -6 -3 10 9 -9 11 -4
right_child=1 2 7 4 5 -7 -8 8 -10 -11 -12 -13
leaf_value=-0.070225659834427037 -0.040903084293534238 0.015243249865902067 0.014578469163631142 -0.065736456901761331 0.010176394414316678 -0.042291950841906699 -0.049896834889135294 0.012583021772646908 -0.034637012718435257 0.041823168159261417 0.0543331930590399 0.046938224628661956
leaf_weight=26.944465704262257 12.569402992725372 3.3261330015957347 5.2245767824351814 5.3873763531446484 5.9391278997063619 4.6985554024577141 2.7200792357325554 5.3606666810810548 2.347611788660287 4.575010783970356 13.735076799988745 2.6269736588001251
leaf_count=125 55 48 65 24 55 28 22 56 21 84 220 41
internal_value=-0.0246497 0.00327387 0.0223734 -0.0580559 -0.0346707 -0.014641 -0.0169844 0.0361011 0.0148495 0.0286403 0.0470009 0.0294851
internal_weight=95.4551 52.4855 39.9161 42.9695 16.0251 10.6377 6.04621 33.8699 12.2833 9.93568 21.5866 7.85155
internal_count=844 612 557 232 107 83 70 487 161 140 326 106
cat_boundaries=0 1
cat_threshold=262145
is_linear=0
shrinkage=0.05


Tree=16
num_leaves=13
num_cat=1
split_feature=2 0 3 3 0 6 4 6 6 4 6 6
split_gain=38.961 16.1762 8.5997 3.76346 4.16999 3.18679 3.28436 0.963826 0.840524 0.397987 0.225906 0.220746
threshold=0 15.500000000000002 8.5000000000000018 1.5000000000000002 25.500000000000004 0.23303167500000002 2.5000000000000004 0.8494367300000002 0.78319625000000015 66.500000000000014 0.92153845000000012 0.24264706000000003
decision_type=9 2 2 2 2 2 2 2 2 2 2 2
left_child=8 7 3 4 -3 6 -5 -2 -1 10 -7 -6
right_child=1 2 -4 5 11 9 -8 -9 -10 -11 -12 -13
leaf_value=-0.034317968271353999 -0.020730412561520185 -0.022058342240433352 -0.054691589854180545 0.044108073134323605 0.010150341811137331 0.059163388311260813 -0.019700323978906059 -0.057186966008617938 -0.067467392744628193 0.018362134714875657 0.032907476646256761 0.036708893744601255
leaf_weight=5.5076866447925559 4.9594494327902776 5.9351262860000116 2.3515372872352591 2.4687693491578129 2.0397787056863308 11.788774885237222 3.8911485895514488 5.4762670695781708 37.626900352537632 2.3946239277720442 6.1733355745673171 4.8796668089926243
leaf_count=36 35 52 13 42 31 195 52 27 174 36 88 80
internal_value=-0.0238485 0.00833625 0.0238119 0.0297101 0.00676408 0.040108 0.00769622 -0.0431892 -0.0522658 0.0493997 0.0523509 0.03115
internal_weight=95.4931 52.3585 41.9228 39.5712 12.8546 26.7167 6.35992 10.4357 43.1346 20.3567 17.9621 6.91945
internal_count=861 651 589 576 163 413 94 62 210 319 283 111
cat_boundaries=0 1
cat_threshold=409601
is_linear=0
shrinkage=0.05


Tree=17
num_leaves=15
num_cat=1
split_feature=0 3 2 3 8 0 6 6 6 4 4 8 8 6
split_gain=31.8363 15.0346 14.3013 7.06671 3.76332 3.33988 2.7385 6.60105 1.83791 1.59143 2.47837 0.591216 0.410548 0.178417
threshold=17.500000000000004 1.0000000180025095e-35 0 4.5000000000000009 0.10200668700000001 12.500000000000002 0.91485510000000014 0.23303167500000002 0.77794215000000011 14.500000000000002 3.5000000000000004 0.13546879500000003 0.17928571500000004 0.85599078500000003
decision_type=2 2 9 2 2 2 2 2 2 2 2 2 2 2
left_child=4 -2 -3 9 -1 -6 7 -5 -7 10 -4 -11 -13 -12
right_child=1 2 3 6 5 8 -8 -9 -10 11 13 12 -14 -15
leaf_value=-0.069955071490405543 -0.064693993568645941 -0.029858171665342867 0.047416617695680327 -0.041727897372253492 -0.062844039636052881 0.0064265316639127747 -0.043184421560968481 0.050706120089543665 -0.031732585881948244 0.060884063837878047 0.016100008061058758 0.0038065769252218933 0.037046056006983866 0.0021849391135464629
leaf_weight=23.736293762922287 6.3740236833691588 7.7470450103282937 6.9621753618121209 2.5541712306439859 6.5487393811345127 4.5225777812302095 2.8112710975110531 3.2803520485758781 7.6107546240091324 9.6847089976072294 3.1924807429313642 1.7979806177318089 1.7229621745645998 5.9554801918566227
leaf_count=110 31 35 123 22 30 47 22 51 46 166 42 28 35 68
internal_value=-0.0246379 0.00168844 0.0121323 0.0230065 -0.0562567 -0.0361824 -0.00993755 0.0100566 -0.0181028 0.0403186 0.0268984 0.0536444 0.0246687 0.00814905
internal_weight=94.501 52.0827 45.7086 37.9616 42.4184 18.6821 8.64579 5.83452 12.1333 29.3158 16.1101 13.2057 3.52094 9.14796
internal_count=856 623 592 557 233 123 95 73 93 462 233 229 63 110
cat_boundaries=0 1
cat_threshold=262145
is_linear=0
shrinkage=0.05


Tree=18
num_leaves=10
num_cat=1
split_feature=2 0 3 3 7 0 6 0 5
split_gain=29.102 11.6155 6.53003 6.5604 2.87724 2.79608 0.694 1.10793 0.051556
threshold=0 12.500000000000002 1.0000000180025095e-35 8.5000000000000018 0.13961039500000003 17.500000000000004 0.91042782000000011 15.500000000000002 2.5000000000000004
decision_type=9 2 2 2 2 2 2 2 2
left_child=1 -1 -3 5 6 -4 7 -2 -7
right_child=4 2 3 -5 -6 8 -8 -9 -10
leaf_value=-0.05712368361667769 -0.058303195599120783 -0.051507158712258895 -0.00075828718396579167 -0.03943440797218898 -0.016667891477446555 0.030201324712026242 -0.068780369892554705 -0.030764141316721994 0.044155719938848689
leaf_weight=4.5293358564376822 12.924158565700056 2.0476233065128318 5.6074949428439131 2.7360729277133933 5.7978041619062415 16.405244164168838 18.117228299379349 11.146631151437758 12.726428393274544
leaf_count=21 64 11 53 17 48 251 83 66 243
internal_value=-0.0226478 0.00920201 0.0202959 0.0254559 -0.0443106 0.0315271 -0.0578955 -0.0472862 0.0375605
internal_weight=92.038 44.0522 39.5229 37.4752 47.9858 34.7392 42.188 24.0708 29.1317
internal_count=857 596 575 564 261 547 213 130 494
cat_boundaries=0 1
cat_threshold=98628
is_linear=0
shrinkage=0.05


Tree=19
num_leaves=13
num_cat=1
split_feature=2 0 3 6 7 25 4 0 0 0 0 3
split_gain=30.2344 13.0297 5.34828 5.20056 3.67989 1.668 2.19726 3.64497 0.973179 2.18603 1.92309 0.838138
threshold=0 17.500000000000004 6.5000000000000009 0.82626662000000006 0.13961039500000003 1.0000000180025095e-35 13.500000000000002 26.500000000000004 13.500000000000002 21.500000000000004 18.500000000000004 4.5000000000000009
decision_type=9 2 2 2 2 2 2 2 2 2 2 2
left_child=1 3 5 -1 8 6 7 -3 -2 10 -10 -7
right_child=4 2 -4 -5 -6 11 -8 -9 9 -11 -12 -13
leaf_value=0.0049705214064518759 -0.068217547709738383 -0.01877974597139969 -0.034873770341456854 -0.061125625190178667 -0.011255358395519386 0.052619336337119182 0.042722244755888705 0.042873229207490926 -0.04493234852800547 -0.068269220327633925 -0.01026442975997597 0.010800236369163625
leaf_weight=5.1891662999987584 17.884646765887737 5.6410054191947001 2.1292232461273661 5.5644301846623421 5.6939161494374266 12.608550328761337 5.7444667257368573 2.7603846378624439 12.172495715320116 8.1443921327590925 6.7955935373902312 1.969292405992747
leaf_count=51 83 56 17 27 49 237 115 57 66 36 46 29
internal_value=-0.0221507 0.0112755 0.0302533 -0.0315215 -0.0431145 0.0360919 0.0214344 0.00388277 -0.0561868 -0.0461065 -0.0336481 0.048026
internal_weight=92.2976 41.6065 30.8529 10.7536 50.691 28.7237 14.1459 8.40139 44.9971 27.1125 18.9681 14.5778
internal_count=869 589 511 78 280 494 228 113 231 148 112 266
cat_boundaries=0 1
cat_threshold=98564
is_linear=0
shrinkage=0.05


Tree=20
num_leaves=14
num_cat=1
split_feature=2 0 3 3 4 0 12 0 4 8 0 0 0
split_gain=24.672 15.4764 7.40459 7.41603 6.31097 7.01576 2.33821 2.84409 2.27535 1.51298 0.6515 2.05951 2.8144
threshold=0 12.500000000000002 8.5000000000000018 1.0000000180025095e-35 13.500000000000002 17.500000000000004 1.0000000180025095e-35 26.500000000000004 5.5000000000000009 0.075498577500000011 13.500000000000002 21.500000000000004 18.500000000000004
decision_type=9 2 2 2 2 2 2 2 2 2 2 2 2
left_child=10 -2 3 -3 5 -5 8 -8 -7 -6 -1 12 -12
right_child=1 2 -4 4 9 6 7 -9 -10 -11 11 -13 -14
leaf_value=-0.066414936533102986 -0.059147496278792067 -0.043473570927790056 -0.044688844743408777 -0.056139645516699754 0.0063636595253410691 0.052561136645576517 -0.037973429181483206 0.023330600861087965 0.0099342472852832833 0.056557767039741996 -0.047824096345820133 -0.066526081163189837 -0.0058133137329227039
leaf_weight=16.19132138043642 6.7703151106834403 2.9269820004701605 3.4772006943821898 2.4341232329607037 1.9572323337197328 6.1359043382108229 2.4250043444335452 3.2515003457665443 6.6076726093888283 15.028163626790045 9.7926231399178558 7.9629198163747779 6.8129915595054618
leaf_count=77 32 17 20 12 25 113 22 57 81 277 53 36 48
internal_value=-0.021317 0.00519122 0.0172736 0.0235021 0.0296688 0.0103865 0.0216157 -0.00462354 0.0327897 0.0514493 -0.0444282 -0.0452836 -0.031897
internal_weight=91.774 51.0141 44.2438 40.7666 37.8396 20.8542 18.4201 5.6765 12.7436 16.9854 40.7599 24.5685 16.6056
internal_count=870 656 624 604 587 285 273 79 194 302 214 137 101
cat_boundaries=0 1
cat_threshold=409601
is_linear=0
shrinkage=0.05


Tree=21
num_leaves=13
num_cat=1
split_feature=10 0 3 3 2 4 0 8 4 0 8 6
split_gain=20.9967 15.7016 14.7496 12.1718 10.362 3.27333 4.36946 1.70395 1.14565 0.683281 1.51063 0.424286
threshold=1.0000000180025095e-35 15.500000000000002 1.0000000180025095e-35 7.5000000000000009 0 13.500000000000002 25.500000000000004 0.13546879500000003 7.5000000000000009 12.500000000000002 0.089220565000000016 0.78319625000000015
decision_type=2 2 2 2 9 2 2 2 2 2 2 2
left_child=1 9 -3 4 -4 6 -6 -7 -8 -1 -11 -9
right_child=-2 2 3 -5 5 7 8 11 -10 10 -12 -13
leaf_value=-0.064213599111310957 0.056993763993484582 -0.07088885620643684 -0.024670117945456718 -0.066556501038249269 -0.019682874455866257 0.055561400855218615 0.042985972135143033 0.027787197815683819 0.0064924019610005023 -0.056585629419681364 -0.017954033785136211 0.00061866715201435785
leaf_weight=18.728891342878345 6.9412150159478179 7.6037972196936598 7.8868438825011271 4.8564798086881629 6.2229907624423495 9.9395838975906354 5.9734746851026994 2.2611955553293219 3.7006859742105007 5.8300093561410886 6.2013821825385094 2.65247767791152
leaf_count=91 113 34 43 22 60 182 125 38 43 29 42 31
internal_value=-0.0212349 -0.0284761 -0.0110722 0.000743507 0.0106685 0.0212886 0.0111327 0.044199 0.030942 -0.0561279 -0.0395794 0.0157058
internal_weight=88.799 81.8578 51.0975 43.4937 38.6373 30.7504 15.8972 14.8533 9.67416 30.7603 12.0314 4.91367
internal_count=853 740 578 544 522 479 228 251 168 162 71 69
cat_boundaries=0 1
cat_threshold=4097
is_linear=0
shrinkage=0.05


Tree=22
num_leaves=11
num_cat=1
split_feature=2 0 3 3 8 0 0 10 6 0
split_gain=27.8629 13.5844 7.07424 4.9865 3.10973 4.90305 1.11547 2.74696 0.894009 0.870745
threshold=0 12.500000000000002 1.0000000180025095e-35 9.5000000000000018 0.075498577500000011 17.500000000000004 25.500000000000004 1.0000000180025095e-35 0.77346037500000009 26.500000000000004
decision_type=9 2 2 2 2 2 2 2 2 2
left_child=8 -2 -3 4 5 -4 7 -7 -1 -6
right_child=1 2 3 -5 9 6 -8 -9 -10 -11
leaf_value=-0.024061774635707842 -0.057023182349310433 -0.041481043152565261 -0.039152263985994244 -0.033201309129148794 0.051536057908780436 -0.01309602682714049 0.038056853387569221 0.044588990847985621 -0.056321487007648788 0.012065482732055072
leaf_weight=4.5654687806963912 5.2003381103277198 3.1114398911595336 2.4007712528109577 2.2898722961544982 15.805422913283111 4.4902384616434601 9.1845371872186643 2.3757671266794205 33.892271347343922 2.3128071576356879
leaf_count=31 25 18 13 14 276 50 170 37 177 43
internal_value=-0.0172381 0.0104138 0.0223255 0.028347 0.0329821 0.017123 0.027343 0.00999513 -0.0424423 0.0473922
internal_weight=85.6289 47.1712 41.9709 38.8594 36.5695 18.4513 16.0505 6.86601 38.4577 18.1182
internal_count=854 646 621 603 589 270 257 87 208 319
cat_boundaries=0 1
cat_threshold=409601
is_linear=0
shrinkage=0.05


Tree=23
num_leaves=15
num_cat=1
split_feature=10 2 0 3 5 0 0 3 6 6 6 4 3 7
split_gain=19.4492 13.2391 8.87971 10.8448 8.29093 2.40686 5.37348 5.61024 3.6252 3.18664 1.26122 0.402267 0.391426 0.0174177
threshold=1.0000000180025095e-35 0 25.500000000000004 5.5000000000000009 1.5000000000000002 15.500000000000002 21.500000000000004 1.0000000180025095e-35 0.89799332500000006 0.82406125000000008 0.50925925000000005 7.5000000000000009 3.5000000000000004 0.87500000000000011
decision_type=2 9 2 2 2 2 2 2 2 2 2 2 2 2
left_child=1 4 5 11 -1 12 7 -7 9 -9 -6 13 -3 -4
right_child=-2 2 3 -5 10 6 -8 8 -10 -11 -12 -13 -14 -15
leaf_value=-0.037355527806777533 0.055549129721197056 -0.045950678304856593 0.041412328093610548 -0.061878359325559164 0.0065498555994760402 -0.060502834712030711 -0.068524205040000272 -0.0072818198077871047 -0.031258033345461754 0.049511622385101095 0.056153663573680616 0.010640382545923765 -0.070639833754172696 0.01774585661798583
leaf_weight=2.9366872385144225 6.7998255193233481 14.765209667384626 2.6936922892928106 4.2728375494480124 1.820322174578904 4.46166609972716 7.108456388115882 5.0119619853794557 4.8518116474151602 3.4850683696568012 8.2551141642034036 4.37879728525877 12.110063232481478 2.7721966989338398
leaf_count=20 119 83 65 21 31 21 33 47 33 35 168 64 59 52
internal_value=-0.020363 -0.0275166 -0.0336796 -0.00325032 0.0162886 -0.0481344 -0.0343649 -0.0178133 -0.000322753 0.0187727 0.0485923 0.0255552 -0.0592107 0.0340101
internal_weight=85.7237 78.9239 65.9118 14.1175 13.0121 51.7942 24.919 17.8105 13.3488 8.49703 10.0754 9.84469 26.8753 5.46589
internal_count=851 732 513 202 219 311 169 136 115 82 199 181 142 117
cat_boundaries=0 1
cat_threshold=98560
is_linear=0
shrinkage=0.05


Tree=24
num_leaves=13
num_cat=1
split_feature=2 0 13 6 0 6 8 4 7 6 4 0
split_gain=17.7948 17.6067 8.94906 7.77235 8.15572 2.93428 3.15705 1.49807 1.41874 1.1864 0.290631 0.0921855
threshold=0 25.500000000000004 1.0000000180025095e-35 0.15692308000000002 11.500000000000002 0.93933825000000015 0.15122928000000005 2.5000000000000004 1.0000000180025095e-35 0.89799332500000006 42.500000000000007 27.500000000000004
decision_type=9 2 2 2 2 2 2 2 2 2 2 2
left_child=3 8 -3 -1 -5 6 9 -4 -2 10 -6 -9
right_child=1 2 7 4 5 -7 -8 11 -10 -11 -12 -13
leaf_value=-0.057968954261865435 -0.061403423773837208 -0.0628543514911305 -0.0042714523892589257 -0.048494402607184538 0.060624966493412105 -0.0099154886811192167 -0.0048008179259118036 0.035803353950705309 -0.028068755602162383 0.01896234507919501 0.02088269142533903 0.014628203437620182
leaf_weight=2.2524266503751305 35.498168535530567 2.9754047095775613 3.7139783725142488 2.5132472962141064 10.750424131751069 2.8893169350922099 3.0264197997748843 6.7897829152643663 6.2750817425549021 4.0861595831811419 1.9315253347158421 2.7890061028301716
leaf_count=14 194 15 56 13 185 23 33 135 50 51 29 50
internal_value=-0.0222887 -0.0344865 0.00372475 0.0117875 0.0244976 0.0342908 0.0409099 0.0219825 -0.0571693 0.048966 0.0565407 0.0316035
internal_weight=85.4909 58.0414 16.2682 27.4495 25.1971 22.6838 19.7945 13.2928 41.7733 16.7681 12.6819 9.57879
internal_count=848 500 256 348 334 321 298 241 244 265 214 185
cat_boundaries=0 1
cat_threshold=120064
is_linear=0
shrinkage=0.05


Tree=25
num_leaves=13
num_cat=0
split_feature=0 3 3 13 0 0 5 4 8 6 0 5
split_gain=20.9387 11.9085 6.38411 4.16955 7.33051 2.58997 4.6249 1.99869 2.12005 0.311575 0.210857 0.17084
threshold=15.500000000000002 1.0000000180025095e-35 8.5000000000000018 1.0000000180025095e-35 21.500000000000004 25.500000000000004 2.5000000000000004 12.500000000000002 0.12390351000000001 0.79583335000000011 12.500000000000002 3.5000000000000004
decision_type=2 2 2 2 2 2 2 2 2 2 2 2
left_child=9 -2 3 4 7 6 -5 -3 11 -1 -11 -9
right_child=1 2 -4 5 -6 -7 -8 8 -10 10 -12 -13
leaf_value=-0.031021585984789313 -0.058001624739730043 -0.0092757337053559329 -0.040865628285636474 -0.016468832717236811 -0.062113904417680769 0.045050639440769556 0.04357913141057624 0.053120547202089557 -0.0055049178042378185 -0.061756253224237626 -0.03818581350999746 0.019540206883793983
leaf_weight=6.7464085519313839 6.2380526512861243 5.029893163591626 4.3364792168140402 6.2455280348658579 2.9614429026842108 12.753111880272625 4.8572460971772671 3.2205907404422742 2.9122582003474236 14.254338011145594 9.1227688044309598 2.3630021251738071
leaf_count=44 32 53 26 59 15 272 94 52 27 76 54 31
internal_value=-0.0180995 0.00161799 0.0110295 0.0174612 -0.00192227 0.0303958 0.0112312 0.0146254 0.0282626 -0.0504089 -0.0545018 0.0440358
internal_weight=81.0411 50.9176 44.6796 40.3431 16.4872 23.8559 11.1028 13.5257 8.49585 30.1235 23.3771 5.58359
internal_count=835 661 629 603 178 425 153 163 110 174 130 83
is_linear=0
shrinkage=0.05


Tree=26
num_leaves=13
num_cat=1
split_feature=10 2 5 13 3 5 3 4 3 6 8 4
split_gain=18.1203 10.5463 9.47961 6.9714 3.81038 3.73236 3.4593 1.49485 0.570274 0.986808 0.152626 0.141755
threshold=1.0000000180025095e-35 0 1.5000000000000002 1.0000000180025095e-35 1.0000000180025095e-35 5.5000000000000009 4.5000000000000009 8.5000000000000018 1.5000000000000002 0.95916665000000012 0.15122928000000005 5.5000000000000009
decision_type=2 9 2 2 2 2 2 2 2 2 2 2
left_child=1 2 -1 -3 -5 6 7 8 9 -6 -4 -10
right_child=-2 3 10 4 5 -7 -8 -9 11 -11 -12 -13
leaf_value=-0.044460318016946956 0.054626471416248004 -0.049832320464176662 0.054638402767602096 -0.053890898566439221 -0.023077050922691945 0.045044660221291312 -0.044370525156392636 -0.028132508095296785 0.029055966990343969 0.013860616592569062 0.01586707374523182 0.0068114493784439583
leaf_weight=2.6717859506607047 6.5639884807169429 39.160239104181528 7.5094557758420688 3.9343444705009487 1.9322740323841623 2.2672594264149657 4.9383473247289649 2.2137089855968943 2.4256090670824051 3.7170455232262611 1.3251013234257696 1.8986798226833341
leaf_count=17 123 231 170 20 25 43 37 17 49 62 22 26
internal_value=-0.0196811 -0.0269134 0.0150441 -0.0320725 -0.0146194 -0.00440021 -0.0130702 0.00201571 0.0106612 -0.000343957 0.0510278 0.0224027
internal_weight=80.5578 73.9939 11.5063 62.4875 23.3273 19.3929 17.1257 12.1873 9.97361 5.64932 8.83456 4.32429
internal_count=842 719 209 510 279 259 216 179 162 87 192 75
cat_boundaries=0 1
cat_threshold=98560
is_linear=0
shrinkage=0.05


Tree=27
num_leaves=13
num_cat=2
split_feature=10 0 2 1 4 0 4 6 6 5 4 6
split_gain=16.0605 10.1229 11.0138 7.74877 3.87494 1.82028 1.23387 0.700865 0.459997 1.40919 1.22253 0.248713
threshold=1.0000000180025095e-35 12.500000000000002 0 1 13.500000000000002 17.500000000000004 42.500000000000007 0.89564425000000003 0.24264706000000003 1.5000000000000002 3.5000000000000004 0.83503400000000017
decision_type=2 2 9 9 2 2 2 2 2 2 2 2
left_child=1 -1 7 5 -5 -4 -6 11 -7 10 -10 -3
right_child=-2 2 3 4 6 8 -8 -9 9 -11 -12 -13
leaf_value=-0.058162106344887603 0.053877242684267371 -0.040153765810535119 -0.0025045220411204381 -0.050706281173194548 0.016987381260032075 0.016474189351048493 -0.020358135719903119 -0.057301195428256818 0.041608077913594499 0.057744770618774879 -3.1169144046156926e-05 -0.018256329311726226
leaf_weight=16.517190687358379 6.1706890873610964 6.2163976505398768 2.9531132727861431 6.8855922445654851 3.973905872553587 3.6623025387525585 2.9830980524420738 11.64739567786455 2.4856616444885713 7.3987364545464516 3.5632712841033936 5.1873724162578583
leaf_count=92 117 37 23 40 60 66 36 64 61 162 54 34
internal_value=-0.0180991 -0.0247863 -0.014271 0.00668814 -0.0159582 0.0224311 0.000427948 -0.03311 0.0390216 0.0435968 0.0205548 -0.0324679
internal_weight=79.6447 73.474 56.9568 33.9057 13.8426 20.0631 6.957 23.0512 17.11 13.4477 6.04893 11.4038
internal_count=846 729 637 502 136 366 96 135 343 277 115 71
cat_boundaries=0 1 2
cat_threshold=398337 3584
is_linear=0
shrinkage=0.05


Tree=28
num_leaves=11
num_cat=2
split_feature=2 0 4 1 3 6 6 6 0 6
split_gain=17.5835 11.7266 6.87598 5.83637 4.20861 1.71036 1.28787 1.0207 0.521819 0.0607382
threshold=0 11.500000000000002 13.500000000000002 1 1.0000000180025095e-35 0.91751700000000003 0.95916665000000012 0.77346037500000009 26.500000000000004 0.23303167500000002
decision_type=9 2 2 9 2 2 2 2 2 2
left_child=7 -2 3 8 -4 9 -5 -1 -3 -6
right_child=1 2 4 6 5 -7 -8 -9 -10 -11
leaf_value=-0.02347100890226728 -0.056815966999724313 0.015125615367247366 -0.024664760965779613 -0.044311248588574041 0.023173321072434569 0.00043370621593249726 -0.0091661167265075956 -0.052226772561121307 0.044068900274546213 0.057206280122859367
leaf_weight=6.1879795528948298 5.0856339633464804 3.9172491542994976 1.6148370653390909 7.1033273413777351 2.0912173911929122 1.6785277947783459 4.7835893034934998 28.729872412979603 6.1452974043786526 11.678548399358986
leaf_count=49 27 50 10 57 49 22 37 169 147 236
internal_value=-0.0169515 0.00662476 0.0177638 -0.00099435 0.0406128 0.048521 -0.0180051 -0.0374888 0.0184812 0.0539566
internal_weight=79.0161 44.0982 39.0126 21.9495 17.0631 15.4483 11.8869 34.9179 10.0625 13.7698
internal_count=853 635 608 291 317 307 94 218 197 285
cat_boundaries=0 1 2
cat_threshold=397313 1024
is_linear=0
shrinkage=0.05


Tree=29
num_leaves=14
num_cat=0
split_feature=10 0 3 3 13 0 5 0 5 8 6 8 0
split_gain=14.7404 10.4875 8.03732 7.42927 3.4614 4.8272 3.47778 4.51302 1.68284 2.13919 0.901053 0.310587 0.0681817
threshold=1.0000000180025095e-35 15.500000000000002 1.0000000180025095e-35 7.5000000000000009 1.0000000180025095e-35 21.500000000000004 2.5000000000000004 26.500000000000004 2.5000000000000004 0.11834734000000001 0.92153845000000012 0.15663661000000004 12.500000000000002
decision_type=2 2 2 2 2 2 2 2 2 2 2 2 2
left_child=1 12 -3 4 5 8 7 10 -4 -10 -6 -8 -1
right_child=-2 2 3 -5 6 -7 11 -9 9 -11 -12 -13 -14
leaf_value=-0.056230215958803315 0.052270890761856037 -0.060869813598731962 -0.017993008171672667 -0.057038896186778744 -0.035442487170817695 -0.059340983324370683 0.051114033898189741 0.032473976771526254 0.043740816482198838 -0.0096794665582031481 -0.0039806220324506867 0.011257593645816811 -0.037654763657559001
leaf_weight=16.437470160424713 5.5020558871328822 5.9374821856617919 4.0100587829947454 4.4020870923995963 3.4923287555575389 3.1233723461627951 5.178774017840623 6.626771703362464 3.0737576317042112 2.9187620170414448 5.2022557780146599 1.2625773660838602 12.082835830748079
leaf_count=97 110 31 35 23 29 17 125 154 57 29 48 24 77
internal_value=-0.0206005 -0.0266637 -0.011247 -0.00242352 0.00586491 -0.0137742 0.0177948 0.00390675 0.00455456 0.0200583 -0.0189702 0.0458644 -0.0499027
internal_weight=79.2506 73.7485 45.2282 39.2907 34.8887 13.126 21.7627 15.3214 10.0026 5.99252 8.69458 6.44135 28.5203
internal_count=856 746 572 541 518 138 380 231 121 86 77 149 174
is_linear=0
shrinkage=0.05


Tree=30
num_leaves=9
num_cat=1
split_feature=10 0 2 3 8 8 6 7
split_gain=14.5423 7.8528 10.0395 8.021 7.21758 2.60481 1.49626 0.471116
threshold=1.0000000180025095e-35 25.500000000000004 0 8.5000000000000018 0.060661765000000006 0.13100686500000003 0.89087301500000005 0.017725297500000004
decision_type=2 2 9 2 2 2 2 2
left_child=1 2 -1 7 -4 6 -6 -3
right_child=-2 3 4 -5 5 -7 -8 -9
leaf_value=-0.04206046425053981 0.051973766077343733 0.036503416655989725 -0.034558508256149117 -0.05316134189377672 0.057263636278621702 -0.0056351022231281222 0.013822310761361917 0.0097363241835638735
leaf_weight=37.882487330585718 5.8232614863663903 7.2069547493010742 5.8914349265396622 2.9291653782129279 5.1500501316040737 3.8804079722613087 4.1380539294332266 3.215734900906682
leaf_count=244 123 167 41 15 96 45 55 67
internal_value=-0.0183111 -0.0247809 -0.032765 0.00917985 0.00524068 0.0279276 0.0411343 0.0298203
internal_weight=76.1176 70.2943 56.9424 13.3519 19.0599 13.1685 9.2881 10.4227
internal_count=853 730 481 249 237 196 151 234
cat_boundaries=0 1
cat_threshold=135173
is_linear=0
shrinkage=0.05


Tree=31
num_leaves=13
num_cat=2
split_feature=2 1 8 0 6 3 3 5 4 6 6 6
split_gain=14.83 11.5191 6.76763 3.87566 3.48503 2.0914 2.3323 1.80184 1.61248 0.706422 0.271046 0.227239
threshold=0 1 0.084039550500000018 17.500000000000004 0.23303167500000002 4.5000000000000009 2.5000000000000004 7.5000000000000009 2.5000000000000004 0.86811595000000008 0.95119048000000006 0.95916665000000012
decision_type=9 9 2 2 2 2 2 2 2 2 2 2
left_child=-1 3 10 -2 8 6 7 9 -5 -4 -3 -6
right_child=1 2 5 4 11 -7 -8 -9 -10 -11 -12 -13
leaf_value=-0.042098174294969863 -0.0061388209874111569 -0.058588727807479569 0.027432818661302868 0.026154180300205998 0.059518940202794073 -0.025933396202615446 0.043945087887820866 -0.029612141417188514 -0.018854228180271049 -0.0058652661298473586 -0.030289943933962362 0.031572565950741698
leaf_weight=21.504467450082302 5.8101469725370434 7.0785995349288005 2.7679653186351043 3.2720020376145866 8.9124454557895643 4.5420335344970217 2.7422147057950497 2.9182907119393349 2.7757188286632299 2.2490316517651081 5.6731036603450775 5.5047747157514086
leaf_count=129 45 46 38 61 189 39 56 26 54 26 38 118
internal_value=-0.0164262 0.00164994 -0.0176139 0.0213034 0.0389423 -0.000677658 0.0113665 -0.00354991 0.00575256 0.0140119 -0.049117 0.0515885
internal_weight=75.7508 54.2463 27.9712 26.2751 20.4649 15.2195 10.6775 7.93529 6.04772 5.017 12.7517 14.4172
internal_count=865 736 269 467 422 185 146 90 115 64 84 307
cat_boundaries=0 1 2
cat_threshold=1 3200
is_linear=0
shrinkage=0.05


Tree=32
num_leaves=12
num_cat=2
split_feature=2 1 8 5 0 4 6 0 3 4 6
split_gain=11.5152 10.8632 5.90721 4.30043 4.08813 3.50663 3.46006 5.36695 0.600208 0.397063 0.159047
threshold=0 1 0.084039550500000018 7.5000000000000009 17.500000000000004 13.500000000000002 0.23303167500000002 25.500000000000004 4.5000000000000009 86.500000000000014 0.95916665000000012
decision_type=9 9 2 2 2 2 2 2 2 2 2
left_child=-1 4 -3 5 -2 -4 7 -6 -7 -5 -8
right_child=1 2 3 9 6 8 10 -9 -10 -11 -12
leaf_value=-0.040258668575016948 -0.0089459038330233533 -0.047817617443925764 -0.02711476970628415 -0.042159066352835839 -0.035160293702025357 0.041562483049735845 0.055927668792042633 0.043357575446520281 0.0062687812232036615 -0.012489193201268314 0.029515446183739642
leaf_weight=20.341894969344139 6.3235376849770573 13.508344125002624 2.4774888753891009 3.6478587426245204 3.3312440291047123 5.1868113167583942 8.8980482425540668 3.3884753119200468 1.9951327145099638 3.0375830493867397 5.1208691094070664
leaf_count=125 49 91 15 32 34 89 189 91 20 38 111
internal_value=-0.0167855 -0.00076273 -0.0185666 -0.00373319 0.0185671 0.0170388 0.035523 0.00492062 0.0337224 -0.0320574 0.0488873
internal_weight=77.2573 56.9154 29.8532 16.3449 27.0622 9.65943 20.7386 6.71972 7.18194 6.68544 14.0189
internal_count=884 759 285 194 474 124 425 125 109 70 300
cat_boundaries=0 1 2
cat_threshold=1 3200
is_linear=0
shrinkage=0.05


Tree=33
num_leaves=14
num_cat=2
split_feature=2 0 10 2 8 8 0 8 8 0 6 4 4
split_gain=13.3843 7.66719 5.01211 2.96755 4.34129 3.63968 1.99318 1.19818 1.89633 1.13181 1.36741 0.130786 0.0503913
threshold=0 10.500000000000002 1.0000000180025095e-35 1 0.060661765000000006 0.13100686500000003 25.500000000000004 0.084039550500000018 0.14661705500000002 26.500000000000004 0.95916665000000012 37.500000000000007 5.5000000000000009
decision_type=9 2 2 9 2 2 2 2 2 2 2 2 2
left_child=-1 -2 3 4 -3 11 7 -5 -9 -8 -11 -6 -12
right_child=1 2 -4 6 5 -7 9 8 -10 10 12 -13 -14
leaf_value=-0.040660337133602592 -0.053620839579827287 -0.020031524331918699 0.050398263772018281 -0.033672910341103243 0.059049023969833331 -0.0025153974384962063 0.027928583813727832 0.0096557838818516848 -0.032131196347903387 -0.020932108747714173 0.017602313611986657 0.017828111112921194 0.0042080978345667343
leaf_weight=19.649958580732346 4.6229086667299262 3.7220547124743453 5.1100213136523953 7.6088624969124856 6.6095985025167447 3.8721838369965553 3.0133002307265988 6.1313261948525888 3.4515462070703506 4.55076030269265 2.8484013807028532 1.3356786444783209 1.8372557982802389
leaf_count=123 27 28 113 52 143 58 48 56 24 66 72 28 33
internal_value=-0.0151818 0.00155341 0.00789935 0.00208023 0.0144741 0.0373494 -0.00713336 -0.0200124 -0.00700896 0.00570404 -0.00356657 0.0548871 0.0140142
internal_weight=74.3639 54.7139 50.091 44.981 15.5395 11.8175 29.4415 17.1917 9.58287 12.2497 9.23642 7.94528 4.68566
internal_count=871 748 721 608 257 229 351 132 80 219 171 171 105
cat_boundaries=0 1 2
cat_threshold=1 115008
is_linear=0
shrinkage=0.05


Tree=34
num_leaves=17
num_cat=1
split_feature=0 3 3 2 4 0 4 8 0 6 6 7 3 0 0 4
split_gain=11.3352 7.55438 4.78466 2.95191 2.48191 3.6332 1.91074 1.82698 1.4914 1.27555 1.26966 1.27191 1.33128 0.648864 2.26624 0.392255
threshold=15.500000000000002 1.0000000180025095e-35 7.5000000000000009 0 13.500000000000002 17.500000000000004 9.5000000000000018 0.086335405000000018 12.500000000000002 0.8713813250000001 0.82725466500000011 0.26491229000000005 3.5000000000000004 19.500000000000004 26.500000000000004 2.5000000000000004
decision_type=2 2 2 9 2 2 2 2 2 2 2 2 2 2 2 2
left_child=7 -2 3 9 5 -5 13 -1 -9 -3 11 12 -6 -7 -15 -16
right_child=1 2 -4 4 10 6 -8 8 -10 -11 -12 -13 -14 14 15 -17
leaf_value=-0.055405348324782139 -0.049407302885714981 0.00012585801173218574 -0.036660958266135413 -0.041683324732884414 -0.019198941551323307 0.047056427836171949 -0.015386017400727536 -0.040491541296650363 -0.0066647554288008799 -0.039388200638310486 0.056798617816898482 0.041886042399376627 0.028453988418947612 -0.016066172375514845 0.010481468408972502 0.042970198781275143
leaf_weight=11.553376503288748 5.4753453284502021 3.5783848427236098 4.1675356999039641 1.8842781856656063 2.4746687822043878 2.8634895309805861 2.4497169330716124 6.3852847889065725 6.678145743906498 3.738435372710228 5.9427080489695072 2.7461375016719103 1.5361781306564806 2.7229492813348752 2.2116691321134567 3.4798390883952379
leaf_count=74 35 37 30 10 47 51 29 42 53 23 133 80 37 21 46 104
internal_value=-0.0142426 0.000780407 0.00872732 0.0148924 0.018609 0.0105254 0.0200353 -0.0408224 -0.0249025 -0.010158 0.0406361 0.0209315 0.00108852 0.0283558 0.0176695 0.0337984
internal_weight=69.8881 45.2713 39.796 35.6285 28.3116 15.6119 13.7277 24.6168 13.0634 7.31682 12.6997 6.75698 4.01085 11.2779 8.41446 5.69151
internal_count=852 683 648 618 558 261 251 169 95 60 297 164 84 222 171 150
cat_boundaries=0 1
cat_threshold=5121
is_linear=0
shrinkage=0.05


Tree=35
num_leaves=12
num_cat=1
split_feature=10 0 3 2 3 0 0 6 7 6 6
split_gain=11.7883 6.54005 7.1528 6.00095 5.68776 1.13139 1.98034 0.843966 0.386833 0.345071 0.159241
threshold=1.0000000180025095e-35 25.500000000000004 8.5000000000000018 0 2.5000000000000004 15.500000000000002 18.500000000000004 0.43274854000000001 0.017725297500000004 0.91485510000000014 0.85791923500000011
decision_type=2 2 2 9 2 2 2 2 2 2 2
left_child=1 3 8 4 -1 -5 10 -6 -3 -8 -7
right_child=-2 2 -4 5 7 6 9 -9 -10 -11 -12
leaf_value=-0.022431165441553221 0.049951499482308037 0.031714093908815931 -0.050200384663405241 -0.054659171693340128 0.0050561058943059721 -0.0019197649498904424 -0.030295368081097326 0.051935669680637821 0.0075035627461389103 -0.058325482489905336 -0.016607577219611255
leaf_weight=5.1961987167596799 4.8158534541726103 7.4239074960350973 3.2243600636720648 21.365862343460321 1.4302970282733438 3.4090096876025227 7.4500598609447461 4.7696342021226883 2.9987274371087551 4.972683310508728 3.9535676166415215
leaf_count=53 112 180 19 139 30 35 53 102 63 28 33
internal_value=-0.0190116 -0.0246976 0.00580985 -0.0325812 0.0077223 -0.0367698 -0.0334413 0.0433251 0.0260151 -0.0450249 -0.0108496
internal_weight=71.0102 66.1943 13.647 52.5473 11.3961 41.1512 19.7853 6.19993 10.4226 12.4227 7.36258
internal_count=847 735 262 473 185 288 149 132 243 81 68
cat_boundaries=0 1
cat_threshold=360512
is_linear=0
shrinkage=0.05


Tree=36
num_leaves=14
num_cat=1
split_feature=10 2 5 13 0 3 3 3 0 0 6 6 6
split_gain=10.213 6.65114 5.57334 4.36376 4.45156 3.28533 1.48428 0.74778 0.733081 2.38288 1.99934 1.936 0.0211191
threshold=1.0000000180025095e-35 0 1.5000000000000002 1.0000000180025095e-35 25.500000000000004 5.5000000000000009 1.5000000000000002 1.5000000000000002 12.500000000000002 21.500000000000004 0.83503400000000017 0.90550595000000011 0.50925925000000005
decision_type=2 9 2 2 2 2 2 2 2 2 2 2 2
left_child=1 2 -1 8 6 7 -5 -6 -3 10 -10 -12 -4
right_child=-2 3 12 4 5 -7 -8 -9 9 -11 11 -13 -14
leaf_value=-0.033187949423610301 0.049352734567629827 -0.051681871957016394 0.015913866471219985 -0.045235701568145624 0.008137681452438995 -0.037928340756122683 -0.0092068907495809968 0.040076685860123952 -0.040012853921056205 -0.057705563814566686 0.01035984528000356 -0.03035652580425123 0.052169703728303374
leaf_weight=2.0065736621618253 4.826172810047864 11.308083280920981 1.1790755316615102 6.0068221911788005 3.8027050103992206 1.508853219449519 5.9109605737030506 4.2168895620852709 6.2837147042155328 5.5774131268262854 6.8312066309154016 3.6949813663959503 5.831902178004384
leaf_count=14 117 80 25 39 82 9 52 107 38 37 58 27 161
internal_value=-0.0145349 -0.0200243 0.0145529 -0.0241312 -0.0101391 0.0145322 -0.0294623 0.0275133 -0.0394431 -0.0313156 -0.0198112 -0.00532641 0.04882
internal_weight=68.9854 64.1592 9.01755 55.1416 21.4462 9.52845 11.9178 8.01959 33.6954 22.3873 16.8099 10.5262 7.01098
internal_count=846 729 200 529 289 198 91 189 240 160 123 85 186
cat_boundaries=0 1
cat_threshold=98560
is_linear=0
shrinkage=0.05


Tree=37
num_leaves=14
num_cat=1
split_feature=10 2 8 13 8 3 3 6 6 3 7 8 4
split_gain=9.1599 5.55036 7.1263 5.88506 2.32576 1.34754 2.04199 1.21684 1.03114 1.22962 0.40628 0.402567 0.296405
threshold=1.0000000180025095e-35 0 0.057189543000000002 1.0000000180025095e-35 0.14661705500000002 1.0000000180025095e-35 4.5000000000000009 0.91485510000000014 0.92153845000000012 1.5000000000000002 0.42481203000000006 0.13100686500000003 4.5000000000000009
decision_type=2 9 2 2 2 2 2 2 2 2 2 2 2
left_child=1 3 -3 -1 7 -5 8 11 9 -7 -11 -4 -10
right_child=-2 2 4 5 -6 6 -8 -9 12 10 -12 -13 -14
leaf_value=-0.04733143786702524 0.047798872952173804 -0.037846550210211514 0.049941218215896171 -0.038350196802142765 -0.015445026372516713 -0.027655907396971786 -0.02883447083537154 -0.00097937003519335823 0.035180290844564192 -0.0042341431731237082 0.023550566632312794 0.014160474507621907 0.0088801191372893402
leaf_weight=27.715425372123718 4.2095534428954116 4.7318642400205162 6.9471171125769597 2.5906561613082912 1.9430749379098404 2.5334779061377066 4.662158738821744 1.7029562518000592 1.759455621242523 1.960991146042943 1.8578381836414337 1.9900148939341304 3.333973890170455
leaf_count=194 107 33 157 17 28 29 45 27 60 33 40 29 51
internal_value=-0.0165988 -0.0215252 0.00615201 -0.0273017 0.0287949 -0.0105773 -0.00413001 0.0375067 0.00744107 -0.0058424 0.0113651 0.0442008 0.0222477
internal_weight=67.9386 63.729 17.315 46.414 12.5832 18.6986 16.1079 10.6401 11.4457 6.35231 3.81883 8.93713 5.09343
internal_count=850 743 274 469 241 275 258 213 213 102 73 186 111
cat_boundaries=0 1
cat_threshold=397317
is_linear=0
shrinkage=0.05


Tree=38
num_leaves=18
num_cat=1
split_feature=10 2 0 3 8 0 0 4 8 3 3 4 3 7 4 3 3
split_gain=9.66956 6.00871 7.56165 4.07495 3.91706 3.09465 1.94026 3.20253 1.59465 1.11014 1.04813 1.09 0.784012 0.742724 0.492977 0.061429 0.0386474
threshold=1.0000000180025095e-35 0 25.500000000000004 5.5000000000000009 0.060661765000000006 16.500000000000004 15.500000000000002 13.500000000000002 0.13100686500000003 5.5000000000000009 3.5000000000000004 23.500000000000004 2.5000000000000004 0.017725297500000004 7.5000000000000009 2.5000000000000004 1.5000000000000002
decision_type=2 9 2 2 2 2 2 2 2 2 2 2 2 2 2 2 2
left_child=1 2 6 12 -3 -6 15 -8 9 16 11 -9 13 14 -4 -1 -7
right_child=-2 4 3 -5 5 8 7 10 -10 -11 -12 -13 -14 -15 -16 -17 -18
leaf_value=-0.035584657892744155 0.048788918107350608 -0.027359959626835923 0.03436683858782074 -0.045663803740712133 0.069408606115497845 0.012695635570758755 -0.047283288227668419 0.0037702023493944854 -0.012908705019040373 -0.0080004684102716432 0.014427643443307268 -0.031826306167932562 0.041535213883950324 -0.012505301125083577 0.0011902039511219676 -0.057726320633884977 0.043296499352743573
leaf_weight=8.1244082823395747 4.6739258859306565 3.230424426496028 1.7340129055082782 1.8048123344779003 2.4746286794543257 1.2440951373428091 8.374645762145521 3.5416117385029775 3.3872666284441948 1.3573317304253576 3.2490489408373833 3.8172140158712864 2.720828752964735 1.8301805332303045 2.0224429965019226 11.965383294969795 2.7014226727187634
leaf_count=60 118 25 62 10 29 29 54 34 49 22 32 30 77 33 25 80 95
internal_value=-0.0142541 -0.0195723 -0.0249674 0.00797599 0.00939864 0.0291354 -0.0397103 -0.0259302 0.0116877 0.0269543 -0.00645145 -0.0162931 0.0232834 0.00943796 0.0205104 -0.050884 0.0381656
internal_weight=68.2537 63.5798 49.1846 10.1123 14.3952 11.1647 39.0723 18.9825 8.69012 5.30285 10.6079 7.35883 8.30747 5.58664 3.75646 20.0898 3.94552
internal_count=864 746 497 207 249 224 290 150 195 146 96 64 197 120 87 140 124
cat_boundaries=0 1
cat_threshold=152581
is_linear=0
shrinkage=0.05


Tree=39
num_leaves=15
num_cat=2
split_feature=2 1 5 5 6 6 4 12 0 6 3 6 4 6
split_gain=9.00816 10.1923 5.7197 2.64373 2.27251 1.54542 4.32473 3.94741 2.46919 1.08857 0.459693 0.202036 0.174007 0.127629
threshold=0 1 2.5000000000000004 7.5000000000000009 0.88730160000000013 0.23303167500000002 2.5000000000000004 1.0000000180025095e-35 13.500000000000002 0.82247900000000007 2.5000000000000004 0.93933825000000015 3.5000000000000004 0.95119048000000006
decision_type=9 9 2 2 2 2 2 2 2 2 2 2 2 2
left_child=-1 5 13 4 9 6 -2 -8 -7 -4 -5 -10 -13 -3
right_child=1 2 3 10 -6 8 7 -9 11 -11 -12 12 -14 -15
leaf_value=-0.034618914066509944 0.046442239180275291 -0.05296008912801381 0.010764386808873184 -0.035446510354930863 -0.020378380501226007 -0.0036045848396129409 0.021919537475826506 -0.063730664383767649 0.053180629061621965 0.054067147020974572 -0.0062486556703618872 0.038180115683860122 0.013297370429727298 -0.028058444647325098
leaf_weight=16.337961494922638 2.8253643438220051 7.3915218859910983 3.8432802539318782 2.7969014830887309 2.14209202863276 2.8490880057215717 1.8326922059059143 1.8388218097388744 8.6359309256076795 2.2062928397208452 2.8976753577589989 2.0181183461099854 3.1990365646779537 5.3201523199677467
leaf_count=122 61 50 57 24 20 26 53 10 198 42 43 65 55 39
internal_value=-0.01247 0.00179674 -0.0164699 0.000169093 0.0175658 0.0213008 0.00784724 -0.0254369 0.0378281 0.0319863 -0.0237419 0.0460183 0.0275155 -0.0453445
internal_weight=66.1349 49.797 26.5979 13.8862 8.19167 23.1991 6.49688 3.67151 16.7022 6.04957 5.69458 13.8531 5.21715 12.7117
internal_count=865 743 275 186 119 468 124 63 344 99 67 318 120 89
cat_boundaries=0 1 2
cat_threshold=1 3200
is_linear=0
shrinkage=0.05


Tree=40
num_leaves=11
num_cat=2
split_feature=2 1 8 0 6 0 13 4 3 6
split_gain=8.07067 7.27106 4.4017 4.06827 4.18853 3.8938 2.26131 2.08831 1.5296 0.784267
threshold=0 1 0.084039550500000018 17.500000000000004 0.23303167500000002 25.500000000000004 1.0000000180025095e-35 29.500000000000004 1.5000000000000002 0.95119048000000006
decision_type=9 9 2 2 2 2 2 2 2 2
left_child=-1 3 9 -2 5 -5 7 -4 -8 -3
right_child=1 2 6 4 -6 -7 8 -9 -10 -11
leaf_value=-0.034048674063869105 -0.011308765584613713 -0.052246668366410336 0.0063192046196348028 -0.031167842589778217 0.051957548590900654 0.039600360836885271 -0.0056316900263274419 -0.037962549585751224 0.044313439425315765 -0.021147236410965223
leaf_weight=15.829929530620575 5.4869181253016022 6.5042167231440562 5.2673451863229257 3.319106042385104 11.826967924833296 2.5346273239701986 2.2795560136437407 3.9310966059565544 2.6858208049088717 5.8529614843428135
leaf_count=120 44 48 52 33 309 81 34 26 68 45
internal_value=-0.0128504 0.000967762 -0.0143845 0.0175152 0.0359629 0.00078137 -0.000180061 -0.0144721 0.0242838 -0.0402025
internal_weight=65.5185 49.6886 26.521 23.1676 17.6807 5.85373 14.1638 9.19844 4.96538 12.3572
internal_count=860 740 273 467 423 114 180 78 102 93
cat_boundaries=0 1 2
cat_threshold=1 3200
is_linear=0
shrinkage=0.05


Tree=41
num_leaves=15
num_cat=1
split_feature=10 9 0 3 2 8 8 0 6 3 6 0 8 4
split_gain=8.56542 5.04794 4.88143 5.26298 3.11925 6.14668 4.57281 1.41392 0.890721 0.413102 0.644235 0.271021 0.0798891 0.0349639
threshold=1.0000000180025095e-35 1.0000000180025095e-35 25.500000000000004 5.5000000000000009 0 0.051315790000000007 0.14661705500000002 19.500000000000004 0.89087301500000005 2.5000000000000004 0.81194060000000012 26.500000000000004 0.12933094000000003 9.5000000000000018
decision_type=2 2 2 2 9 2 2 2 2 2 2 2 2 2
left_child=1 2 4 9 -1 -6 7 8 12 10 -4 -12 -7 -13
right_child=-2 -3 3 -5 5 6 -8 -9 -10 -11 11 13 -14 -15
leaf_value=-0.036442963962698263 0.047592573518900186 0.038290991807376301 -0.0065614086559458648 -0.043917451988295463 -0.040322725169630542 0.062570937816458505 -0.030083696871312716 0.00043871994365025772 0.013561803672043689 0.040324071750031547 0.0029691210914655651 0.035278721702603336 0.022975940439091389 0.0085275180447676128
leaf_weight=25.173523359000686 4.3258430641144505 2.7721378933638325 2.0747503694146854 2.8605342879891387 6.1026293821632853 2.8891891678795201 3.1875283643603316 2.8114568069577217 3.0160983074456453 2.5035643596202135 1.4358999729156492 1.8912956919521096 1.9431155733764169 0.97164353914558876
leaf_count=191 117 64 42 22 43 59 26 22 52 79 15 72 22 25
internal_value=-0.0136704 -0.0188261 -0.0222244 0.00609258 -0.0295627 -0.00146252 0.0162407 0.0314848 0.0412997 0.0250224 0.0143583 0.0237876 0.0533187 0.0307575
internal_weight=63.9592 59.6334 56.8612 11.7377 45.1235 19.95 13.8474 10.6599 7.8484 8.87715 6.37359 4.29884 4.8323 2.86294
internal_count=851 734 670 255 415 224 181 155 133 233 154 112 81 97
cat_boundaries=0 1
cat_threshold=131077
is_linear=0
shrinkage=0.05


Tree=42
num_leaves=16
num_cat=2
split_feature=2 1 0 3 6 0 0 6 3 8 8 6 4 4 8
split_gain=8.36689 8.40082 5.13466 4.00123 2.98783 1.86019 1.55414 1.31634 0.961018 0.660098 0.917409 0.290902 0.133092 0.211468 0.00625784
threshold=0 1 10.500000000000002 9.5000000000000018 1.0000000180025095e-35 20.500000000000004 25.500000000000004 0.88730160000000013 3.5000000000000004 0.15663661000000004 0.060661765000000006 0.89799332500000006 3.5000000000000004 7.5000000000000009 0.18146028000000003
decision_type=9 9 2 2 2 2 2 2 2 2 2 2 2 2 2
left_child=-1 2 -2 4 5 -4 7 -3 -8 10 12 -12 -6 -14 -11
right_child=1 6 3 -5 9 -7 8 -9 -10 14 11 -13 13 -15 -16
leaf_value=-0.034186018483480594 -0.041921013603775294 -0.019413196458721308 -0.028981204690147935 -0.029867929503266513 0.034623075387489814 0.024852830509084729 0.011561839240993833 -0.056497628457998911 -0.025860113446624328 0.0028656924395199269 0.058866938267688067 0.023636131133406485 0.0046774050265685433 0.024433075122364159 0.011661027266265335
leaf_weight=16.315490886569023 2.1494809985160854 6.1836926303803939 2.4621993824839654 2.1326710581779471 3.1281449198722893 2.0128766037523746 2.8646030165255061 5.7883177064359188 2.1609826777130365 1.1669195443391793 7.9308211496099812 2.7468587942421436 3.1857020016759634 2.4957368150353432 1.2526051457971332
leaf_count=129 15 59 17 17 86 51 52 36 20 20 178 49 56 39 42
internal_value=-0.0130849 0.00142492 0.0154481 0.0262806 0.0317446 -0.0046502 -0.0200033 -0.0403162 -0.00615068 0.0390578 0.0420852 0.0526039 0.0252731 0.0157137 0.00949764
internal_weight=63.9771 47.6616 30.664 28.5145 26.3819 4.47508 16.9976 11.972 5.02559 21.9068 19.4873 10.6777 8.80958 5.68144 2.41952
internal_count=866 737 570 555 538 68 167 95 72 470 408 227 181 95 62
cat_boundaries=0 1 2
cat_threshold=1 11904
is_linear=0
shrinkage=0.05


Tree=43
num_leaves=14
num_cat=1
split_feature=10 0 2 8 3 8 6 6 8 6 6 6 4
split_gain=7.91052 5.00795 5.69627 5.83199 5.61161 4.6179 0.923715 0.544455 0.445851 0.438394 0.182767 0.159775 0.762485
threshold=1.0000000180025095e-35 25.500000000000004 0 0.060661765000000006 8.5000000000000018 0.13100686500000003 0.89087301500000005 0.78319625000000015 0.098780485000000015 0.74828768000000012 0.82247900000000007 0.89799332500000006 7.5000000000000009
decision_type=2 2 9 2 2 2 2 2 2 2 2 2 2
left_child=1 2 9 -4 11 6 10 -7 -8 -1 -5 -3 -13
right_child=-2 4 3 5 -6 7 8 -9 -10 -11 -12 12 -14
leaf_value=-0.024617831439818407 0.046212183515993668 0.035565435244652471 -0.034829630320809615 0.025550896775237586 -0.04525746221504192 -0.02457825246602912 0.028105476672555387 0.0023138786045014113 -0.001240447236132981 -0.053280152405469343 0.064652803739940951 0.034725752563937 -0.00061218578484812075
leaf_weight=4.1955501250922742 3.9641743926331392 4.1117895357310754 6.6536906771361819 2.7182339951395971 2.6342349648475638 3.4826211016625157 1.9529390335083006 2.9717933181673288 2.1603620741516352 22.226979166269302 2.5009723212569952 1.8429797645658252 3.2231813408434391
leaf_count=35 116 126 49 56 18 40 38 25 25 174 52 76 42
internal_value=-0.0150779 -0.0197666 -0.0267246 0.0009828 0.0088561 0.0178377 0.0387539 -0.013547 0.0154643 -0.0364871 0.0516709 0.0273083 0.0158484
internal_weight=64.6395 60.6753 48.8631 22.4406 11.8122 15.7869 9.33251 6.45441 4.1133 26.4225 5.21921 9.17795 5.06616
internal_count=872 756 494 285 262 236 171 65 63 209 108 244 118
cat_boundaries=0 1
cat_threshold=131077
is_linear=0
shrinkage=0.05


Tree=44
num_leaves=15
num_cat=2
split_feature=10 0 3 3 2 4 1 6 6 3 6 8 8 4
split_gain=7.49817 4.55669 5.32173 3.74141 2.72257 2.29331 2.89087 3.28324 1.49393 0.815542 0.759905 0.671117 2.08295 0.555692
threshold=1.0000000180025095e-35 15.500000000000002 1.0000000180025095e-35 7.5000000000000009 0 13.500000000000002 1 0.95916665000000012 0.82725466500000011 3.5000000000000004 0.74828768000000012 0.086335405000000018 0.120344825 5.5000000000000009
decision_type=2 2 2 2 9 2 9 2 2 2 2 2 2 2
left_child=1 11 -3 4 -4 6 13 -8 9 10 -7 -1 -13 -6
right_child=-2 2 3 -5 5 8 7 -9 -10 -11 -12 12 -14 -15
leaf_value=-0.049143380600286724 0.045661886691140845 -0.050985587999516038 -0.013863785236584212 -0.043357193304462083 0.046995311545469126 0.015091775575316494 -0.052244700987112196 0.0073593292630595762 0.049100164885015937 0.030654662112171351 -0.023804516075053461 0.000775978695142373 -0.042109798275906829 0.0089081468088393744
leaf_weight=9.3414660841226596 3.8153646402060977 5.3576538264751425 5.747357130050661 3.5412873774766913 4.2492038384079933 1.473369931802152 4.2185968495905417 3.7551178783178329 5.2803963469341397 1.4999849544838069 1.6359328366816042 4.5647595562040788 6.3059530630707741 1.8467418216168878
leaf_count=78 114 37 42 24 128 36 33 34 135 38 31 44 43 40
internal_value=-0.0149437 -0.0195727 -0.00907056 -0.00102478 0.00526924 0.0112697 0.00228257 -0.0125252 0.0330207 0.00913068 -0.00618586 -0.0382586 -0.0255531 0.015913
internal_weight=62.6332 58.8178 38.6056 33.248 29.7067 23.9593 14.0697 7.97371 9.88968 4.60929 3.1093 20.2122 10.8707 6.09595
internal_count=857 743 578 541 517 475 235 67 240 105 67 165 87 168
cat_boundaries=0 1 2
cat_threshold=4097 1024
is_linear=0
shrinkage=0.05


Tree=45
num_leaves=13
num_cat=2
split_feature=2 1 0 8 7 13 4 8 0 6 0 4
split_gain=8.06267 8.53683 4.38693 2.64582 2.58815 2.4271 1.39996 0.461997 0.345219 0.270093 0.29522 0.16471
threshold=0 1 11.500000000000002 0.10620301000000001 0.59166665000000018 1.0000000180025095e-35 46.500000000000007 0.060661765000000006 19.500000000000004 0.95916665000000012 18.500000000000004 5.5000000000000009
decision_type=9 9 2 2 2 2 2 2 2 2 2 2
left_child=-1 2 -2 9 6 -5 7 11 -6 10 -3 -4
right_child=1 3 4 5 8 -7 -8 -9 -10 -11 -12 -13
leaf_value=-0.032683826035411138 -0.037154756929902645 -0.023271296856307556 0.03572531658293384 -0.02041186061301227 -0.013621073586911909 0.030347769804506715 0.0015262279582159658 0.055278117593198478 0.010258871299075196 -0.021497244697908233 -0.056534900922488043 0.013272713337223702
leaf_weight=14.039055980741978 1.607866153120997 3.5124935023486632 4.274707358330498 5.1786714009940615 2.0858456119894973 2.8066991418600082 2.076865976676344 8.8906334368512017 1.9980529546737669 5.2045972272753716 3.7569930385798216 3.100308034569025
leaf_count=122 12 30 121 42 16 58 38 229 49 41 33 51
internal_value=-0.0109212 0.00303099 0.0195844 -0.0164632 0.0334246 -0.00117896 0.0410647 0.0457323 -0.00221796 -0.0376522 -0.0452202 0.0289985
internal_weight=58.5328 44.4937 24.0343 20.4595 22.4264 7.98537 18.3425 16.2656 4.0839 12.4741 7.26949 7.37502
internal_count=842 720 516 204 504 100 439 401 65 104 63 172
cat_boundaries=0 1 2
cat_threshold=1 3712
is_linear=0
shrinkage=0.05


Tree=46
num_leaves=15
num_cat=1
split_feature=2 4 4 13 11 6 8 3 3 7 6 6 6 3
split_gain=9.37026 2.32539 3.55393 2.1473 1.8412 3.08791 1.20169 1.00293 1.16203 0.96757 0.154986 0.127047 0.0890557 0.0604986
threshold=0 12.500000000000002 46.500000000000007 1.0000000180025095e-35 1.0000000180025095e-35 0.95916665000000012 0.075498577500000011 4.5000000000000009 1.5000000000000002 0.87500000000000011 0.91042782000000011 0.87339745000000013 0.78655791500000005 6.5000000000000009
decision_type=9 2 2 2 2 2 2 2 2 2 2 2 2 2
left_child=10 4 6 -4 5 -2 -3 8 -7 -6 11 12 -1 -8
right_child=1 2 3 -5 9 7 13 -9 -10 -11 -12 -13 -14 -15
leaf_value=-0.019588989705331961 -0.039345941610046203 0.0013008930711498139 -0.041724707082931439 0.017307252708884301 0.043168495241426602 -0.0030245936476730535 0.048543499293803194 -0.018101247648042766 0.035451537103370408 0.0035662477920722102 -0.047751347721605122 -0.018645612562266916 -0.042215468828248066 0.015375399785917555
leaf_weight=3.7724689617753047 4.7559448536485442 1.8678347524255503 1.9139270819723595 2.4207309521734715 1.8267857041209925 3.6569008864462376 7.8476328076794726 1.9893295746296642 2.9038264732807875 3.8391699008643627 8.2091420441865903 6.097927287220954 5.0915206298232079 1.3578549697995184
leaf_count=32 36 26 13 54 49 71 229 20 62 65 76 55 40 20
internal_value=-0.00909678 0.0085966 0.0248111 -0.0116932 -0.000850517 -0.0109235 0.0388856 0.00735083 0.0164417 0.0208951 -0.0270035 -0.0302589 -0.0355479 0.045637
internal_weight=57.551 34.3799 15.408 4.33466 18.972 13.306 11.0733 8.55006 6.56073 5.66596 23.1711 14.9619 8.86399 9.20549
internal_count=848 645 342 67 303 189 275 153 133 114 203 127 72 249
cat_boundaries=0 1
cat_threshold=409601
is_linear=0
shrinkage=0.05


Tree=47
num_leaves=16
num_cat=0
split_feature=10 13 0 0 3 0 6 0 0 8 3 3 7 6 6
split_gain=6.40351 4.74075 2.72118 2.57696 2.49758 2.07779 2.33563 1.03692 1.84458 1.53569 2.02287 3.46998 0.296374 0.199967 0.136908
threshold=1.0000000180025095e-35 1.0000000180025095e-35 25.500000000000004 19.500000000000004 5.5000000000000009 17.500000000000004 0.24264706000000003 11.500000000000002 21.500000000000004 0.060661765000000006 4.5000000000000009 1.0000000180025095e-35 0.87500000000000011 0.89699380000000006 0.8144870500000001
decision_type=2 2 2 2 2 2 2 2 2 2 2 2 2 2 2
left_child=1 7 3 5 12 -3 -7 -1 9 -9 11 -11 -4 14 -13
right_child=-2 2 4 -5 -6 6 -8 8 -10 10 -12 13 -14 -15 -16
leaf_value=-0.047056169558401639 0.044923951806038954 -0.022706579498943273 0.037495432114914282 -0.049585239168804952 -0.027055678612140834 -0.016801584298911969 0.038643785458291946 -0.037190393428489836 -0.050301766278748432 -0.035504971718780559 -0.028688625601212017 0.0096092196501161974 0.0097409626114475113 0.0062375062109418979 0.032294488009322671
leaf_weight=5.9113980680704143 3.7398043675348154 4.8071503080427664 5.7331596147268993 2.5492740869522086 1.4401826374232767 2.4224312268197536 3.7387428879737854 4.7983207553625169 3.9814190790057173 2.6777198910713222 5.5511021837592116 2.1088749933987838 2.1520870625972748 2.3605787176638842 3.6992235910147429
leaf_count=53 120 43 182 15 12 25 89 38 35 21 50 34 54 31 56
internal_value=-0.0112409 -0.0158825 0.00146436 -0.0125524 0.0210302 -0.000521361 0.0175419 -0.0282768 -0.0222384 -0.0149383 -0.00666331 0.00607925 0.0318694 0.0220964 0.0266789
internal_weight=57.6715 53.9317 22.843 13.5176 9.32543 10.9683 6.16117 31.0886 25.1772 21.1958 16.3975 10.8464 7.88525 8.16868 5.8081
internal_count=858 738 420 172 248 157 114 318 265 230 192 142 236 121 90
is_linear=0
shrinkage=0.05


Tree=48
num_leaves=17
num_cat=1
split_feature=2 13 7 3 5 8 4 8 4 3 3 4 8 4 6 6
split_gain=5.37352 4.27052 3.41342 2.44597 2.1656 1.75175 1.66889 1.62828 1.77736 0.902135 0.991416 0.789303 0.42254 0.0515575 0.0179138 1.08937
threshold=0 1.0000000180025095e-35 0.59166665000000018 1.0000000180025095e-35 4.5000000000000009 0.13904152500000003 8.5000000000000018 0.051315790000000007 6.5000000000000009 4.5000000000000009 1.5000000000000002 42.500000000000007 0.15924673000000003 3.5000000000000004 0.89087301500000005 0.85037315000000013
decision_type=9 2 2 2 2 2 2 2 2 2 2 2 2 2 2 2
left_child=2 14 5 -3 6 7 9 8 -1 10 13 -9 -7 -5 15 -2
right_child=1 3 -4 4 -6 12 -8 11 -10 -11 -12 -13 -14 -15 -16 -17
leaf_value=0.032145407575480948 -0.040405944573808271 -0.040196029806197811 -0.037790618634000135 0.0027184859796887209 0.036875462721839052 -0.016874120715928514 -0.034187911444557829 0.050321785735420094 -0.019989563945670905 -0.017533785423247263 0.032207370384563054 0.004264556760346083 0.0090911228731183954 -0.0061482069561450501 -0.04593391071570075 -0.0073485124985935013
leaf_weight=2.1546500213444286 7.3641649633646029 3.0691688507795361 1.8007595911622036 2.3951014541089517 2.7232149858027688 2.108596956357359 2.8426997661590567 6.4769578073173761 2.4392896108329296 2.488843098282814 2.701725522056222 1.2866845913231371 2.2530884351581335 2.3306173291057348 9.159820366650818 4.2981528155505657
leaf_count=49 56 23 10 61 86 30 22 175 22 27 76 26 30 33 90 43
internal_value=-0.0112827 -0.0189468 0.00982181 -0.0056692 0.00319883 0.0223363 -0.00614663 0.0313427 0.00583803 0.00428739 0.0128123 0.0440462 -0.00426743 -0.00196443 -0.0386569 -0.0297651
internal_weight=57.8935 39.3735 18.52 18.5514 15.4822 16.7193 12.759 12.3576 4.59394 9.91629 7.42744 7.76364 4.36169 4.72572 20.8221 11.6623
internal_count=859 517 342 328 305 332 219 272 71 197 170 201 60 94 189 99
cat_boundaries=0 1
cat_threshold=119040
is_linear=0
shrinkage=0.05


Tree=49
num_leaves=15
num_cat=2
split_feature=2 1 8 8 0 4 4 3 8 0 8 6 3 4
split_gain=6.29927 5.06579 4.61301 3.69342 2.38158 1.612 1.31942 1.29621 0.80566 1.61088 0.51423 0.362852 0.236517 0.129758
threshold=0 1 0.13389356500000002 0.10200668700000001 12.500000000000002 52.500000000000007 22.500000000000004 2.5000000000000004 0.063508065000000016 26.500000000000004 0.16247642500000004 1.0000000180025095e-35 3.5000000000000004 3.5000000000000004
decision_type=9 9 2 2 2 2 2 2 2 2 2 2 2 2
left_child=-1 2 4 12 -2 6 -5 8 9 -6 -4 -9 -3 -11
right_child=1 3 10 5 7 -7 -8 11 -10 13 -12 -13 -14 -15
leaf_value=-0.030283551934665205 -0.017532847247630542 -0.024141515866531474 -0.02889821144271152 -0.007280222495980853 -0.017942365682897535 -0.022469619389181419 0.035230443322161485 0.018048210419694722 0.040072212777735268 0.034586423677982092 0.00058042353162531717 0.056579014741117595 -0.047076138982763471 0.0048500457578793295
leaf_weight=13.611629121005535 1.561739556491381 7.7140625491738337 2.8788312058895817 2.5399295501410943 2.7322631664574173 2.4991073627024889 3.6114916205406189 2.0003899130970222 1.9433572459965942 1.7921407632529738 2.3290263200178742 7.0661422060802579 4.4275475144386292 0.84880169481039036
leaf_count=129 14 71 43 30 27 27 56 36 41 74 54 200 33 24
internal_value=-0.0109495 0.00189575 0.0149906 -0.0128273 0.032839 0.00601727 0.0191142 0.0383732 0.0188201 0.0060521 -0.0177451 0.0507152 -0.0354507 0.0289862
internal_weight=57.5565 43.9448 23.1527 20.7921 17.9448 8.65053 6.15142 16.3831 7.31656 5.37321 5.20786 9.06653 12.1416 2.64094
internal_count=859 730 513 217 416 113 86 402 166 125 97 236 104 98
cat_boundaries=0 1 2
cat_threshold=1 3712
is_linear=0
shrinkage=0.05


Tree=50
num_leaves=15
num_cat=1
split_feature=2 0 3 7 3 0 6 21 4 4 4 4 6 6
split_gain=8.38863 5.37511 5.20247 2.27935 2.5057 0.849317 0.37142 0.322937 0.320709 0.339051 0.136324 0.111204 0.0300952 0.0256161
threshold=0 10.500000000000002 10.500000000000002 0.59166665000000018 1.0000000180025095e-35 27.500000000000004 0.23303167500000002 1.0000000180025095e-35 13.500000000000002 10.500000000000002 42.500000000000007 61.500000000000007 0.89799332500000006 0.91751700000000003
decision_type=9 2 2 2 2 2 2 2 2 2 2 2 2 2
left_child=-1 -2 3 4 -3 -5 -6 8 9 12 13 -12 -8 -10
right_child=1 2 -4 5 6 -7 7 -9 10 -11 11 -13 -14 -15
leaf_value=-0.029699450327286665 -0.044902094418875271 -0.01337913121050447 -0.040017903285583967 -0.025073542869530487 0.0045403078941564099 0.010873278403056873 0.012575325570900867 0.010779701156685931 0.047770165335625808 0.002270174990091094 0.0046619488420671122 0.02608832488769976 0.030572173980728146 0.016483765193418411
leaf_weight=13.205848664045334 3.3421509861946097 3.2142193131148842 3.1141463927924624 2.7440644651651374 1.7257363600656415 2.1505479849874973 2.5237025748938375 2.9207952013239256 7.5659361630678159 1.9801526647061107 1.4323104582726949 1.8541291076689956 4.6864763889461756 1.4887692071497438
leaf_count=128 29 25 25 19 54 55 54 52 175 25 28 42 121 30
internal_value=-0.00689602 0.00657036 0.0139304 0.0198256 0.0249802 -0.0101144 0.030009 0.0315575 0.0337725 0.0220724 0.0401779 0.0200163 0.0265719 0.0447771
internal_weight=53.949 40.7431 37.401 34.2868 29.3922 4.89461 26.178 24.4523 21.5315 9.19033 12.3411 3.28644 7.21018 9.05471
internal_count=862 734 705 680 606 74 581 527 475 200 275 70 175 205
cat_boundaries=0 1
cat_threshold=1
is_linear=0
shrinkage=0.05


Tree=51
num_leaves=16
num_cat=1
split_feature=2 0 13 8 3 7 0 3 3 0 0 6 6 7 6
split_gain=4.6515 3.95304 3.22465 2.66173 1.93748 1.38731 1.25641 1.08538 0.955019 0.445825 2.05381 0.372571 0.361304 0.338587 0.00491947
threshold=0 25.500000000000004 1.0000000180025095e-35 0.060661765000000006 8.5000000000000018 0.2763889000000001 17.500000000000004 1.5000000000000002 1.5000000000000002 17.500000000000004 20.500000000000004 0.8144870500000001 0.73508772500000019 0.48529412000000005 0.90550595000000011
decision_type=9 2 2 2 2 2 2 2 2 2 2 2 2 2 2
left_child=1 5 -3 6 7 9 -2 13 -5 -1 -11 12 -10 -4 -13
right_child=3 2 4 8 -6 -7 -8 -9 11 10 -12 14 -14 -15 -16
leaf_value=-0.043707203615467483 -0.031804488799775092 -0.047011365190645887 0.013837284546349568 0.00095159959281232052 -0.0287375243339981 -0.0030249945919837372 0.0096176160312557435 0.043705524642273758 0.024590153446643934 6.5368543437659065e-05 -0.046204072977570947 0.049916991856030324 -0.004770636197935085 -0.012021910654125362 0.016125175072753652
leaf_weight=16.429598364979036 2.7583860494196442 1.5376028940081576 2.2850470449775457 2.6047006882727128 1.0797842368483541 3.3918150831013909 2.8773095216602087 3.3416930250823498 2.1091168671846394 4.6862036287784559 3.9064672067761421 3.2736168913543224 1.157713735476136 1.1258932240307333 1.3197983019053934
leaf_count=146 21 13 68 47 8 43 51 136 58 49 32 87 26 21 27
internal_value=-0.0133505 -0.0199003 0.00294992 0.00878505 0.0169701 -0.0340453 -0.012394 0.027043 0.0279394 -0.0379723 -0.0235937 0.0357657 0.0155057 0.00451125 0.0448265
internal_weight=53.8847 37.7841 9.37002 16.1006 7.83242 28.4141 5.6357 6.75263 10.4649 25.0223 8.59267 7.86025 3.26683 3.41094 4.59342
internal_count=833 516 246 317 233 270 72 225 245 227 81 198 84 89 114
cat_boundaries=0 1
cat_threshold=397317
is_linear=0
shrinkage=0.05


Tree=52
num_leaves=12
num_cat=1
split_feature=10 2 5 0 3 8 0 0 3 3 7
split_gain=5.35311 3.76599 5.49259 5.14567 2.74968 1.99018 1.71314 2.31553 1.10491 0.42015 0.47867
threshold=1.0000000180025095e-35 0 2.5000000000000004 15.500000000000002 1.0000000180025095e-35 0.15122928000000005 18.500000000000004 25.500000000000004 3.5000000000000004 4.5000000000000009 0.017725297500000004
decision_type=2 9 2 2 2 2 2 2 2 2 2
left_child=1 2 8 -3 -5 -4 -6 -8 -1 10 -9
right_child=-2 3 5 4 6 -7 7 9 -10 -11 -12
leaf_value=-0.0025034167266253741 0.043330836542696441 -0.05166353232770881 0.049157994139615559 -0.046562213177972378 0.020669370130483054 -0.0011498201166334008 -0.032899699130666746 0.020961178888618665 -0.039179519656220199 -0.013093552244140487 -0.0054162793703818142
leaf_weight=4.5148370619863298 3.2198356250300995 12.669895138591526 6.016976102255283 3.4929047897458103 4.6980080194771316 2.6686360761523247 5.8108132667839509 3.929417060688138 3.0071325767785311 1.2386585865169761 2.1165659502148628
leaf_count=49 118 119 172 30 57 32 47 118 30 20 50
internal_value=-0.0112503 -0.0155321 0.00624527 -0.0214564 -0.011593 0.0351782 -0.00261608 -0.0118435 -0.0200427 0.0068964 0.0122689
internal_weight=53.3837 50.1638 16.2076 33.9563 21.2864 8.68561 17.7935 13.0955 7.52197 7.28464 6.04598
internal_count=842 724 283 441 322 204 292 235 79 188 168
cat_boundaries=0 1
cat_threshold=365824
is_linear=0
shrinkage=0.05


Tree=53
num_leaves=11
num_cat=2
split_feature=10 2 3 0 4 8 1 0 0 3
split_gain=4.52688 3.68013 3.33392 2.93602 1.81335 3.25285 1.59038 0.651675 0.42309 0.0520993
threshold=1.0000000180025095e-35 0 10.500000000000002 10.500000000000002 13.500000000000002 0.13100686500000003 1 17.500000000000004 26.500000000000004 2.5000000000000004
decision_type=2 9 2 2 2 2 9 2 2 2
left_child=1 9 3 -3 6 -6 8 -7 -5 -1
right_child=-2 2 -4 4 5 7 -8 -9 -10 -11
leaf_value=-0.028536194256396891 0.041499237743404423 -0.039352539307404448 -0.044471173467589768 0.0065312704707980139 0.047243447853542786 0.013250804615994302 -0.01070162229173896 -0.017043137265780682 0.034138413124742271 -0.04713537821150024
leaf_weight=8.1526820436120051 2.8837342569604507 2.11321439594031 2.5581980496644965 2.7987022455781698 6.3623402304947358 2.290932934731245 6.9205269832164067 2.9165531788021326 3.645986563526094 9.4582616314291936
leaf_count=80 110 19 20 30 193 25 61 56 142 88
internal_value=-0.0109077 -0.0149027 0.00087591 0.00690969 0.0121965 0.0258301 -0.000582083 -0.00372822 0.0105142 -0.0263583
internal_weight=50.1011 47.2174 29.6065 27.0483 24.935 11.5698 13.3652 5.20749 6.44469 17.6109
internal_count=824 714 546 526 507 274 233 81 172 168
cat_boundaries=0 1 2
cat_threshold=136193 1024
is_linear=0
shrinkage=0.05


Tree=54
num_leaves=16
num_cat=1
split_feature=10 0 2 6 3 0 0 8 8 3 0 8 3 6 7
split_gain=4.9425 3.32072 2.8057 3.91077 2.40157 3.07061 2.01053 1.10971 1.68503 1.08166 0.878425 0.754664 0.679888 0.232113 0.124587
threshold=1.0000000180025095e-35 12.500000000000002 0 0.32051283000000003 6.5000000000000009 25.500000000000004 19.500000000000004 0.16247642500000004 0.084039550500000018 2.5000000000000004 17.500000000000004 0.098780485000000015 1.5000000000000002 0.85599078500000003 0.87500000000000011
decision_type=2 2 9 2 2 2 2 2 2 2 2 2 2 2 2
left_child=1 -1 3 -3 5 6 7 8 10 -5 -4 14 -10 -14 -7
right_child=-2 2 4 9 -6 11 -8 -9 12 -11 -12 -13 13 -15 -16
leaf_value=-0.042267014938770373 0.042360526992630217 -0.038430140730837684 -0.03198644661183047 0.0061174052116424312 -0.049445368980379829 0.028914239037136209 -0.04205089687403292 -0.033852857375706709 -0.0058917017648257635 0.049368232584879948 0.0019174533613272463 -0.01341717326243589 0.032931662513680293 0.0070311005426168319 0.0079658463915255207
leaf_weight=8.713317468762396 2.9809485282748929 1.2921498268842677 3.9426680505275815 2.3651235913857818 4.2118095243349662 3.4565566014498463 6.4413862451910964 2.7768473234027615 2.4711525226011872 4.6535842642188072 2.9392354292795062 1.0498573090881107 2.2009016871452332 2.129018384963274 2.0380298979580402
leaf_count=93 111 16 34 55 36 101 54 19 26 126 36 29 37 29 55
internal_value=-0.0118329 -0.0157783 -0.00942317 0.0109579 -0.0138052 -0.011785 -0.020265 -0.00981921 -0.00296838 0.0373743 -0.0191001 0.0166421 0.013711 0.0239049 0.0235671
internal_weight=53.6626 50.6816 41.9683 8.31086 33.6575 29.4457 22.9012 16.4598 13.683 7.01871 6.8819 6.54444 6.80107 4.32992 5.49459
internal_count=857 746 653 197 456 420 235 181 162 181 70 185 92 66 156
cat_boundaries=0 1
cat_threshold=82176
is_linear=0
shrinkage=0.05


Tree=55
num_leaves=13
num_cat=1
split_feature=10 2 13 5 8 4 8 3 3 3 4 6
split_gain=4.57234 2.72474 3.68427 3.23057 3.6723 1.75671 1.68257 0.649771 1.98801 0.450201 0.115754 0.0390153
threshold=1.0000000180025095e-35 0 1.0000000180025095e-35 1.5000000000000002 0.13100686500000003 36.500000000000007 0.057189543000000002 4.5000000000000009 1.5000000000000002 5.5000000000000009 3.5000000000000004 0.78319625000000015
decision_type=2 9 2 2 2 2 2 2 2 2 2 2
left_child=1 3 -3 -1 9 6 7 8 10 -5 -4 -6
right_child=-2 2 5 4 11 -7 -8 -9 -10 -11 -12 -13
leaf_value=-0.026474806028829637 0.041359708538610519 -0.041231114433926658 -0.0021888560683942888 0.050540984061302252 -0.014078644921024048 0.028673688730670239 -0.038650240039011803 -0.019814007589843755 0.034694392991044466 0.0068151897731596875 -0.017883159904103701 -0.0036430852156456059
leaf_weight=3.929021753370761 2.7991713834926477 17.94977143034339 2.1207412015646714 4.9857827932573837 2.1970539288595319 1.8490449637174595 3.8725349530577651 2.7731169629842043 2.497767573222518 1.0346999494358895 2.9418876972049475 2.5726662650704384
leaf_count=32 110 181 59 152 33 42 32 30 77 25 36 28
internal_value=-0.0120647 -0.015904 -0.020413 0.00497191 0.0219138 -0.00805413 -0.0144059 -0.0027116 0.0051433 0.0450673 -0.0127542 -0.0100569
internal_weight=51.5233 48.7241 34.0049 14.7192 10.7902 16.0551 14.206 10.3335 7.5604 6.02048 5.06263 4.76972
internal_count=837 727 457 270 238 276 234 202 172 177 95 61
cat_boundaries=0 1
cat_threshold=364864
is_linear=0
shrinkage=0.05


Tree=56
num_leaves=16
num_cat=0
split_feature=10 0 3 3 5 8 4 4 6 8 0 3 3 3 8
split_gain=4.76059 3.52769 1.98275 2.34567 1.32279 1.19068 1.20364 1.01746 1.11228 0.85506 0.653855 0.616244 0.568506 0.461598 0.70723
threshold=1.0000000180025095e-35 12.500000000000002 1.0000000180025095e-35 10.500000000000002 2.5000000000000004 0.15663661000000004 66.500000000000014 3.5000000000000004 0.95916665000000012 0.089220565000000016 21.500000000000004 4.5000000000000009 1.5000000000000002 1.5000000000000002 0.051315790000000007
decision_type=2 2 2 2 2 2 2 2 2 2 2 2 2 2 2
left_child=1 -1 -3 4 7 6 9 8 12 -6 -11 13 -4 -9 -15
right_child=-2 2 3 -5 5 -7 -8 11 -10 10 -12 -13 -14 14 -16
leaf_value=-0.042548847242282348 0.042118871065983984 -0.033151711750696707 -0.021303807149497315 -0.03949056537205161 -0.0046086469024771053 -0.010903015913328406 -0.014962906917610836 -0.020773136951790949 0.036442992858620064 0.038665312879391851 0.00066043036737074205 -0.033381640451819128 0.010289452957438754 -0.01291866960322588 0.017664722030773208
leaf_weight=8.1186988875269872 3.0663430830463758 5.4049041830003253 1.7935989052057331 2.8421486169099799 1.5776295261457542 3.3948031496256581 1.4172857720404852 2.8163022361695749 1.3829538393765686 6.3988561886362731 1.3776007089763878 2.6123153343796721 2.0264172460883856 3.063319843262434 2.5422088075429201
leaf_count=92 125 48 25 27 40 43 30 38 57 141 46 26 42 41 38
internal_value=-0.0102372 -0.0144797 -0.00765927 -0.00266778 0.00192239 0.0126389 0.0203545 -0.00761811 0.00942578 0.0266339 0.0327751 -0.0157703 -0.00588673 -0.00734434 0.00152591
internal_weight=49.8354 46.769 38.6503 33.2454 30.4033 14.1662 10.7714 16.2371 5.20297 9.35409 7.77646 11.0341 3.82002 8.42183 5.60553
internal_count=859 734 642 594 567 300 257 267 124 227 187 143 67 117 79
is_linear=0
shrinkage=0.05


Tree=57
num_leaves=12
num_cat=2
split_feature=2 1 8 8 4 4 4 6 8 6 0
split_gain=5.1072 2.13121 4.22293 4.06953 1.2532 2.26423 0.980248 1.17601 1.57144 0.41449 0.360771
threshold=0 1 0.15122928000000005 0.13717584500000005 6.5000000000000009 3.5000000000000004 15.500000000000002 0.88730160000000013 0.12262800000000001 0.95916665000000012 16.500000000000004
decision_type=9 9 2 2 2 2 2 2 2 2 2
left_child=10 2 4 6 5 -2 9 8 -8 -3 -1
right_child=1 3 -4 -5 -6 -7 7 -9 -10 -11 -12
leaf_value=-0.0460672491172891 0.034266851702261854 -0.042143893810844192 -0.028147125136382369 0.030128496305313324 0.049301748126504535 -0.019534345060953438 0.038781497153801733 -0.024421575195579182 -0.020970275933255823 -0.0149102294667788 -0.024316934510091842
leaf_weight=8.4914432466030139 4.3460812410339695 4.3411277346313017 2.5305766034871349 4.0254596397280684 6.3740108641795814 2.2736735492944717 1.6641599284484976 2.4391352441161871 1.0501367663964627 4.1741406172513962 8.2765916027128679
leaf_count=98 134 38 56 66 190 39 60 21 17 38 86
internal_value=-0.0089023 0.00472484 0.0144554 -0.0060812 0.0345008 0.0156494 -0.0222177 -0.00384516 0.0162422 -0.0317641 -0.02387
internal_weight=49.9865 33.2185 15.5243 17.6942 12.9938 6.61975 13.6687 5.15343 2.7143 8.51527 16.768
internal_count=843 659 419 240 363 173 174 98 77 76 184
cat_boundaries=0 1 2
cat_threshold=147521 3200
is_linear=0
shrinkage=0.05


Tree=58
num_leaves=15
num_cat=1
split_feature=10 0 3 1 0 0 0 4 8 6 7 6 4 4
split_gain=3.90243 2.25026 3.34322 3.3104 1.63582 1.37683 2.26147 2.86463 1.88073 0.56967 0.523247 0.288915 0.0380471 0.725968
threshold=1.0000000180025095e-35 25.500000000000004 5.5000000000000009 0 16.500000000000004 17.500000000000004 21.500000000000004 11.500000000000002 0.11834734000000001 0.91751700000000003 0.2763889000000001 0.82247900000000007 9.5000000000000018 36.500000000000007
decision_type=2 2 2 9 2 2 2 2 2 2 2 2 2 2
left_child=1 3 12 4 -1 -5 7 -7 -9 10 11 -6 -3 -14
right_child=-2 2 -4 5 9 6 -8 8 -10 -11 -12 -13 13 -15
leaf_value=0.037572635238353476 0.040282082777935491 0.027346854345036239 -0.034965950608544641 -0.040944198691203443 -0.035303017330098815 -0.027301146435613179 -0.046412876501984619 0.04210616053980424 -0.013590879711485628 0.018717232879271781 0.0079018884520466147 -0.0027909540439650859 -0.015853241891300968 0.027906492182511636
leaf_weight=3.9106201678514463 2.6221172558143726 5.1272665942087752 2.4036816116422415 15.426612418144943 1.007076243869961 4.9320652820169908 3.4851311370730391 2.9620475033298135 1.8296128101646898 1.2919121198356149 1.6079814881086347 1.3204406155273316 0.86506780330091704 1.0851577473804352
leaf_count=48 111 160 25 157 28 40 34 65 21 29 32 39 22 49
internal_value=-0.0102319 -0.0138116 0.00736278 -0.0191792 0.00847546 -0.0230683 -0.0170141 -0.00313161 0.0221646 -0.00222016 -0.0114931 -0.0232402 0.0242877 0.00970165
internal_weight=49.8768 47.2547 9.48117 37.7735 9.13803 28.6355 13.2089 9.72373 4.79166 5.22741 3.9355 2.32752 7.07749 1.95023
internal_count=860 749 256 493 176 317 160 126 86 128 99 67 231 71
cat_boundaries=0 1
cat_threshold=10242
is_linear=0
shrinkage=0.05


Tree=59
num_leaves=17
num_cat=1
split_feature=0 3 3 6 7 1 0 0 8 0 3 6 0 6 4 5
split_gain=3.50882 3.34458 2.21354 1.51035 2.13912 0.930728 1.9492 1.82224 1.61252 1.38066 1.15646 0.834081 0.463474 0.367712 0.26553 0.123021
threshold=12.500000000000002 1.0000000180025095e-35 10.500000000000002 1.0000000180025095e-35 0.17028986000000004 0 17.500000000000004 21.500000000000004 0.10072463500000002 26.500000000000004 4.5000000000000009 0.92724865000000012 20.500000000000004 0.85599078500000003 35.500000000000007 1.5000000000000002
decision_type=2 2 2 2 2 9 2 2 2 2 2 2 2 2 2 2
left_child=13 -2 3 12 5 6 -5 15 11 -9 14 -7 -3 -1 -10 -8
right_child=1 2 -4 4 -6 8 7 9 10 -11 -12 -13 -14 -15 -16 -17
leaf_value=-0.013828334167767617 -0.035813227912521527 -0.02556813282796877 -0.033796243141180293 -0.0070760754757932965 0.04113973150620287 -0.037740068701747016 0.017777265488751567 -0.029556619670065499 0.0065110326902454198 0.022826038395276749 -0.015952710891921826 -0.0026446563177817198 0.0022548721636739691 -0.044825219651097876 0.037002315742130955 0.055486141306994974
leaf_weight=2.6275890097022048 4.8588147945702067 2.7525626346468917 2.4064741618931285 4.3383222520351401 4.5285602230578652 3.294036723673349 1.5901531055569629 1.1585998684167864 1.7002875963225963 2.0172691969200969 1.7323183193802831 3.0619114208966494 2.2406586613506079 4.5836810767650604 1.60344504378736 3.4053538092412055
leaf_count=28 47 18 24 48 166 36 20 14 22 96 17 27 56 63 53 109
internal_value=-0.00677486 -0.000739714 0.00485978 0.00854392 0.0130053 0.00623679 0.0109648 0.0322256 -0.00457629 0.00121445 0.0116512 -0.0234911 -0.0147898 -0.0365903 0.0264689 0.0484499
internal_weight=47.9 40.6888 35.83 33.4235 28.4303 23.9017 12.5097 8.17138 11.392 3.17587 5.03605 6.35595 4.99322 7.21127 3.30373 4.99551
internal_count=844 753 706 682 608 442 287 239 155 110 92 63 74 91 75 129
cat_boundaries=0 1
cat_threshold=3072
is_linear=0
shrinkage=0.05


Tree=60
num_leaves=15
num_cat=2
split_feature=2 1 8 3 6 0 0 3 8 4 3 0 8 4
split_gain=4.29447 4.25084 2.6697 2.28207 1.91711 2.52075 1.5009 0.756402 0.97627 0.406008 0.377036 0.711464 0.371609 0.647626
threshold=0 1 0.09449405000000001 10.500000000000002 0.23303167500000002 25.500000000000004 11.500000000000002 1.0000000180025095e-35 0.16247642500000004 42.500000000000007 1.5000000000000002 16.500000000000004 0.060661765000000006 5.5000000000000009
decision_type=9 9 2 2 2 2 2 2 2 2 2 2 2 2
left_child=-1 3 -3 4 5 -2 -6 -8 9 12 -4 -12 13 -9
right_child=1 2 10 -5 6 -7 7 8 -10 -11 11 -13 -14 -15
leaf_value=-0.024273918737569702 -0.024835188503217347 -0.04258605039552469 -0.011060773883671651 -0.029381633700093574 -0.012307944425449071 0.03492313877729044 -0.00071783366551840121 0.039627466768752409 -0.0035121780552302586 0.010885150262712785 -0.0098574714528013099 0.026801829172339676 0.055006416088760113 0.0062401629101792077
leaf_weight=9.8556499965488911 3.6351160574704471 6.8423535805195552 2.6019012732431293 1.4012396708130825 1.3808899074792886 1.8532399237155912 1.3499298505485082 3.3890368752181512 1.171195632778107 1.8090824559330929 1.7517726793885233 1.8167013507336376 6.269229578319937 2.8272681683301926
leaf_count=127 39 61 40 17 15 84 12 128 20 38 18 46 171 47
internal_value=-0.006702 0.00362848 -0.0135531 0.0139555 0.0232593 -0.00238425 0.030715 0.0347405 0.0376911 0.0410759 0.00118926 0.0105872 0.0443189 0.0274114
internal_weight=47.9546 38.099 13.0127 25.0862 23.685 5.48836 18.1966 16.8157 15.4658 14.2946 6.17038 3.56847 12.4855 6.21631
internal_count=863 736 165 571 554 123 431 416 404 384 104 64 346 175
cat_boundaries=0 1 2
cat_threshold=1 11904
is_linear=0
shrinkage=0.05


Tree=61
num_leaves=18
num_cat=1
split_feature=2 0 6 8 6 8 4 0 0 0 4 0 4 6 6 0 6
split_gain=3.68657 4.62999 3.83837 1.99228 1.08482 1.32874 0.976764 0.817866 0.583023 0.582313 0.672092 0.467852 0.330945 0.704278 1.04163 0.571552 0.201997
threshold=0 13.500000000000002 1.0000000180025095e-35 0.16141439500000002 0.89087301500000005 0.15122928000000005 5.5000000000000009 19.500000000000004 26.500000000000004 16.500000000000004 11.500000000000002 18.500000000000004 12.500000000000002 0.85599078500000003 0.91485510000000014 24.500000000000004 0.95916665000000012
decision_type=9 2 2 2 2 2 2 2 2 2 2 2 2 2 2 2 2
left_child=2 -2 -1 6 5 9 7 -3 -9 -4 -11 -6 15 -14 -15 -8 -10
right_child=1 3 4 -5 11 -7 12 8 16 10 -12 -13 13 14 -16 -17 -18
leaf_value=-0.035820190237660858 -0.051715306774883174 0.027430038594267205 0.065981280731638434 0.03257702385256718 -0.012480188040826928 0.0027599259953176064 -0.040491001389894171 -0.026266866856584553 -0.0043866272571959283 3.710580982918283e-05 0.037418480602510844 0.016921348709371391 -0.025022546393289859 0.013486832528158778 -0.022074567064751138 -0.0075162174377940887 0.015432998198230217
leaf_weight=2.0354909598827353 7.2530625760555258 1.5018007270991862 2.1883104331791383 1.7805222580209363 1.8039021799340837 2.5469798687845469 2.9429275915026691 1.3549213595688341 2.1560485847294331 1.7518695117905734 2.8477725326083601 1.6311531919054685 4.3808127408847195 4.2304209675639868 2.3969334363937378 2.8079682178795338 1.3148654373362663
leaf_count=12 88 18 28 68 27 35 24 12 53 52 133 42 52 60 28 43 67
internal_value=-0.00771827 -0.0147249 0.0102705 -0.0080461 0.0271436 0.0352434 -0.0124015 0.00390972 -0.00686176 0.0455124 0.0257302 0.00214866 -0.0184334 -0.0115826 -0.000582643 -0.0278888 0.00489406
internal_weight=46.9258 32.1203 14.8055 24.8672 12.77 9.33493 23.0867 6.32764 4.82584 6.78795 4.59964 3.43506 16.7591 11.0082 6.62735 5.7509 3.47091
internal_count=842 513 329 425 317 248 357 150 132 213 185 69 207 140 88 67 120
cat_boundaries=0 1
cat_threshold=364800
is_linear=0
shrinkage=0.05


Tree=62
num_leaves=18
num_cat=1
split_feature=2 0 6 0 24 6 11 8 3 4 0 0 7 4 3 5 3
split_gain=3.54563 3.17471 2.73837 1.86497 1.15297 1.20925 1.08977 0.844732 0.738961 0.879028 1.70557 1.02332 0.705595 0.271439 0.402475 0.131776 0.0800921
threshold=0 17.500000000000004 0.24264706000000003 19.500000000000004 1.0000000180025095e-35 0.89087301500000005 1.0000000180025095e-35 0.13904152500000003 1.0000000180025095e-35 14.500000000000002 21.500000000000004 25.500000000000004 0.87500000000000011 7.5000000000000009 2.5000000000000004 4.5000000000000009 2.5000000000000004
decision_type=9 2 2 2 2 2 2 2 2 2 2 2 2 2 2 2 2
left_child=1 7 -2 4 5 -4 8 -1 -3 11 -11 -10 -8 14 -13 -5 -14
right_child=2 6 3 15 -6 -7 12 -9 9 10 -12 13 16 -15 -16 -17 -18
leaf_value=-0.045111137521976236 -0.035046629881441568 -0.036592785209515373 0.055287234637632403 -0.01648128409585722 -0.0057395939140283828 0.010709490030026657 0.03245973397930637 -0.01491626745923273 -0.032664656601789445 0.032389615908461546 -0.020415357756867605 0.025554789664660345 -0.0077411776895721165 -0.0080446718195726265 -0.0099530661103487232 0.0019597305278264243 0.0042186458050533096
leaf_weight=10.64511204138398 1.3565539913251985 1.9973825030028844 4.6926071834750456 1.3393761320039623 1.2489915024489162 2.8641174826771021 1.3943720720708359 4.5751931369304648 3.8034480251371843 2.3360316250473252 1.9126725289970634 0.95884065423160769 1.7599115911871197 2.7802732791751623 0.64458372630178928 1.3291269354522226 1.9295431580394504
leaf_count=125 20 22 138 30 30 53 66 51 30 33 43 62 35 43 16 36 34
internal_value=-0.0108686 -0.0164961 0.00950965 0.024788 0.0350003 0.0416177 -0.0071162 -0.0375138 -0.0139127 -0.00781755 0.00925743 -0.0167217 0.0112946 0.000608885 0.0129403 -0.00926576 -0.00192053
internal_weight=47.5681 34.7374 12.8308 11.4742 8.80572 7.55672 19.5171 15.2203 14.4332 12.4358 4.2487 8.18715 5.08383 4.3837 1.60342 2.6685 3.68945
internal_count=867 560 307 287 221 191 384 176 249 227 76 151 135 121 78 66 69
cat_boundaries=0 1
